#include "primaryobjectneuralnetwork.h"

static size_t PRIMARYOBJECTNEURALNETWORK_LAYERS[3] = {100, 170, 3};
static float PRIMARYOBJECTNEURALNETWORK_WEIGHTS_1[17170] = {0.79242, -0.59783, 0.22732, 0.23817, 0.79653, -0.22665, 0.088287, 0.54201, 0.57406, -0.003692, 0.56146, -0.25875, 0.4662, 0.022574, 0.47717, 0.52146, 0.46917, -0.032388, -0.11687, -0.019073, -0.39742, 0.18948, 0.57359, 0.531, -0.15739, 0.33259, 0.13156, -0.29909, 0.25822, -0.24646, -0.10976, 0.34607, 0.16105, -0.22576, -0.57154, 0.1692, 0.80429, 1.5073, 0.29547, -0.0071664, 0.13578, -0.3628, -0.0017824, -0.24683, -0.45462, 0.80586, -0.79155, 0.93047, -0.83359, -1.0103, 0.0049284, 1.214, -0.0082829, 0.26491, -0.11756, 0.54965, -0.025087, -0.074441, 0.053266, 0.14922, 0.31232, 0.80361, -0.16129, 1.0788, 0.36794, 0.26917, -0.19468, -0.097679, 0.29495, -0.44338, 0.53847, -0.4478, 0.42769, -0.37402, 0.33982, -0.62483, 0.29122, 0.7607, -0.22824, -0.34853, 0.26052, -0.25646, 0.41442, 0.22888, 1.1158, 0.010235, 0.37453, -0.21957, -0.0711, -0.35721, -0.10625, -0.92794, -0.30558, 0.15819, 0.13212, 0.54167, -0.031831, 0.010022, -0.9867, -0.054259, -0.63703, -0.18602, -0.50466, 0.64048, -0.066682, 0.44242, 0.68697, -0.23071, 0.62319, -0.67247, 0.18602, 0.39364, -0.087118, 0.5291, -0.24134, 0.040971, -0.17668, 0.258, -0.43066, 0.4598, 0.089732, -0.24169, 1.0198, -0.55384, 0.42963, 0.016898, -0.29399, 0.21949, -0.37997, -0.49934, 0.083716, -0.47922, -0.93252, 0.49142, 0.80521, -0.048408, 0.6223, -0.30013, 0.17164, 0.32646, -0.31457, 0.47858, -0.12951, -0.5469, 0.46719, 0.72135, -0.038396, 0.04374, 0.97741, -0.42266, -0.097685, -0.41681, -0.80686, -0.84933, 0.45002, 0.47829, 0.3525, -0.1231, 0.13932, -0.30547, 0.050155, -1.0598, -0.44023, 0.38236, 0.0039681, 1.2364, -0.52252, 0.69943, 0.13386, -0.36687, -0.25463, 0.125, -0.04248, -0.085699, 0.12037, -0.20909, 0.10407, -0.10265, -0.30516, -0.10757, -0.095279, 0.023982, -0.32655, -0.26479, 0.22052, -0.28931, 0.082389, 0.087381, 0.21547, -0.040477, 0.18102, -0.079399, -0.092481, 0.13936, 0.11197, 0.16965, -0.36752, 0.12909, -0.17857, 0.12855, -0.15066, -0.11653, 0.09312, -0.16011, -0.1509, 0.069689, -0.03936, -0.0001504, -0.29455, 0.020605, 0.029263, -0.091856, -0.016411, 0.26842, -0.35488, 0.028331, 0.29076, -0.025907, 0.10461, 0.019762, -0.10841, -0.15638, 0.24277, 0.21517, 0.24386, -0.11735, 0.051762, 0.09151, 0.18274, -0.12309, 0.098174, -0.060864, 0.13496, -0.1105, -0.31322, 0.031277, 0.10947, -0.20127, 0.26511, 0.097964, -0.0057285, -0.10157, 0.12056, 0.12257, 0.094908, 0.11258, -0.14686, 0.070475, -0.18747, 0.10992, 0.07004, 0.25998, 0.085259, -0.15775, -0.012746, -0.11297, -0.23941, 0.0043761, 0.25555, 0.20441, 0.10605, 0.0060257, -0.16957, -0.22973, -0.22814, -0.14436, 0.040003, -0.037749, 0.089305, 0.42649, 0.22915, 0.11033, 0.28375, 0.058439, 0.11301, -0.11297, -0.16737, 0.071944, -0.073525, -0.061309, 0.036244, -0.15178, -0.017771, -0.15307, -0.048872, -0.027256, -0.21472, -0.1657, 0.27254, -0.055722, 0.2329, -0.054709, 0.0055427, 0.15932, -0.13437, 0.20899, 0.20826, -0.14524, 0.18942, 0.089409, -0.34168, -0.12538, 0.18336, -0.30578, -0.0040385, -0.29053, -0.055247, -0.1046, -0.080203, -0.039389, -0.12207, -0.053993, 0.097815, 0.11885, -0.10623, -0.17394, 0.10088, -0.33134, -0.022291, -0.0041598, 0.099198, 0.1865, 0.012776, 0.12984, -0.20416, -0.04251, 0.20899, -0.050534, 0.0069518, -0.20003, -0.084165, 0.10546, 0.099966, -0.046193, -0.14726, -0.019912, 0.037742, -0.32419, -0.25927, 0.037665, 0.073231, 0.010231, -0.21925, -0.04369, -0.20641, -0.10835, -0.11023, -0.29595, 0.13688, -0.18192, 0.1885, -0.364, -0.024551, 0.023306, 0.28225, -0.14545, -0.3338, -0.28634, 0.32544, -0.35324, 0.088467, -0.15635, 0.1724, -0.22052, -0.0088463, 0.25911, 0.017153, -0.36257, 0.16234, 0.044117, -0.0096292, -0.15982, -0.076744, 0.079326, 0.41278, 0.046784, -0.27554, 0.057676, -0.13779, -0.36552, 0.20918, 0.020652, -0.39748, -0.16908, 0.26132, -0.14691, -0.26593, 0.044766, -0.1595, -0.011141, 0.38424, 0.19582, -0.063012, 0.0094371, 0.14124, -0.16672, 0.0058295, -0.051268, 0.19254, 0.089025, -0.10456, -0.17647, -0.21043, -0.030602, -0.30106, 0.1941, -0.12868, -0.054643, -0.17799, 0.05655, -0.19394, 0.31486, 0.25005, -0.081203, -0.35346, -0.12742, -0.050456, -0.33172, -0.41972, 0.083456, 0.20504, 0.05177, 0.045905, 0.094152, 0.11107, -0.042638, 0.10374, 0.091148, -0.19403, -0.14499, -0.06607, -0.013133, -0.1496, 0.10275, 0.20786, 0.14018, 0.0046983, -0.21824, -0.17515, -0.12809, 0.25637, -0.22297, -0.031163, -0.048786, -0.073295, 0.22083, 0.14461, 0.031661, -0.28714, -0.10075, 0.1498, -0.19607, 0.25548, -0.16322, 0.14172, 0.34001, -0.04565, -0.0096935, 0.22161, -0.35046, -0.27131, 0.49363, -0.094413, -0.018243, -0.0153, -0.12889, -0.097063, -0.37598, 0.070669, -0.13314, -0.10672, -0.40481, 0.027111, 0.20631, -0.22244, 0.048279, -0.29903, -0.38971, -0.18793, 0.060835, -0.10017, 0.10969, 0.09054, -0.079914, 0.13533, 0.10642, -0.04582, -0.022697, 0.0055289, 0.20445, -0.45338, 0.13301, -0.19266, -0.041448, 0.11556, -0.24068, 0.31714, 0.070393, -0.51623, -0.17556, 0.32262, -0.062632, -0.12021, -0.18222, 0.14355, 0.15014, -0.060261, 0.06658, 0.046173, -0.18883, 0.12756, -0.26833, -0.12664, 0.069107, -0.047087, 0.010597, -0.11234, 0.16737, 0.24079, 0.10715, -0.12513, 0.021562, -0.050747, 0.12573, 0.070654, -0.02356, 0.10594, -0.29408, -0.036592, -0.095085, -0.15896, 0.076821, -0.20159, 0.19734, 0.14548, -0.14481, 0.082916, -0.14748, -0.027952, 0.10571, 0.22632, 0.18228, -0.11396, 0.049373, 0.27294, -0.069321, -0.057428, 0.096431, 0.1678, -0.24367, 0.0080433, -0.035968, -0.085061, -0.01913, 0.18812, 0.21024, 0.057752, 0.086769, 0.10953, -0.27126, 0.10175, 0.1292, -0.03455, -0.11917, -0.21036, -0.021926, -0.17608, -0.10172, 0.0011356, 0.13858, 0.30245, 0.0019949, -0.015391, 0.22056, 0.15408, -0.14027, -0.059161, 0.10235, 0.21928, 0.30176, 0.17118, 0.12291, -0.047404, -0.024501, 0.25996, 0.0080339, 0.32416, -0.11524, -0.15992, 0.0086492, -0.17356, -0.028282, 0.17673, 0.50382, 0.09827, 0.067169, -0.096411, 0.33167, 0.084459, 0.054733, 0.16548, 0.023272, -0.0020096, 0.07165, 0.00068673, 0.2655, 0.29771, 0.22022, -0.22909, -0.17806, 0.056479, 0.090358, -0.16429, -0.47007, 0.04945, 0.178, 0.026469, -0.17961, -0.10503, -0.035687, 0.048517, 0.068869, -0.29434, -0.071501, -0.19903, 0.34378, 0.11175, -0.12997, -0.1202, 0.069441, 0.14618, 0.093097, -0.029704, -0.16255, 0.11982, -0.23102, -0.0078652, -0.031523, 0.19626, -0.15432, 0.061893, -0.045421, 0.12289, -0.10399, 0.062207, 0.0034205, 0.23443, 0.095554, 0.047101, 0.18601, 0.097044, -0.085221, -0.11787, -0.13922, -0.13063, 0.10815, 0.066533, 0.16055, -0.014327, 0.19408, 0.11973, -0.025559, 0.17021, 0.14475, -0.24363, -0.18909, -0.10212, 0.22531, 0.077787, 0.29494, -0.066123, -0.12249, 0.38816, -0.062058, 0.36448, 0.197, -0.3233, 0.14774, 0.020079, 0.010311, -0.31631, 0.029967, 0.26724, 0.1557, 0.17465, 0.12147, 0.0067526, -0.4367, -0.050584, 0.21361, 0.0055184, 0.08045, -0.01211, 0.12758, -0.027913, -0.13062, -0.12372, 0.31319, -0.058407, 0.07574, 0.011869, -0.25274, 0.20583, -0.36084, 0.10702, -0.26104, -0.0078262, 0.19524, 0.060947, -0.30828, -0.10362, 0.12392, 0.1791, -0.14321, -0.20036, -0.096849, -0.098328, 0.087579, -0.13617, 0.025372, 0.048403, 0.29608, -0.17984, 0.16118, -0.20663, -0.24148, -0.28859, 0.011513, 0.25375, -0.36914, -0.23066, 0.22539, -0.29035, -0.10678, 0.015027, -0.022772, -0.12964, -0.16351, -0.47141, 0.043076, -0.092525, 0.115, 0.22988, 0.15764, -0.090987, -0.018389, -0.097136, -0.32402, 0.018118, -0.23009, 0.14117, 0.12984, -0.29578, 0.25859, -0.23777, -0.1679, -0.49966, -0.35412, 0.11773, -0.22805, 0.12677, 0.1464, 0.26396, 0.08072, -0.21303, -0.02161, 0.0039443, -0.0024687, -0.13502, 0.15797, 0.06963, -0.27252, 0.024623, 0.10321, 0.015681, 0.32063, 0.20734, -0.2503, 0.058684, -0.10615, -0.01524, 0.372, 0.24186, 0.50814, 0.16809, 0.28349, -0.1712, -0.31207, -0.32588, 0.13853, -0.058718, 0.28363, 0.21178, 0.12416, -0.067882, -0.33339, -0.63568, 0.53103, -0.12716, -0.52109, -0.12707, -0.18197, -0.49212, 0.063519, 0.2356, -0.23123, 0.21183, -0.03974, -0.2744, 0.21632, 0.22455, -0.07364, -0.040358, 0.37677, -0.078343, -0.32007, 0.25418, 0.26371, 0.0052971, -0.26302, -0.17296, -0.094523, -0.32135, -0.069903, 0.2139, -0.36036, 0.1814, 0.22466, -0.14981, -0.044641, 0.090003, -0.043172, -0.013239, 0.26013, 0.050544, 0.096001, -0.036792, -0.17016, -0.26332, 0.059096, 0.036907, 0.35571, 0.17816, -0.15225, -0.013931, 0.018744, 0.22669, -0.1053, -0.12603, 0.064716, -0.00093892, 0.021556, -0.24502, -0.26833, -0.35047, 0.21869, 0.25276, -0.18205, 0.2217, -0.27524, -0.25882, -0.19331, 0.098161, 0.061679, 0.018698, 0.063849, 0.32576, -0.065993, 0.26944, 0.41219, -0.014595, 0.45174, 0.0564, 0.4041, -0.31885, -0.079503, 0.3822, -0.32331, 0.020416, -0.076528, -0.35732, 0.18651, -0.23952, -0.037511, 0.11604, 0.23987, 0.17068, -0.30987, 0.016445, 0.17686, 0.33995, -0.46645, 0.083971, 0.17043, -0.077429, 0.33473, -0.099797, 0.014622, -0.018906, 0.3091, 0.23833, -0.13671, 0.19603, -0.48487, -0.039711, 0.087831, -0.23108, 0.239, 0.37997, 0.121, 0.097016, -0.2329, 0.32752, -0.47017, -0.12872, -0.58045, -0.094046, 0.095129, -0.069982, -0.11646, -0.5919, -0.17564, -0.073934, -0.21194, 0.40551, 0.22893, 0.24517, 0.53133, -0.46596, 0.20277, -0.13418, -0.11755, -0.231, 0.24192, -0.23383, 0.16352, -0.00092802, -0.080085, -0.036942, 0.22126, -0.35792, 0.33406, -0.16202, -0.20913, 0.12175, -0.1815, -0.34011, -0.32426, 0.55768, -0.18008, 0.2297, 0.1406, 0.30505, -0.3233, -0.10295, 0.10674, -0.37176, 0.091776, -0.12283, 0.20092, -0.048439, -0.39565, -0.31516, 0.075686, -0.057766, -0.17737, 0.37493, -0.36484, 0.32203, -0.23001, -0.035606, 0.073589, 0.39166, -0.10578, -0.086549, 0.42513, -0.39142, 0.062381, 0.033401, -0.17466, -0.02215, 0.60361, 0.02996, 0.049997, -0.31938, 0.42061, -0.50214, -0.20387, -0.11121, -0.1916, -0.44195, 0.22712, 0.42839, 0.31583, -0.092273, 0.16601, -0.4505, 0.23516, 0.1222, 0.42697, 0.05049, 0.12308, 0.17619, -0.20873, 0.055839, -0.2044, -0.12339, 0.12684, 0.23724, 0.013276, -0.064898, -0.047168, -0.22528, -0.058875, -0.17226, -0.58271, 0.23876, 0.27741, 0.10577, -0.1569, -0.096461, 0.03217, -0.4115, 0.24812, -0.14887, 0.24019, 0.06481, 0.19372, -0.21509, -0.10081, 0.099725, -0.38905, -0.0060484, 0.027429, 0.043006, -0.16672, 0.11998, -0.040882, 0.16738, -0.065425, 0.052917, 0.078681, -0.097312, 0.039642, 0.0024771, 0.0815, -0.18223, -0.10284, -0.019239, -0.10257, 0.080805, 0.030421, -0.16283, 0.50027, 0.11707, -0.40068, 0.015342, -0.011866, -0.35352, 0.17206, 0.43158, 0.31346, -0.011855, 0.0033911, 0.024106, 0.1841, -0.14641, 0.15447, 0.048948, 0.11818, 0.052257, -0.11663, 0.013237, 0.029509, -0.23764, 0.014746, -0.14527, -0.198, -0.082309, -0.16569, -0.010828, 0.020761, 0.20103, -0.30145, 0.066499, 0.24624, -0.059861, -0.019286, -0.097098, -0.081202, -0.10931, -0.087786, 0.22782, -0.14012, 0.06274, 0.084815, 0.18197, 0.27182, 0.070132, -0.38087, -0.14472, 0.0088612, -0.3852, 0.096814, -0.1194, 0.21595, 0.049557, -0.1876, -0.13079, 0.011472, 0.046492, 0.32361, -0.070576, 0.30996, -0.17677, -0.31908, 0.36898, -0.018197, 0.35405, 0.088433, 0.12634, 0.38322, -0.17384, 0.082702, -0.49443, -0.073571, -0.45833, -0.41644, 0.14667, 0.15498, -0.20756, -0.065865, -0.079371, -0.036869, 0.19002, -0.19964, 0.37426, -0.11643, 0.18522, 0.1034, -0.084688, 0.06349, 0.13688, -0.18202, 0.096433, -0.13292, -0.15079, 0.21842, 0.34822, 0.18075, -0.11239, -0.12025, -0.021136, -0.045811, -0.51742, 0.19746, -0.19742, -0.043323, -0.26814, -0.44228, -0.08659, -0.56057, -0.39723, 0.10712, -0.33472, 0.091888, 0.0018507, -0.16655, 0.40853, -0.016101, 0.17289, -0.34263, -0.11984, -0.064749, -0.16771, -0.25092, 0.17127, 0.067135, -0.12642, -0.34828, 0.3127, -0.017269, -0.16487, 0.36211, -0.32113, -0.29811, 0.12931, 0.0779, 0.34246, -0.18158, -0.46077, -0.21456, -0.082984, -0.10103, 0.26262, -0.093257, -0.18834, -0.050019, -0.099577, -0.095882, -0.20434, 0.18289, -0.17376, -0.027462, -0.15334, -0.21728, 0.026397, 0.24052, 0.22342, -0.12982, -0.13551, -0.59726, 0.10779, -0.25971, -0.21153, 0.0020909, -0.049244, -0.39707, -0.17415, 0.040168, 0.28948, -0.039375, 0.23505, -0.053168, 0.40344, 0.090995, 0.10971, -0.38658, -0.19284, 0.016151, -0.075037, 0.21755, -0.41025, -0.17819, -0.023143, 0.2365, -0.065739, 0.1095, -0.47051, 0.57548, -0.011899, 0.42821, -0.2121, -0.30639, -0.21084, 0.11508, 0.36798, 0.43644, -0.35674, 0.31957, 0.32669, 0.32984, -0.43517, 0.21414, -0.37944, 0.11085, 0.012884, 0.22542, -0.33148, 0.075089, -0.32629, -0.15412, 0.34502, 0.15927, 0.10353, 0.42192, -0.3126, 0.1776, 0.096447, 0.3945, -0.042025, -0.25654, -0.40788, -0.017455, -0.089107, -0.16083, -0.0084638, 0.10873, -0.23878, -0.2734, -0.236, 0.60145, 0.55219, -0.12648, -0.081306, -0.067053, 0.10245, -0.058052, -0.32214, -0.20248, -0.11176, -0.30128, 0.32471, -0.1029, 0.21411, -0.13555, 0.29805, 0.22205, 0.095032, -0.01103, -0.14078, -0.018454, 0.12582, 0.23031, 0.059872, -0.14192, -0.063563, 0.19681, -0.14357, 0.045588, 0.15275, 0.34663, 0.064846, -0.18456, -0.10353, -0.094758, -0.14851, 0.20484, 0.15135, 0.09938, -0.18221, 0.079309, -0.25267, -0.27189, 0.068384, -0.1491, -0.24995, 0.24961, 0.049155, 0.10197, -0.092749, -0.027049, 0.50686, -0.0074917, 0.24125, 0.26342, -0.065432, 0.032481, -0.0078073, 0.13221, -0.038791, -0.03272, -0.061268, -0.14677, 0.40814, -0.14004, -0.34714, -0.044292, 0.012136, -0.16145, -0.15155, 0.13512, -0.18005, 0.13555, 0.046667, 0.3284, 0.047625, -0.12184, 0.20179, -0.052731, -0.015105, -0.17265, 0.19375, -0.13452, 0.42826, -0.2208, -0.37186, 0.10103, 0.27888, -0.20195, 0.0083787, 0.26014, -0.041503, 0.38922, 0.046828, 0.17251, 0.40649, 0.21676, -0.18465, -0.29362, -0.18166, 0.042877, -0.15243, 0.020268, -0.033832, 0.21621, 0.008812, 0.25984, -0.12387, 0.010193, 0.51076, 0.098468, -0.23182, -0.14183, -0.2571, 0.10661, 0.091242, -0.085698, 0.20586, 0.32518, 0.073728, -0.017053, 0.17101, -0.077696, -0.12938, -0.29444, -0.028504, -0.26774, -0.027209, -0.095174, -0.10667, -0.4712, 0.52081, -0.36731, -0.22377, -0.012147, -0.05198, -0.21615, 0.01752, 0.032901, -0.061941, 0.25659, -0.097356, -0.28105, 0.151, 0.35087, 0.082947, 0.027784, 0.085651, 0.00301, -0.050862, -0.10166, -0.095825, 0.05856, 0.24335, -0.28996, -0.10678, -0.044489, -0.084739, 0.010811, -0.21606, 0.0020154, -0.1267, -0.0692, 0.22372, 0.015437, 0.025125, 0.35595, -0.1332, 0.14896, 0.030868, -0.4269, 0.18604, 0.24345, -0.090233, -0.25443, -0.30696, 0.053828, 0.091679, -0.007481, -0.23308, 0.19294, 0.24134, -0.14421, -0.097352, -0.22213, -0.1556, 0.070087, 0.065628, 0.36981, -0.031005, -0.33477, -0.25017, -0.20429, -0.025746, 0.21737, -0.25464, 0.071312, 0.17511, 0.12266, -0.070055, -0.11323, -0.072395, 0.091782, -0.17082, 0.14791, -0.13363, -0.23165, -0.29115, 0.00088897, 0.14199, -0.12646, 0.072872, -0.22113, 0.26473, -0.1899, 0.319, 0.17214, -0.083642, -0.28383, 0.26813, -0.066473, 0.11677, 0.6306, -0.25264, -0.3432, -0.25996, 0.23762, -0.053637, 0.19759, 0.58031, 0.00181, -0.13383, 0.092145, -0.10636, 0.18943, -0.16199, 0.033222, 0.097734, 0.31917, -0.11496, -0.043369, 0.018515, 0.24805, -0.25659, -0.046768, 0.21985, -0.16981, 0.057448, 0.062998, -0.13014, 0.072671, -0.0058787, -0.049957, -0.15364, -0.36524, 0.17842, 0.011023, -0.18724, 0.22536, 0.29028, 0.089896, -0.07543, -0.32664, -0.075011, -0.034495, 0.11505, -0.0043122, -0.0069704, 0.11265, 0.55929, 0.41606, -0.04665, 0.088964, -0.14642, -0.33026, -0.21496, -0.062107, 0.2075, 0.14791, -0.12507, -0.18768, -0.3812, -0.28803, -0.41636, -0.19706, 0.36636, -0.033567, -0.0083252, -0.1972, 0.16402, 0.26043, 0.042047, 0.3681, -0.13251, 0.098629, -0.45854, 0.1234, 0.22556, 0.082572, -0.31726, -0.068397, 0.37722, -0.36266, -0.043954, -0.015539, 0.012712, -0.061295, 0.1517, -0.30999, 0.18299, -0.23396, -0.025016, -0.31283, -0.1709, 0.15873, -0.13301, 0.04549, 0.038231, -0.060828, -0.20766, 0.13417, 0.096315, -0.12037, -0.071609, -0.055065, 0.19654, 0.24728, 0.16472, 0.16656, -0.16669, 0.25044, -0.11911, 0.13682, 0.29962, 0.10137, 0.343, 0.0030074, -0.39662, 0.11169, 0.33018, -0.18297, -0.11441, -0.043402, 0.21195, -0.41418, -0.29654, -0.13914, 0.41544, 0.26048, -0.057263, -0.12835, 0.10587, -0.078621, -0.013082, 0.21829, 0.018092, 0.034894, -0.069989, -0.17094, 0.02596, -0.25652, 0.086506, 0.13419, 0.43844, 0.026412, 0.14179, -0.051144, 0.37892, 0.079674, -0.26332, 0.24805, 0.23071, 0.10404, -0.27656, -0.72146, -0.39636, 0.34637, 0.1828, -0.0086193, -0.021818, -0.28042, -0.18979, 0.29938, -0.14726, -0.29589, 0.29634, 0.39035, -0.063272, -0.29486, -0.023669, -0.31026, 0.12459, 0.31941, 0.082269, 0.049596, 0.2395, -0.10592, 0.11713, 0.12528, 0.14448, -0.11236, 0.41466, -0.33626, 0.19175, -0.083049, 0.3824, -0.3149, -0.01264, -0.17104, -0.063006, 0.29948, -0.044173, 0.32816, -0.44564, -0.22192, 0.44099, -0.16478, -0.093187, 0.072987, 0.10466, 0.024895, 0.2126, -0.17829, 0.10347, -0.093497, -0.18931, -0.1434, -0.19877, 0.37229, -0.3273, 0.22384, 0.035677, -0.14123, 0.058109, 0.069712, -0.18627, 0.1029, 0.055218, 0.17863, 0.0099148, 0.11824, 0.19686, -0.0021776, 0.27311, -0.17068, -0.39968, 0.42477, 0.22796, -0.1709, -0.14826, -0.25863, -0.059889, 0.062763, -0.27376, 0.071081, -0.025779, -0.11885, -0.16644, -0.2936, -0.16848, 0.13967, 0.25958, 0.060815, -0.20123, 0.029674, -0.19855, -0.020606, -0.21393, -0.016229, -0.22141, 0.20336, -0.10611, 0.25471, 0.27671, 0.16208, 0.14058, -0.15009, -0.069205, 0.15167, -0.016045, 0.030353, -0.047846, -0.21953, 0.093081, -0.0072037, 0.19456, 0.22706, -0.27875, 0.059551, -0.36506, 0.32703, -0.12893, -0.27108, 0.092618, 0.15235, 0.40142, -0.12641, 0.11122, -0.22541, 0.21533, 0.13448, -0.19232, 0.098732, 0.30215, 0.074658, 0.011744, -0.058987, 0.070319, 0.0084256, 0.22496, 0.15198, -0.10493, 0.14378, 0.33348, 0.20678, -0.20424, -0.0070699, 0.12754, 0.35278, -0.09966, -0.17401, -0.045029, -0.34413, -0.10322, 0.20005, -0.069064, -0.26667, -0.62282, -0.13427, 0.11732, -0.26679, -0.085635, -0.074981, 0.031116, 0.13096, -0.083565, 0.18237, 0.1524, -0.015306, -0.0369, -0.014049, 0.083508, -0.07111, -0.063557, 0.206, -0.035352, -0.19553, -0.081666, -0.14598, 0.099499, 0.38102, -0.11046, 0.11918, 0.25973, -0.2248, -0.19727, -0.11918, -0.12471, 0.1098, 0.13801, -0.38956, 0.03334, 0.098421, 0.18034, 0.082452, -0.18442, -0.11723, 0.10545, -0.19204, 0.11783, -0.18514, 0.070308, 0.0083598, 0.2537, -0.32368, 0.27271, 0.1588, 0.032235, -0.38181, 0.49352, 0.40755, 0.19478, -0.45188, 0.226, -0.0048486, -0.054812, -0.073004, 0.082903, -0.2379, -0.014202, -0.13888, 0.51596, -0.33323, 0.28224, -0.10252, 0.017032, 0.015304, -0.063716, 0.017788, 0.21856, -0.24778, -0.012619, -0.1927, 0.10779, -0.05858, -0.0079779, 0.13508, 0.047829, 0.055684, 0.30519, -0.28924, 0.1086, 0.025024, 0.18361, 0.28006, 0.17547, -0.19549, 0.082092, -0.043305, -0.0024085, -0.074377, 0.11341, 0.020111, 0.13053, -0.061346, 0.063329, -0.16497, -0.12862, -0.25278, 0.27433, -0.027557, 0.033046, -0.29174, -0.10986, 0.29346, -0.17589, -0.14832, -0.17032, -0.096909, -0.056377, -0.10099, 0.17022, 0.066007, -0.1202, -0.33946, -0.34222, -0.03015, -0.018275, -0.2061, -0.45336, 0.07812, 0.042985, 0.0076144, 0.093782, -0.21203, -0.12622, 0.02269, 0.078335, 0.29604, 0.40042, 0.17895, -0.17535, -0.21457, 0.066814, -0.26044, 0.10483, 0.036495, 0.00043836, -0.23202, 0.052419, 0.1404, 0.055712, -0.12172, 0.19146, 0.24825, -0.11041, -0.34839, 0.01925, -0.15012, -0.12823, -0.067977, 0.081003, 0.076327, 0.12307, -0.16653, 0.10179, -0.015653, -0.22507, -0.087267, 0.10417, 0.35124, 0.23793, -0.13918, 0.001384, 0.21803, 0.060443, 0.0966, -0.13225, 0.061373, -0.10549, 0.023171, 0.19924, 0.036754, 0.20884, -0.15378, 0.15003, 0.0027484, 0.053419, 0.17329, -0.26998, 0.08718, 0.23306, 0.17759, -0.4801, -0.070325, -0.077955, 0.30989, -0.048993, -0.31556, -0.1503, 0.166, 0.012783, -0.14876, -0.14496, 0.21227, 0.45689, -0.12069, -0.033705, -0.11741, -0.18684, 0.36837, 0.27136, 0.35312, -0.36681, 0.34109, -0.094832, -0.046073, -0.17224, 0.020125, -0.14052, 0.2042, 0.19545, 0.0522, -0.041487, -0.0014963, -0.12915, 0.15044, -0.021879, 0.084224, 0.30398, 0.111, -0.061587, -0.078166, 0.046182, -0.23275, -0.0024689, -0.11614, 0.15367, -0.11986, -0.069356, 0.51881, 0.34117, 0.0055031, -0.15647, -0.27995, 0.15599, -0.053512, -0.056805, -0.046582, -0.18348, -0.47078, 0.08709, -0.3159, 0.023069, -0.024819, 0.0097287, -0.10207, -0.18931, 0.47645, 0.23597, 0.069294, -0.31514, -0.08287, -0.23979, -0.19917, -0.024012, -0.14942, -0.40497, -0.25822, -0.049422, -0.4146, 0.20244, 0.26881, 0.2194, -0.16905, 0.15493, -0.24661, -0.026877, 0.22826, 0.062359, -0.18881, -0.40818, -0.027642, 0.17893, 0.062175, -0.34871, -0.31392, 0.0014127, -0.17976, -0.066295, -0.2592, -0.027853, -0.33531, -0.44517, -0.080397, 0.41335, -0.087115, 0.069861, -0.15178, -0.32117, -0.11578, 0.46679, -0.42169, -0.040409, -0.057526, -0.034662, -0.35786, 0.13923, -0.020254, -0.065766, 0.051057, 0.050649, 0.13166, -0.19884, -0.081201, -0.27956, -0.017285, 0.14791, -0.18882, -0.25876, -0.068523, 0.17872, 0.045423, -0.19077, -0.2369, 0.42713, -0.018946, -0.066529, 0.28232, -0.03274, -0.1936, -0.0021384, 0.35782, 0.5605, 0.11071, 0.15264, -0.17879, 0.05785, 0.15411, -0.0018717, 0.10073, -0.031479, -0.037056, -0.11422, 0.13862, -0.32174, -0.13919, -0.16301, 0.096581, -0.17232, -0.27527, -0.18614, -0.10958, -0.032904, 0.019849, -0.011116, -0.1312, 0.19655, 0.079916, -0.23432, 0.14284, 0.41453, -0.009558, -0.04192, 0.064535, -0.28622, 0.12019, 0.076483, -0.40375, 0.20784, 0.083649, 0.084033, 0.050855, -0.20145, 0.062753, -0.33993, -0.0087264, 0.073864, -0.2051, -0.023761, -0.077192, -0.068117, 0.013738, -0.38086, -0.29067, -0.0036992, -0.3903, 0.0018475, 0.011078, -0.40589, -0.04838, -0.0056335, -0.38878, -0.17939, -0.26189, -0.22358, -0.044331, 0.12068, 0.16515, -0.30119, -0.068136, -0.26118, -0.18433, -0.48327, -0.18841, 0.018429, 0.038359, -0.081418, -0.2839, -0.13527, 0.16978, -0.27845, 0.19395, -0.15866, 0.21935, 0.0027671, 0.078638, -0.25539, 0.00052879, -0.18294, 0.080048, -0.13839, -0.14087, 0.053946, -0.27198, -0.39424, -0.097458, -0.068339, 0.075424, -0.001344, -0.057066, -0.02075, -0.33828, -0.024335, 0.0081161, -0.17167, 0.1784, 0.29533, -0.075332, 0.1918, -0.14819, -0.013942, -0.088454, 0.029592, -0.33166, 0.039, -0.045852, -0.27196, 0.082711, -0.025825, -0.29263, -0.075793, 0.35956, 0.13102, 0.33501, -0.10372, 0.00094341, -0.17441, 0.051615, 0.36623, -0.25472, 0.30016, -0.1598, 0.34284, 0.064565, -0.31182, -0.37856, -0.46645, -0.18428, 0.20748, -0.12423, 0.24672, -0.38386, -0.13458, 0.28888, -0.001305, 0.097315, -0.029086, -0.029177, 0.20283, 0.045144, 0.074787, 0.18994, -0.26364, -0.043778, 0.022727, -0.085266, 0.14448, 0.29732, -0.094264, 0.23193, 0.095201, -0.069573, -0.038712, -0.31416, 0.18449, -0.37716, -0.17604, 0.24932, -0.10722, -0.28973, 0.36457, -0.35924, 0.2334, -0.068339, 0.19425, -0.022347, 0.48704, 0.034965, 0.14532, 0.048701, -0.0045705, 0.036264, 0.23595, 0.35516, -0.27103, -0.39295, 0.20762, 0.42175, -0.12182, -0.21266, 0.071186, -0.2443, 0.053514, 0.24665, -0.53511, 0.24052, 0.1647, -0.0043492, -0.062742, -0.043977, 0.081886, -0.26091, 0.069731, -0.24183, -0.21324, -0.031446, 0.12981, -0.36549, 0.16948, -0.038667, 0.020198, 0.094411, -0.033402, -0.41724, -0.10801, 0.18872, -0.23814, -0.057181, -0.0079034, -0.30475, 0.05869, 0.040906, -0.14368, -0.1497, 0.25958, -0.24661, 0.22438, 0.3104, -0.30896, -0.23898, -0.053441, -0.34031, 0.12477, -0.22616, -0.20687, 0.10808, 0.43811, -0.18933, 0.20983, 0.063636, 0.11209, 0.0093386, -0.29755, -0.27732, -0.20836, -0.24892, 0.056293, -0.096334, 0.10767, -0.022139, 0.054436, -0.13558, -0.040762, 0.30765, -0.23022, 0.10266, -0.58508, 0.079107, 0.095329, -0.18676, 0.0633, 0.03928, -0.28204, 0.099099, -0.059569, 0.0091804, 0.066144, 0.36913, 0.057688, -0.14256, 0.049159, 0.034256, 0.065043, -0.06256, -0.036736, -0.10054, 0.021302, 0.29211, -0.19511, 0.05495, 0.055612, -0.13118, 0.45261, 0.25929, -0.21916, 0.19283, -0.49957, -0.17089, 0.16099, 0.12435, -0.29598, -0.17352, -0.22717, 0.112, -0.16765, 0.42376, 0.18084, 0.15981, -0.043171, -0.099458, 0.08932, 0.016317, -0.28968, 0.2875, 0.16085, 0.28719, 0.10131, 0.016519, -0.33531, 0.09634, -0.033726, 0.026726, 0.1822, 0.14279, -0.13155, -0.26141, -0.17746, 0.046486, -0.19984, 0.31451, -0.1015, -0.26035, 0.0074624, -0.04653, -0.22746, 0.15697, 0.25394, -0.29162, 0.046721, -0.2052, -0.52335, -0.027209, 0.041576, 0.16824, -0.024684, -0.072206, -0.049108, 0.18263, 0.0089742, -0.18633, 0.12741, 0.42468, 0.069021, 0.1584, -0.32382, 0.13017, -0.14989, -0.019285, 0.40381, -0.13989, 0.24441, 0.14618, 0.059368, 0.021178, -0.024355, -0.2856, 0.36162, -0.066806, -0.007665, -0.13912, -0.064292, 0.045631, -0.50791, 0.14769, 0.32191, 0.20747, -0.3456, 0.19986, -0.020862, 0.15902, -0.12202, -0.037797, 0.34356, 0.20739, -0.15656, -0.27399, 0.41623, -0.01229, -0.10476, 0.12794, -0.050999, 0.12226, -0.089845, -0.18598, -0.22308, -0.018762, 0.17767, 0.084535, -0.14214, -0.35077, -0.0419, -0.10537, -0.10561, -0.011655, -0.070246, -0.12529, 0.2399, -0.064537, -0.042172, -0.089745, 0.012975, -0.025515, 0.019272, 0.04581, -0.23306, -0.22791, 0.21842, 0.059639, -0.098586, 0.12472, -0.067571, 0.25335, 0.026911, 0.29016, -0.055263, -0.16063, 0.19431, 0.022833, 0.045407, -0.40832, 0.10352, -0.42373, 0.065458, 0.16792, -0.011335, -0.27797, 0.034985, 0.17185, 0.25624, 0.28087, -0.12499, -0.10416, 0.00025529, -0.23136, 0.28714, 0.028995, 0.16023, -0.012514, 0.03823, -0.29767, 0.30223, -0.081658, -0.1054, -0.014532, 0.061512, 0.03327, 0.080803, -0.075602, -0.12685, 0.23272, -0.23597, -0.20788, -0.36621, 0.0075923, 0.24653, -0.52098, -0.15557, -0.00083823, -0.23153, 0.10281, -0.024495, 0.34639, -0.075678, 0.086912, -0.22929, -0.43564, 0.14584, 0.33147, -0.16419, -0.58321, 0.59585, -0.32091, -0.21567, -0.18554, 0.17063, 0.36492, 0.088541, -0.25434, 0.21415, 0.13758, 0.18904, -0.30453, -0.20505, -0.070728, -0.11821, -0.29298, -0.02723, -0.051571, 0.20777, 0.39121, 0.091871, 0.23235, -0.027346, -0.17832, -0.47461, -0.11287, 0.089503, 0.34598, -0.059158, 0.25137, 0.11742, -0.27585, 0.031575, -0.12832, 0.11445, -0.10165, -0.15291, 0.38295, -0.33946, 0.17512, 0.085341, 0.070378, -0.020798, -0.32375, 0.0078147, -0.15806, 0.38964, -0.045096, 0.3527, -0.016105, 0.0078989, 0.15589, 0.23346, -0.1336, 0.16165, 0.33442, -0.027807, -0.20291, 0.083011, 0.074765, 0.16394, -0.22636, 0.20718, 0.088427, -0.34996, -0.14002, -0.014142, -0.20495, 0.018119, 0.056803, -0.13374, 0.4147, -0.34529, 0.025144, -0.3717, -0.021864, 0.32143, 0.077218, -0.0021787, 0.14646, -0.34696, -0.34377, -0.21415, 0.14352, 0.35641, -0.44269, 0.22155, -0.24103, -0.087914, -0.01268, 0.23148, 0.52217, 0.18337, -0.41482, -0.10588, 0.138, 0.22383, 0.32612, 0.37843, -0.43924, -0.24772, -0.2555, 0.24583, 0.2595, 0.061309, 0.045645, -0.25169, -0.090928, 0.020308, 0.21858, -0.03943, -0.24007, -0.36019, -0.56907, 0.31346, 0.0031435, -0.22674, -0.25974, 0.020046, 0.12654, 0.034047, 0.088446, 0.058047, -0.24047, -0.16721, -0.10906, 0.19237, -0.043639, 0.32844, -0.080739, -0.037677, 0.22979, -0.17397, 0.16338, -0.17731, 0.090398, 0.09365, 0.12164, 0.13463, -0.40797, -0.11965, -0.067752, -0.21052, -0.13177, -0.073814, 0.23659, 0.14641, -0.082003, 0.0050267, -0.37737, 0.27313, -0.2764, 0.081091, 0.18221, -0.058814, -0.022023, 0.21267, -0.39522, 0.043703, 0.084696, 0.24136, 0.1105, 0.055001, -0.13764, -0.01778, -0.24623, -0.22923, -0.12391, 0.11344, 0.12463, 0.0043655, -0.059175, -0.1877, 0.028945, -0.11059, -0.34978, 0.085068, 0.092993, -0.21314, 0.022848, -0.10071, -0.090598, 0.12488, -0.28473, 0.20367, 0.0087581, 0.20793, -0.069211, 0.11988, -0.040345, 0.20602, 0.58759, 0.093547, -0.1771, -0.053083, -0.22574, -0.20223, -0.064915, 0.22207, -0.091324, 0.12468, 0.25599, 0.085204, -0.087929, -0.016447, -0.095852, 0.15394, 0.10996, 0.11001, -0.088682, 0.079365, 0.062373, 0.20864, 0.089058, 0.084513, -0.034335, -0.21579, 0.18415, 0.041892, 0.34536, 0.11634, 0.34765, 0.022401, 0.33711, -0.16674, -0.17193, -0.19794, 0.062823, 0.23454, -0.13897, 0.015373, 0.20181, -0.2444, 0.11033, 0.033995, -0.10408, -0.03511, -0.27232, -0.27219, 0.11528, 3.0097e-05, 0.19872, -0.02615, 0.02191, 0.22054, 0.25856, 0.062981, -0.092306, 0.14158, -0.0060844, -0.14058, -0.033321, 0.26463, -0.014361, 0.30489, -0.15949, -0.083056, -0.37043, 0.026849, 0.039713, 0.0014209, 0.031237, -0.31343, -0.29574, -0.1593, 0.22719, -0.04262, 0.038726, 0.1771, -0.050708, 0.010893, 0.049449, -0.18199, 0.012908, 0.092917, -0.34623, 0.068331, 0.27497, 0.14184, -0.057263, -0.40147, -0.14693, 0.19447, -0.13071, -0.089992, -0.11549, -0.077011, 0.19041, 0.17585, -0.00082375, 0.16935, -0.24466, 0.081852, -0.078392, 0.25525, 0.27916, -0.16855, -0.14909, 0.033302, -0.087722, 0.27419, 0.089993, 0.026928, 0.14323, -0.034564, 0.17445, 0.072604, -0.18559, 0.048903, 0.16458, -0.16715, 0.1196, 0.1865, 0.098381, -0.082215, 0.076437, 0.20622, -0.021263, -0.088077, -0.24829, -0.32087, 0.1559, 0.054499, -0.32041, -0.13617, 0.091266, 0.056405, 0.03027, 0.2472, 0.04777, -0.21136, 0.21808, 0.071181, 0.17248, 0.085561, 0.038671, -0.010133, -0.15806, -0.10439, 0.00092596, -0.53089, 0.029453, 0.37767, -0.42732, -0.19337, -0.023459, -0.011352, 0.0362, 0.18476, -0.17677, 0.17638, 0.083677, 0.010001, -0.17755, -0.15765, -0.22193, 0.09335, -0.0013075, 0.071041, 0.042183, 0.015473, -0.19594, -0.10224, -0.23951, 0.15613, 0.44508, 0.083196, -0.027297, 0.050221, 0.33789, 0.10314, 0.13895, -0.25017, 0.41295, -0.098616, -0.005032, 0.13837, 0.17423, 0.10025, -0.35363, -0.18563, -0.0084374, 0.10616, 0.3766, -0.20364, 0.149, -0.1257, 0.065515, -0.031167, -0.17038, -0.27041, -0.20236, -0.01663, 0.10991, 0.27023, -0.11899, -0.095162, -0.021951, -0.013681, 0.56718, 0.26712, 0.31016, -0.062469, -0.071937, 0.18069, 0.21256, 0.055822, 0.11969, 0.14607, -0.12943, 0.097937, 0.3146, -0.30249, -0.22077, 0.15403, 0.43895, 0.13817, 0.0036164, 0.14208, 0.22893, -0.20711, -0.069944, -0.079808, 0.15186, -0.027033, 0.19044, -0.14522, -0.36865, 0.052961, -0.051312, 0.035781, -0.4264, -0.26397, -0.06163, 0.42079, -0.068485, 0.089699, -0.31041, -0.01499, 0.073946, -0.042331, 0.26622, 0.047584, -0.12877, 0.098557, -0.18432, -0.32067, -0.20266, 0.18874, -0.048928, 0.024011, 0.030192, 0.41793, 0.12398, 0.044116, 0.37852, -0.16989, -0.055637, -0.17093, 0.0033158, 0.098528, -0.1219, -0.24629, 0.030638, -0.20472, 0.17111, 0.19557, -0.14012, 0.14598, -0.097976, -0.19174, 0.039567, 0.028884, -0.027337, -0.035414, 0.24491, -0.17167, 0.068368, 0.16183, 0.035744, -0.1141, 0.16211, -0.1991, -0.073951, 0.32768, -0.088227, 0.038049, 0.17956, 0.012866, 0.09435, 0.22174, 0.12012, -0.19633, -0.071067, -0.0081896, 0.059282, 0.021618, -0.24357, -0.2378, -0.11206, -0.095148, 0.15451, 0.051566, 0.21931, -0.037169, 0.28101, -0.23977, 0.13771, -0.44664, -0.12207, 0.13619, 0.065836, 0.29203, -0.23692, 0.20385, 0.1401, -0.20637, 0.09045, -0.25825, -0.17519, 0.024677, 0.028308, 0.28079, -0.070896, -0.2269, -0.26086, 0.17951, 0.0063842, 0.071375, 0.11907, -0.16906, 0.24212, -0.29898, 0.049556, 0.27898, -0.03042, -0.062808, 0.3329, -0.24683, 0.23292, -0.21432, 0.01764, -0.074671, -0.04134, -0.14117, -0.32687, -0.041962, 0.33938, -0.094844, -0.12702, 0.14429, -0.017968, 0.14698, -0.44447, -0.17373, -0.029975, -0.11027, -0.28894, 0.077491, -0.17714, 0.17, -0.15442, -0.14454, 0.089313, 0.1616, 0.082894, -0.19778, 0.081159, -0.021485, 0.086987, -0.27233, 0.25399, -0.14348, -0.24949, 0.1545, -0.17365, 0.24062, 0.1415, 0.032722, 0.024771, 0.36199, 0.11258, -0.11879, -0.089515, -0.087385, 0.052781, -0.13564, -0.27596, -0.18278, -0.0092269, -0.27269, -0.14451, 0.19238, 0.037689, -0.016297, -0.037483, -0.018112, 0.074205, 0.012516, 0.27121, -0.050395, 0.24934, 0.08756, 0.10105, -0.11801, 0.31015, 0.10454, 0.26809, -0.11651, 0.10886, 0.26737, 0.057452, -0.14187, 0.24164, -0.01412, 0.46196, -0.11225, 0.46744, 0.20299, -0.26534, -0.18474, 0.20987, 0.22351, -0.31174, -0.17267, -0.066933, 0.185, -0.19119, -0.076949, 0.19444, 0.1574, 0.094907, -0.073245, -0.014626, 0.095129, -0.10596, -0.055731, -0.058912, -0.082902, -0.216, 0.069798, -0.098285, -0.14469, -0.061059, 0.051273, 0.4273, 0.22929, -0.067243, 0.10704, 0.0070199, -0.16275, -0.041018, 0.076345, -0.29982, -0.22265, -0.13218, -0.18674, -0.072706, 0.0065089, 0.0012463, -0.22105, 0.13671, -0.10058, -0.21802, -0.045503, -0.13446, -0.32639, -0.21963, 0.1126, 0.24035, 0.16401, -0.12997, 0.20661, 0.061897, 0.37561, 0.057145, 0.28615, 0.10394, -0.1244, 0.19825, -0.081541, -0.3149, -0.084929, -0.11262, 0.068569, 0.45093, 0.026745, 0.1352, -0.061548, -0.13801, -0.15316, 0.2568, -0.071793, -0.25028, 0.065366, -0.056437, 0.0061603, -0.24555, -0.058695, -0.50344, 0.39832, 0.09595, -0.046363, 0.1147, 0.053202, -0.053768, -0.067182, 0.1032, -0.26505, -0.018704, -0.26734, 0.080538, 0.13101, -0.066409, 0.13152, 0.001404, 0.29669, -0.2114, 0.0028949, -0.044563, -0.27343, 0.010706, -0.094269, -0.15968, -0.16993, 0.04219, -0.19147, 0.23527, 0.21999, -0.23619, 0.030771, -0.15434, -0.049634, -0.063725, 0.095139, 0.19583, -0.0027336, -0.39346, -0.072083, -0.16055, 0.01393, 0.50365, 0.25095, -0.018395, 0.15324, -0.036469, 0.13008, -0.14282, 0.48359, 0.17825, -0.035027, 0.10325, -0.18471, -0.17014, 0.10788, 0.059183, 0.36364, 0.20593, 0.16338, 0.25141, -0.27807, -0.097742, -0.40697, 0.026114, 0.073766, -0.1144, 0.09146, 0.17129, 0.095734, 0.13875, 0.18557, -0.040729, -0.39168, 0.11997, -0.0028752, -0.2661, -0.093508, 0.01364, 0.06153, -0.035239, -0.073847, 0.089618, -0.30826, 0.0391, 0.17738, -0.079203, -0.04706, -0.083189, 0.083731, 0.31317, 0.19965, -0.1201, 0.019076, -0.038778, -0.033718, 0.033798, 0.059244, 0.32944, -0.028852, 0.12732, 0.21446, -0.028481, 0.078924, 0.023394, -0.067993, -0.050978, 0.11181, 0.052359, 0.10461, 0.025733, -0.058273, 0.28906, -0.089832, -0.12264, 0.059769, 0.12791, -0.14504, -0.057862, 0.038619, -0.20522, -0.14946, -0.1665, -0.02504, -0.12347, 0.17715, -0.25389, -0.0033477, 0.07838, -0.15301, 0.19675, 0.026985, -0.031757, 0.047079, -0.14439, -0.11629, 0.021513, 0.010053, -0.010435, 0.28985, -0.086323, 0.25333, 0.0095192, -0.073172, 0.24091, -0.071996, -0.21331, 0.1266, -0.46774, 0.16397, 0.083478, -0.17603, 0.34541, 0.0023915, -0.19515, -0.11348, -0.083666, 0.092794, -0.36901, 0.22561, 0.12402, -0.025646, -0.039563, -0.010244, -0.02355, -0.10436, -0.083058, 0.1946, 0.20568, 0.026785, -0.032022, 0.16126, -0.029361, 0.13136, -0.48153, -0.24134, 0.25876, -0.1146, -0.056943, 0.31081, -0.031328, 0.22042, -0.091697, -0.32704, 0.31978, -0.0098281, 0.22278, -0.024901, 0.030448, -0.31719, -0.10789, 0.064785, 0.031401, -0.034868, 0.056352, 0.0662, -0.015318, -0.086591, -0.071977, 0.006288, -0.10889, 0.0010052, 0.22296, 0.26292, -0.13507, 0.1508, 0.088599, 0.10523, -0.24762, 0.2005, -0.15049, 0.20861, 0.14582, -0.21403, -0.15707, -0.060912, -0.13489, 0.17921, -0.32269, 0.067998, -0.052159, 0.13182, 0.26993, -0.035781, 0.10341, -0.13649, 0.13249, -0.06489, 0.12597, -0.10777, -0.2475, -0.032556, -0.048805, 0.077109, -0.18446, 0.2246, 0.34048, -0.016306, 0.033344, 0.07093, -0.0021342, -0.16704, -0.048843, 0.26391, -0.03431, -0.11483, 0.16103, 0.038934, 0.036931, -0.048783, 0.056867, -0.28735, -0.061656, -0.13428, 0.23239, -0.2472, 0.085253, -0.28127, 0.27089, -0.13255, 0.14929, 0.10223, 0.073999, 0.064589, -0.23552, -0.027927, 0.10558, -0.48459, -0.51587, 0.35136, -0.0039613, 0.05527, 0.036822, -0.31871, 0.10472, 0.033553, 0.30331, -0.15738, 0.25454, -0.14633, 0.29144, -0.042881, 0.15369, -0.11658, 0.06116, -0.43426, -0.28673, -0.11497, -0.27312, -0.16125, -0.045813, -0.12892, 0.0049646, 0.14256, 0.17323, -0.044289, 0.068238, 0.29665, 0.15993, 0.056793, -0.090269, 0.026914, -0.17808, 0.3719, -0.10814, -0.1328, 0.034377, 0.2567, -0.20262, 0.15237, 0.27162, -0.13823, -0.074959, 0.19945, 0.17393, -0.16769, 0.38625, 0.032634, -0.054351, -0.19046, 0.32786, -0.17768, 0.24162, 0.038502, 0.46429, -0.27023, -0.18706, -0.09144, 0.262, -0.15366, -0.13052, -0.12926, 0.043974, 0.068425, 0.053357, -0.2424, 0.27057, -0.085643, 0.17691, -0.15619, -0.3641, -0.17479, -0.3529, -0.15089, 0.19382, -0.073748, -0.058418, 0.1119, -0.17152, 0.14285, -0.18599, 0.12215, -0.19804, 0.10891, 0.11423, 0.087587, 0.016862, -0.077453, -0.2286, 0.20793, -0.15679, 0.025147, -0.2292, -0.14422, 0.083626, -0.013603, 0.13149, 0.12539, 0.10602, 0.030165, 0.01484, -0.18294, 0.28176, 0.1477, 0.13246, -0.10719, -0.11105, 0.073268, 0.35249, -0.13148, -0.28839, 0.29333, -0.048745, 0.20414, 0.24665, -0.15463, 0.17606, -0.080659, 0.25193, 0.050425, -0.27023, 0.017401, -0.31608, 0.15636, -0.16542, 0.12473, -0.14011, -0.016903, 0.0091417, -0.25065, -0.3219, -0.0010247, 0.059476, -0.10036, -0.13394, 0.11103, 0.15446, -0.26836, 0.13295, 0.19622, -0.38086, -0.099438, -0.011073, 0.24758, 0.29764, -0.0607, 0.064306, 0.20106, -0.073102, -0.29149, -0.04323, 0.01882, 0.121, -0.090753, 0.20525, 0.24994, -0.34278, 0.11508, -0.12109, -0.049166, -0.22848, 0.17706, -0.0040323, 0.10719, -0.020805, 0.10559, -0.10032, 0.38956, -0.21387, 0.087608, 0.13511, -0.2016, 0.09107, 0.035147, 0.027005, -0.13336, 0.16005, 0.080979, -0.34733, 0.46835, 0.039233, -0.24156, -0.023973, 0.077437, 0.04546, -0.030559, 0.036024, -0.023666, 0.066957, -0.16566, -0.14448, -0.22088, 0.052614, -0.0043769, 0.18558, 0.025085, 0.027812, 0.016583, 0.046301, 0.032251, -0.090057, -0.16083, -0.054157, -0.012108, 0.22478, 0.10253, -0.1408, 0.30122, -0.26446, -0.012203, -0.097272, -0.14111, 0.18013, -0.34418, -0.1436, -0.15243, -0.18772, 0.036259, -0.37071, -0.14194, -0.1728, 0.21237, -0.08033, -0.075619, -0.0052959, -0.1739, 0.033346, -0.24719, -0.13035, 0.055368, -0.15028, 0.20637, 0.02273, -0.099107, 0.10029, 0.39161, -0.16169, -0.0061328, -0.18734, 0.032209, 0.24188, -0.33299, 0.086366, 0.13766, -0.52142, 0.14542, -0.035252, -0.075043, -0.0035985, -0.0035754, -0.018686, 0.23392, -0.20036, -0.01697, -0.24942, 0.35097, 0.18507, -0.12456, -0.057867, 0.16796, -0.15845, 0.20696, 0.17597, 0.35335, -0.043281, -0.1858, 0.1361, -0.1611, -0.14273, -0.12551, 0.19756, -0.037543, -0.07, 0.24873, -0.010011, -0.073196, 0.13871, 0.11476, 0.063757, -0.035276, -0.23034, -0.1826, 0.13374, -0.22258, -0.020877, -0.011714, 0.23584, -0.012041, 0.13347, 0.13716, -0.096434, -0.018217, -0.09074, 0.054364, 0.061673, 0.0029371, -0.22772, -0.21106, -0.088444, 0.003359, -0.20771, -0.28938, 0.13323, -0.31947, -0.24428, 0.10874, -0.17614, -0.078891, -0.035005, 0.0494, 0.0096514, -0.067484, 0.04146, -0.039694, 0.016933, 0.18108, 0.18162, 0.025766, -0.017735, -0.15462, 0.17005, 0.51803, -0.15081, -0.060926, 0.20607, -0.10201, -0.13825, -0.35223, 0.43101, 0.078583, -0.16036, 0.085742, -0.0087976, 0.025324, 0.025176, 0.065676, 0.099333, 0.17229, 0.18765, -0.031115, -0.013327, -0.055106, -0.030159, 0.10445, 0.19895, 0.21674, 0.1227, 0.21903, -0.22641, -0.14729, -0.08793, -0.070925, -0.10722, -0.12055, -0.063194, -0.22812, -0.21753, -0.010867, -0.1357, 0.006771, 0.01143, -0.15077, -0.068534, 0.36945, -0.14656, 0.18719, -0.35432, 0.021176, -0.15669, 0.087409, -0.074893, 0.10429, -0.36982, -0.023157, 0.28786, -0.11704, 0.055773, -0.016053, 0.38278, 0.055712, 0.013493, -0.16175, -0.02442, -0.1452, -0.11845, 0.085661, -0.19336, -0.15043, 0.094334, 0.21332, 0.22113, -0.049974, -0.14931, -0.17248, 0.095432, -0.0029087, 0.17916, -0.057471, -0.21506, 0.19002, -0.15362, 0.041278, -0.072955, -0.30682, -0.21455, 0.15384, 0.27065, -0.095556, -0.21422, 0.0026874, -0.42257, 0.037672, 0.29862, -0.069297, -0.061994, -0.43781, -0.15812, -0.099183, -0.10595, 0.3234, -0.088461, -0.047316, 0.074906, -0.11991, -0.083915, 0.050261, -0.091567, 0.038421, -0.1779, -0.087376, 0.13092, -0.10734, -0.25185, 0.096916, 0.19443, -0.067106, 0.099794, -0.018797, 0.0028296, 0.18351, 0.11575, 0.20607, -0.065858, 0.06188, -0.061304, -0.030386, 0.061451, 0.085743, 0.065619, -0.22988, 0.081239, 0.088886, -0.070749, -0.032965, -0.26005, 0.23314, -0.23124, 0.12419, 0.17883, -0.053925, 0.011102, -0.21347, 0.12645, 0.14009, 0.039346, 0.1099, -0.058456, 0.065039, 0.14337, -0.04335, 0.16708, -0.1267, 0.21938, 0.23437, -0.092812, -0.27765, 0.080278, -0.15524, -0.29909, -0.22609, -0.0038092, -0.2555, -0.022529, -0.027745, -0.3372, -0.028688, -0.19397, -0.14975, 0.25564, 0.12704, 0.19173, 0.13302, 0.014395, 0.10034, -0.016787, -0.11316, -0.024641, 0.24401, -0.0093861, -0.07444, 0.16126, -0.19279, 0.15876, -0.031576, 0.010859, 0.12332, 0.22831, -0.14063, 0.15224, -0.074318, 0.1939, -0.087938, -0.40365, 0.062486, -0.0017606, -0.044545, 0.26516, -0.067435, 0.15945, -0.039468, 0.079085, 0.081178, 0.05179, 0.038497, -0.077913, -0.48961, 0.0066757, -0.10524, -0.062885, 0.096168, 0.10057, -0.40561, 0.064133, 0.053884, 0.29296, 0.109, -0.040533, -0.057554, 0.092296, 0.18146, -0.14639, 0.24699, -0.1593, 0.26599, -0.011818, -0.039831, -0.23371, 0.23171, 0.26437, -0.36545, -0.099936, -0.047656, -0.038418, 0.16177, -0.20372, 0.30924, 0.07426, 0.11392, -0.095225, -0.20654, -0.11805, -0.016958, 0.10624, 0.12887, -0.0028601, -0.16546, -0.19352, -0.079113, -0.043701, 0.13886, -0.038548, -0.07786, -0.0029965, -0.1486, 0.1123, -0.28943, -0.24032, 0.060177, 0.30676, 0.0040009, 0.13819, 0.35751, -0.0025364, -0.1854, -0.030083, -0.10491, 0.14901, 0.15314, -0.23721, 0.21784, 0.17984, -0.17137, 0.031552, 0.093996, 0.23266, -0.094322, 0.068505, 0.10921, -0.16707, 0.073236, -0.28182, 0.053426, -0.037211, -0.01514, 0.22578, 0.017457, 0.016785, -0.05357, -0.014481, -0.043273, -0.061994, -0.0029633, 0.072453, 0.21947, 0.079061, 0.17888, -0.17154, -0.45181, 0.19708, -0.32993, 0.2619, 0.21103, 0.39748, 0.034996, -0.14991, -0.10363, -0.14512, 0.14083, -0.063594, 0.036097, -0.129, 0.067984, 0.048448, -0.18871, -0.12737, 0.23757, -0.00089301, 0.011202, -0.15161, -0.12367, 0.039031, -0.16609, 0.17523, 0.14848, -0.03889, 0.0036525, 0.31766, 0.044103, 0.17826, 0.2144, -0.12636, -0.044207, -0.071165, -0.088515, 0.064, -0.059887, -0.17764, -0.054759, -0.064395, -0.064291, 0.10292, 0.034781, 0.087648, -0.16308, -0.057386, -0.23886, 0.30834, -0.11711, 0.043162, 0.21214, -0.080229, -0.089361, 0.10403, -0.14838, -0.011194, -0.066509, 0.092721, -0.030766, -0.17313, 0.026445, 0.0013717, 0.21691, -0.12085, 0.17586, 0.10544, 0.060385, 0.019476, -0.10036, 0.37283, 0.28687, -0.39786, 0.11414, 0.036107, -0.14586, 0.13069, 0.12781, 0.13199, 0.17642, -0.16954, 0.31508, 0.039634, -0.068932, 0.39402, -0.037611, -0.04758, 0.1593, -0.1933, 0.022614, 0.012601, -0.18597, 0.00063181, -0.056252, 0.29372, 0.16629, -0.082947, -0.25312, -0.082336, 0.19733, -0.076302, -0.052665, 0.020493, 0.084512, 0.096496, -0.029678, -0.048492, -0.20655, 0.047901, -0.21537, 0.055165, 0.085417, -0.043341, -0.044672, 0.093448, -0.20617, -0.019221, 0.016991, 0.020738, -0.23048, 0.13359, -0.20904, 0.048887, -0.35345, -0.021278, 0.1784, -0.18065, 0.049214, -0.12954, -0.28257, 0.081628, 0.030057, -0.020914, -0.024342, 0.051294, 0.062636, 0.069229, -0.077143, -0.022693, 0.018323, -0.099821, 0.050752, -0.008741, -0.23352, 0.035487, -0.013928, 0.032571, 0.12731, 0.15182, -0.094263, -0.11863, 0.22096, 0.092356, -0.22309, -0.11971, 0.1188, 0.40339, -0.34757, 0.035192, -0.17939, -0.11169, 0.232, -0.090896, 0.10228, -0.094218, -0.2073, -0.12134, 0.22178, -0.27451, 0.17007, -0.15297, 0.016094, 0.056321, -0.28018, 0.19131, -0.17736, 0.031112, 0.1562, -0.25876, -0.14224, 0.051139, -0.32732, -0.14659, 0.10147, 0.24415, 0.38507, 0.087114, -0.19334, -0.080934, 0.23459, 0.29657, -0.0037804, -0.0058005, -0.10582, 0.38329, -0.14801, 0.16119, 0.0052109, -0.038396, 0.15112, -0.24609, -0.024508, -0.043798, -0.1164, 0.14957, 0.14777, -0.28458, -0.17745, 0.06168, -0.049224, 0.18756, 0.14232, -0.0085444, -0.30527, -0.1317, 0.17381, 0.0092044, 0.20138, -0.0079424, 0.081135, -0.051897, -0.18887, -0.019237, -0.21795, 0.0057973, 0.15495, 0.053429, 0.097859, 0.25356, -0.14694, -0.096326, 0.13064, -0.2765, -0.12588, 0.14121, -0.058931, 0.13443, 0.082738, 0.020841, 0.18989, -0.3762, 0.050608, -0.20755, 0.16642, -0.051685, 0.041816, -0.059383, 0.021871, 0.020861, -0.14764, -0.23446, -0.15523, -0.13865, 0.15278, 0.13978, -0.049087, -0.20602, 0.20328, -0.038291, -0.19252, -0.02872, -0.067098, -0.04678, 0.14704, -0.066842, 0.13645, -0.1866, 0.23859, 0.15107, -0.071621, 0.20767, -0.12003, 0.085374, -0.12625, -0.1627, 0.25236, 0.16489, 0.12596, -0.16554, 0.053948, -0.16621, -0.15157, -0.090053, -0.17716, 0.099987, 0.030522, -0.1488, 0.15465, -0.0038029, 0.061184, -0.24177, 0.050988, -0.084771, -0.25692, 0.050642, -0.069453, -0.16159, -0.19133, -0.0097278, -0.085926, 0.019725, 0.076062, -0.065268, 0.13037, -0.18436, -0.074205, 0.038592, -0.29796, 0.17106, -0.072254, -0.40517, -0.20548, 0.070005, -0.030257, 0.18825, -0.18281, 0.22455, -0.16579, 0.15148, 0.11248, -0.19441, 0.10089, -0.10051, -0.096286, -0.12876, -0.023889, 0.012536, -0.048019, -0.046627, 0.065271, -0.020398, 0.091645, 0.097993, 0.029098, -0.074458, -0.029563, 0.052139, 0.042446, -0.083191, -0.12284, 0.28414, 0.10189, 0.2877, 0.20569, 0.00088861, 0.19001, -0.25084, -0.025481, -0.12033, -0.12835, 0.05001, 0.066686, 0.15504, 0.069992, 0.44096, -0.098715, 0.055928, 0.027824, -0.063783, 0.15351, 0.22142, 0.026343, 0.074086, 0.11631, 0.038031, -0.094426, 0.042559, 0.14854, 0.23601, 0.052787, 0.064561, -0.045363, 0.030344, -0.064459, -0.25035, -0.32239, -0.0065272, -0.069128, -0.0015323, 0.37359, -0.070582, -0.0082153, -0.038404, -0.063776, 0.18211, -0.056868, -0.19321, 0.079382, 0.061959, -0.081586, 0.15339, 0.10182, -0.045168, 0.16099, 0.17872, -0.12897, 0.27437, 0.11073, -0.040428, -0.20492, -0.13353, -0.040713, 0.072622, 0.31113, -0.11651, -0.1156, 0.0036789, 0.00040657, -0.014659, 0.043685, -0.097873, -0.19045, 0.076244, -0.039012, 0.12002, 0.064876, 0.036197, 0.092463, -0.080035, 0.19343, -0.27201, 0.0092215, 0.16138, -0.1408, -0.15947, -0.007785, -0.017608, 0.10009, 0.13201, 0.13261, -0.1562, 0.22833, -0.082617, -0.29892, 0.15426, -0.2355, -0.4608, -0.20075, -0.30593, 0.045964, -0.11267, -0.032118, 0.069702, 0.02423, -0.20071, 0.13071, -0.0029234, -0.14486, -0.23461, 0.096339, -0.0039261, 0.067405, -0.09412, -0.12068, 0.073783, -0.19017, -0.3064, -0.25711, -0.31197, 0.093001, -0.35062, -0.40762, -0.16574, 0.37942, -0.069558, 0.14211, 0.061523, -0.089128, -0.35387, -0.22166, -0.2126, -0.04864, -0.12943, -0.1365, -0.13562, -0.096492, 0.029797, -0.096032, -0.30358, -0.039436, 0.012402, 0.032351, -0.099493, 0.083871, -0.0036444, 0.088389, 0.2699, 0.30642, -0.052233, 0.14809, 0.15772, -0.113, -0.081558, 0.20113, 0.33675, 0.01066, -0.18013, -0.31631, 0.22006, -0.22037, -0.14295, 0.10639, -0.22217, -0.022516, -0.14109, -0.08769, -0.22016, 0.23611, -0.11346, -0.045445, -0.048974, -0.16227, 0.0078727, 0.14668, 0.017644, -0.036903, 0.20001, -0.30576, -0.0087998, 0.033221, 0.0051915, -0.26352, -0.1484, -0.074481, -0.088956, -0.20039, -0.17656, -0.089047, 0.13854, -0.09137, 0.12889, -0.0072567, -0.10031, 0.15327, 0.0043608, 0.061046, -0.075168, 0.020796, -0.068495, -0.09354, -0.20892, -0.090424, 0.03809, -0.091745, 0.020176, -0.067049, 0.087583, 0.25447, 0.10735, -0.28235, -0.20229, 0.11251, 0.58211, -0.071252, -0.39597, 0.18283, -0.024158, -0.1574, -0.29339, -0.40824, 0.085202, 0.27446, 0.078312, -0.10758, -0.05601, -0.10873, -0.27248, 0.31183, 0.10708, 0.074558, -0.12033, -0.016652, -0.0089337, -0.12478, 0.26045, -0.057493, 0.28911, 0.42273, 0.089735, 0.25404, 0.12664, 0.038174, -0.025467, -0.12452, -0.25135, -0.13242, -0.20517, -0.066684, -0.16415, -0.20782, -0.11759, 0.22415, 0.068302, -0.25228, 0.16317, 0.12752, -0.082732, 0.26757, -0.10212, 0.35559, -0.12614, -0.049317, 0.3229, 0.10363, -0.156, 0.4641, -0.082606, -0.18467, -0.0417, 0.14434, -0.010217, 0.0071937, -0.070527, 0.13451, 0.069392, 0.058183, 0.05312, -0.0066261, 0.073189, 0.012496, -0.091214, -0.18654, 0.21801, 0.11836, -0.054904, -0.030595, 0.06931, -0.12389, -0.18105, -0.1216, -0.074243, 0.39053, 0.02514, -0.20288, 0.15255, -0.18941, -0.12658, 0.092436, -0.054974, -0.35793, -0.045212, -0.11583, 0.27747, -0.035714, 0.11995, -0.051911, -0.05278, -0.048032, -0.028956, 0.077124, -0.023279, 0.057872, -0.044555, 0.13652, 0.094197, -0.11648, -0.32663, 0.14178, 0.033293, -0.12304, -0.21714, -0.01059, -0.13277, -0.075076, -0.31899, -0.046671, -0.15401, 0.15483, 0.10976, 0.018444, 0.031905, 0.046974, 0.1855, -0.035798, 0.11974, 0.20779, 0.15143, 0.091773, -0.010389, 0.16728, -0.047469, 0.11643, -0.010136, 0.087333, 0.026087, -0.093298, 0.34102, -0.19062, -0.062096, -0.07136, -0.082846, -0.13941, -0.10776, 0.026849, 0.02687, -0.11066, -0.21758, 0.028667, 0.0053302, -0.097982, 0.16486, -0.056332, -0.41108, -0.45102, 0.20658, -0.32205, 0.084835, 0.40543, -0.24266, -0.075414, 0.10223, -0.072798, 0.15916, 0.2962, -0.13048, -0.16652, -0.18773, 0.03395, -0.086754, -0.13097, 0.055889, -0.20887, -0.092742, 0.20448, -0.15894, 0.25213, 0.11927, -0.16713, 0.23168, 0.22419, 0.10466, -0.02215, -0.2509, -0.074101, 0.27799, -0.20071, 0.071196, 0.10799, -0.10631, -0.24596, 0.12783, 0.12733, -0.19062, 0.20188, -0.1982, -0.17871, 0.015787, -0.15359, 0.12196, 0.060006, 0.18237, 0.089079, 0.012408, -0.0087921, 0.036773, -0.039133, 0.030611, -0.092023, -0.24796, -0.0099063, -0.36853, -0.24956, 0.075328, 0.087135, 0.14518, 0.203, 0.16897, 0.13435, 0.19082, -0.17071, -0.032738, -0.05196, 0.26364, -0.19644, 0.14572, -0.050183, -0.01375, -0.21473, 0.17874, 0.096535, -0.25736, -0.076102, -0.12348, -0.31483, -0.048163, 0.017723, -0.10529, -0.11551, -0.24626, -0.13128, -0.015838, -0.14958, -0.04031, -0.010943, -0.15071, -0.038311, -0.19379, -0.067767, -0.14024, -0.13399, -0.091441, -0.23425, -0.13084, 0.046193, 0.052008, 0.06912, -0.15654, -0.029054, 0.13601, -0.061634, 0.02469, -0.091989, 0.10299, -0.27718, -0.076824, 0.072739, -0.023837, -0.048039, 0.13942, -0.029513, -0.1082, 0.045518, -0.0045107, -0.23214, 0.13414, 0.22476, 0.016983, 0.04353, 0.067704, -0.30995, -0.11292, -0.10677, -0.2374, 0.070366, 0.10703, 0.064646, -0.13938, -0.18951, -0.039447, 0.018679, -0.10114, -0.036461, 0.15259, -0.050884, -0.11741, 0.040379, -0.14581, 0.14181, -0.020828, -0.17189, 0.31695, -0.068686, 0.023622, -0.0026084, -0.15603, -0.31458, -0.07617, -0.19381, 0.15793, -0.14977, 0.18243, -0.13161, -0.00065029, -0.093909, 0.035395, 0.086614, 0.19257, 0.21077, 0.26785, 0.057257, -0.081584, 0.057798, -0.16097, 0.013778, -0.090305, -0.12865, 0.1197, 0.12006, 0.28663, 0.11514, 0.024903, 0.30786, 0.098202, -0.08004, -0.061822, 0.035205, 0.14722, -0.068434, -0.043155, -0.048766, 0.040922, -0.11531, -0.042036, -0.12745, 0.029476, -0.098598, 0.044584, 0.13722, 0.1883, 0.058185, 0.020487, 0.034343, -0.39739, 0.23881, -0.17056, 0.014355, -0.068371, 0.090072, 0.13084, -0.068756, 0.028391, 0.037125, 0.33334, -0.099306, 0.12146, 0.088348, -0.025902, -0.13088, -0.10081, 0.071458, -0.040667, 0.082096, 0.18463, -0.00055981, 0.15724, -0.15067, -0.14138, 0.16621, 0.38961, -0.038705, -0.10013, 0.0227, 0.15642, -0.24138, -0.28288, 0.081549, 0.13591, 0.16139, 0.22886, -0.11848, -0.0989, 0.14253, -0.078077, -0.097825, 0.19015, -0.049057, 0.11843, -0.13115, -0.23746, 0.10033, -0.13065, -0.059702, -0.00013031, 0.20886, -0.14268, -0.03492, 0.15262, 0.030396, 0.25072, 0.17576, -0.16262, -0.24669, 0.22534, -0.016751, -0.072077, -0.017819, -0.10203, 0.039708, 0.15421, -0.19907, 0.029595, 0.028278, 0.0037043, 0.17531, 0.0094459, 0.10009, 0.20419, -0.0031187, -0.017019, 0.021667, -0.010189, 0.059214, -0.086991, -0.28105, 0.11365, 0.030762, -0.23514, -0.11456, -0.1766, -0.037903, 0.076087, -0.19933, -0.010045, 0.03286, -0.0020932, 0.0056119, 0.00022862, 0.050324, 0.051976, 0.12758, -0.12654, 0.016024, 0.020525, 0.27283, 0.12492, 0.096082, 0.11045, 0.14824, -0.018864, 0.12284, -0.28751, 0.13481, 0.22859, -0.15396, 0.010555, 0.041885, -0.0064637, -0.11484, 0.01251, -0.031115, 0.16435, -0.027164, 0.052985, -0.0077038, 0.14676, -0.10768, 0.029457, -0.35558, -0.036321, -0.023208, -0.02565, -0.035167, -0.15185, 0.028538, 0.031804, 0.020993, 0.14197, -0.17218, -0.060353, 0.046776, 0.1315, -0.16171, -0.16167, -0.02849, 0.14441, 0.052248, -0.096331, -0.12735, 0.21016, -0.20187, -0.38273, 0.027851, 0.0015317, 0.055157, -0.13998, 0.30198, -0.15327, 0.098201, 0.24191, -0.070397, -0.21698, 0.33336, -0.0088139, 0.11752, -0.25686, -0.056228, -0.019326, 0.017829, -0.28715, 0.024895, -0.0052197, 0.10796, -0.11238, -0.10945, 0.21425, 0.046677, 0.042538, -0.10172, 0.012622, -0.16702, 0.20674, -0.11873, -0.11498, -0.047453, 0.018959, 0.089179, -0.21973, -0.14609, -0.15683, 0.051135, -0.038703, -0.12759, 0.0061909, -0.1273, 0.20993, -0.031957, -0.15533, 0.36674, 0.13794, 0.015267, 0.064922, 0.011259, 0.17625, 0.12626, -0.039297, 0.22798, -0.03879, 0.14912, 0.043483, -0.0087362, 0.20542, 0.051203, -0.14631, -0.33349, 0.13299, -0.1513, -0.0074643, -0.076618, -0.0505, 0.026818, -0.0099177, 0.23416, -0.20011, 0.12988, 0.11849, 0.17777, 0.20787, -0.059291, -0.0077248, -0.10405, 0.16482, -0.23342, -0.2454, 0.10758, 0.034974, 0.068563, 0.089068, 0.053714, -0.11531, 0.034667, -0.14898, 0.1869, 0.22304, 0.10835, 0.073595, 0.068457, -0.14411, -0.052018, 0.062041, 0.0056113, 0.052088, 0.040119, -0.091245, 0.030568, -0.10978, 0.0026168, -0.096123, 0.15113, 0.32693, -0.36761, 0.0073248, -0.1701, -0.013626, 0.36256, 0.042118, -0.0039457, 0.32228, -0.21832, 0.23085, 0.11494, -0.11927, 0.068509, 0.082904, 0.027939, -0.00054027, -0.12072, -0.14789, 0.047279, -0.33006, 0.018924, -0.24637, 0.011411, 0.29225, -0.078649, 0.28901, -0.077119, -0.1085, -0.20821, 0.36731, -0.16678, 0.12239, 0.19413, 0.0066832, -0.15376, 0.051946, -0.16867, -0.044662, 0.12031, -0.21178, -0.038886, 0.061204, -0.012214, 0.099085, -0.16917, 0.12746, -0.10566, 0.12258, 0.16425, 0.3333, 0.09812, 0.23577, -0.071155, 0.060034, -0.16701, 0.25654, -0.023312, -0.02552, 0.17417, -0.078234, 0.090124, -0.10154, 0.064344, -0.071528, 0.19273, -0.084129, -0.29502, 0.15577, 0.13329, 0.29864, 0.09459, 0.3475, 0.079644, -0.33497, -0.14858, 0.058664, -0.050132, 0.04606, 0.098936, 0.12321, -0.29743, 0.19522, -0.12517, 0.13842, 0.17057, -0.13463, 0.093521, -0.0092451, 0.0088826, 0.2448, -0.15967, -0.055584, -0.19844, 0.21816, -0.27946, 0.13383, 0.10235, -0.098148, 0.10133, -0.10434, -0.087748, -0.063667, 0.14987, 0.049665, -0.096162, 0.21441, 0.024814, -0.078503, 0.040447, 0.038941, 0.12924, -0.0331, 0.22238, 0.15781, -0.2401, -0.31926, 0.18105, -0.17167, 0.032738, 0.010802, 0.31225, 0.19568, 0.045161, -0.0098117, 0.040798, 0.27172, -0.1571, 0.23687, -0.2151, -0.11218, 0.0010066, 0.044871, -0.22871, -0.11716, 0.1199, 0.10245, 0.36575, -0.062779, -0.14478, -0.065495, -0.080538, 0.12057, -0.049501, 0.055545, -0.028854, -0.02311, 0.25031, -0.082678, -0.14735, -0.095425, 0.10619, 0.029191, 0.083369, -0.067535, -0.12389, -0.010426, 0.21386, 0.029688, -0.10888, -0.12498, -0.2273, -0.09051, 0.11222, 0.012659, -0.020908, 0.089933, 0.097274, -0.071723, -0.0051551, -0.13321, -0.066759, -0.0070728, -0.20432, 0.001278, -0.18858, -0.030217, -0.020067, 0.034323, 0.14637, 0.054955, -0.20873, 0.020192, -0.13688, -0.041447, 0.32995, 0.066027, 0.10823, 0.13567, -0.022145, 0.14392, -0.076933, 0.010786, -0.1325, 0.33584, -0.18558, -0.23012, -0.10629, 0.31341, 0.14566, 0.48839, -0.050865, -0.12008, 0.018644, 0.17978, -0.38053, -0.16821, -0.19783, -0.10649, -0.052081, -0.13263, -0.047264, 0.13212, -0.33752, -0.24627, 0.011198, 0.19347, -0.086179, 0.23229, -0.18043, -0.10939, -0.0062816, -0.34917, 0.013436, -0.11584, 0.002901, 0.041742, 0.059057, 0.23834, 0.12562, -0.15159, 0.025702, -0.093341, 0.23182, 0.27764, 0.078665, -0.040215, 0.11362, -0.1057, -0.015358, -0.051725, -0.20877, 0.12953, 0.12197, 0.15186, -0.033539, -0.2142, 0.10445, -0.0043011, 0.071297, -0.12649, 0.092064, 0.13603, -0.067984, -0.45205, -0.1016, -0.06692, -0.067329, -0.072815, -0.18397, -0.00054901, -0.41151, 0.29873, -0.069151, 0.021399, -0.19624, 0.037567, 0.12835, 0.016888, 0.18481, -0.2888, -0.23165, -0.021031, -0.19961, -0.043903, 0.073756, -0.32771, 0.34036, -0.11005, 0.064895, 0.019825, 0.13358, 0.20749, -0.21592, -0.032902, -0.10357, 0.13291, -0.17976, 0.12506, -0.13233, -0.08636, -0.03896, -0.10446, 0.045888, 0.16242, -0.2302, -0.031588, 0.13045, -0.099998, 0.22996, -0.26582, -0.030454, -0.054402, 0.070539, 0.052624, 0.15015, 0.033401, -0.12906, -0.10493, 0.063857, 0.25585, -0.091496, 0.38067, -0.18973, 0.092998, 0.063041, -0.23605, -0.017896, 0.12074, 0.028941, 0.16584, -0.13099, -0.097912, 0.34929, 0.23854, 0.096427, -0.037941, -0.049147, -0.21014, -0.093307, 0.27392, 0.045215, -0.0694, -0.093054, -0.083612, -0.018069, -0.14935, -0.093286, 0.042853, 0.066803, -0.27164, -0.2317, -0.0033459, -0.21407, -0.071951, 0.14957, -0.11431, -0.013043, -0.133, 0.15147, -0.081467, 0.13407, 0.079971, 0.010757, 0.04694, -0.13973, -0.17495, -0.2038, 0.14908, -0.020627, 0.0074623, 0.01497, 0.13522, 0.22565, -0.0022615, 0.071188, 0.010569, 0.031936, -0.23908, 0.057323, 0.032581, -0.024495, 0.11364, -0.19921, 0.1371, 0.011699, -0.17964, 0.23614, 0.35857, -0.25729, -0.13643, 0.065512, -0.08203, 0.23544, -0.17635, -0.27622, -0.033718, 0.16252, -0.21737, -0.21531, -0.085404, 0.16278, 0.28302, 0.077023, 0.13647, -0.15342, 0.13657, 0.011398, 0.058277, 0.05389, -0.019058, -0.086547, 0.099631, -0.14542, -0.12377, 0.11653, -0.057712, -0.075573, -0.018687, 0.0021084, -0.047639, -0.36754, 0.19026, 0.08848, -0.13877, 0.1089, -0.29786, -0.24147, -0.15735, 0.17406, -0.1263, 0.09016, -0.392, -0.1275, 0.38925, -0.081498, -0.045773, -0.070865, -0.049191, 0.18344, -0.082702, 0.06409, 0.12754, -0.037202, -0.19012, 0.089246, -0.19171, 0.12357, -0.16023, -0.082095, 0.12068, -0.056335, -0.28417, 0.27627, 0.020914, 0.010805, 0.18176, -0.11795, -0.071412, -0.021933, -0.10294, -0.18905, -0.18331, 0.055486, 0.017892, 0.01006, -0.090806, -0.050958, -0.028894, -0.17061, 0.094899, 0.26785, 0.095333, 0.20044, -0.42742, 0.15649, 0.24705, 0.0066314, 0.19616, -0.25335, 0.14134, -0.029207, 0.072421, -0.12142, 0.17284, -0.022959, -0.16131, 0.029057, 0.070066, -0.11731, 0.011373, -0.13742, -0.068128, -0.001594, 0.042062, -0.23414, -0.1257, -0.1632, -0.057021, 0.082442, -0.050495, -0.11168, 0.20168, -0.27342, -0.26492, -0.065168, 0.011035, 0.11206, 0.13039, 0.00099654, -0.0026505, -0.073645, -0.17507, 0.015915, 0.14715, 0.022621, 0.071354, -0.0036463, -0.10449, -0.23642, 0.089572, 0.030438, 0.30195, -0.014143, -0.0037508, -0.1545, 0.076921, 0.074127, -0.06664, -0.0051639, -0.035207, 0.20931, 0.19877, 0.068889, 0.023025, -0.10066, 0.14233, 0.18576, 0.2046, -0.02556, 0.014706, -0.13678, -0.0070326, 0.025397, -0.02276, -0.07959, 0.08811, -0.070035, -0.010586, 0.088793, -0.094777, 0.36193, 0.11498, 0.335, 0.032512, 0.25283, 0.31039, 0.14365, 0.052119, -0.13871, -0.040578, -0.017689, 0.16344, -0.23276, 0.043605, 0.26547, 0.091275, -0.22277, -0.0013923, 0.012927, 0.17274, -0.052357, -0.22662, 0.052962, -0.0057357, -0.21224, -0.056978, 0.040955, 0.0043606, 0.36246, -0.00010233, 0.16516, -0.061582, 0.065497, -0.10836, -0.034454, 0.11541, -0.26825, -0.16222, -0.10116, -0.25713, 0.085408, -0.1527, 0.051543, -0.011891, 0.1257, -0.0062001, 0.26926, -0.1269, 0.099052, -0.14089, -0.19136, -0.21543, 0.18315, 0.23496, -0.010587, -0.070211, 0.087124, -0.051981, -0.10409, -0.052878, 0.11982, 0.046385, -0.0018392, 0.04931, -0.11191, 0.19485, -0.093753, -0.028896, -0.1187, 0.032346, -0.033233, 0.030087, 0.32303, 0.037283, -0.14361, 0.13904, 0.029998, 0.22852, 0.073826, 0.05099, 0.27998, 0.37084, -0.18383, -0.060226, 0.1749, 0.038178, -0.098893, -0.046703, -0.084209, -0.35399, -0.23004, 0.077826, -0.084016, -0.013659, -0.13078, -0.059934, -0.020787, 0.23332, 0.22699, -0.10503, 0.066782, -0.24248, 0.084915, -0.01679, -0.074595, 0.11557, 0.067799, -0.025133, -0.12413, 0.042781, 0.080103, -0.0041755, 0.098007, 0.11743, 0.1617, -0.09729, -0.039911, 0.22844, -0.041419, 0.37198, -0.096491, 0.25392, -0.12336, 0.13008, 0.21441, 0.10123, 0.023987, 0.10117, -0.2238, 0.14568, 0.11531, 0.11367, -0.1564, 0.24142, 0.15084, 0.030857, 0.2172, -0.035218, 0.15373, 0.070006, -0.20395, 0.0029302, -0.060216, -0.16143, 0.043825, -0.10158, 0.13028, 0.046745, -0.019661, 0.015989, -0.081015, 0.086314, -0.0011002, 0.05254, -0.15369, 0.19114, 0.039547, 0.10738, -0.045355, -0.22248, -0.0088049, -0.0376, 0.008858, -0.038501, 0.17087, -0.18393, -0.037907, 0.04595, 0.0043207, -0.1239, -0.23383, -0.0097421, -0.013897, -0.12279, -0.043866, -0.12366, -0.12115, -0.046611, 0.23522, -0.020147, 0.025692, -0.085227, -0.068329, 0.29957, 0.31569, -0.04841, 0.23216, 0.10397, -0.14632, -0.20725, 0.16111, 0.067559, 0.041456, 0.129, -0.014122, -0.3283, -0.18129, -0.10215, -0.18972, 0.11051, 0.072174, 0.36643, 0.091847, -0.21218, 0.040986, 0.27928, 0.14055, 0.12805, 0.076435, 0.12295, 0.006854, -0.080678, 0.11139, 0.060457, 0.3006, -0.13193, -0.21039, 0.1945, -0.015767, 0.10632, 0.18243, -0.21044, 0.033833, -0.16488, -0.13216, 0.21871, 0.078268, 0.13169, 0.12281, -0.1521, -0.013094, 0.30614, 0.18475, -0.1902, -0.20398, 0.13879, 0.056925, 0.064274, -0.0095208, -0.18111, 0.056331, -0.2168, -0.30932, 0.064813, 0.027273, -0.22812, 0.033078, -0.16564, -0.061562, 0.16251, 0.047365, -0.21507, 0.036961, -0.30818, -0.042313, -0.24024, -0.128, -0.012933, -0.026608, -0.081185, -0.27486, 0.13316, -0.056048, 0.19633, 0.025894, -0.088026, 0.047703, 0.053674, 0.29048, -0.26455, -0.0761, -0.089366, 0.026802, 0.062432, 0.066988, 0.061092, -0.15259, 0.056268, 0.037717, 0.11178, 0.050809, 0.013413, 0.11359, -0.26198, 0.26344, 0.099004, -0.15319, 0.058764, -0.014405, -0.11978, -0.046974, 0.058165, 0.16502, 0.15678, -0.082762, 0.05913, -0.32363, -0.039785, -0.092693, -0.21987, 0.12057, 0.18071, 0.099475, -0.01981, 0.085143, -0.21075, -0.033982, -0.069775, 0.11781, 0.1341, -0.002931, 0.055788, -0.27846, 0.0075159, 0.029096, -0.023615, 0.0062747, 0.057566, -0.30357, 0.0091228, 0.022322, 0.078929, -0.16711, -0.049958, 0.055188, 0.039739, -0.35641, -0.20526, 0.0054367, -0.10279, 0.036021, -0.15997, 0.047108, 0.03541, -0.087592, -0.18154, 0.19549, -0.16036, -0.082681, 0.040697, -0.033416, -0.058925, 0.078969, -0.02562, 0.050216, 0.22102, 0.12685, -0.10832, 0.017093, 0.073309, -0.030272, -0.15225, 0.10607, 0.14818, -0.11742, 0.15285, 0.026471, 0.011962, -0.038842, 0.32682, -0.16498, 0.24051, -0.064804, -0.017569, 0.037686, -0.16967, 0.030116, -0.24892, 0.096489, -0.31988, 0.072617, -0.0095745, 0.024968, -0.049498, -0.10024, 0.078373, 0.015642, 0.24485, -0.071285, 0.057785, -0.019342, 0.084506, 0.11571, -0.018391, 0.05169, 0.28513, -0.065917, 0.0062008, -0.040823, -0.22666, 0.043702, -0.04382, 0.14174, 0.1218, -0.12338, -0.20848, -0.068354, -0.0094988, -0.043728, -0.03244, -0.094991, -0.099103, -0.063482, -0.11161, 0.045572, -0.11588, -0.25366, 0.12967, 0.015321, -0.077491, -0.037225, -0.18455, -0.012943, 0.10304, -0.040851, -0.1864, 0.19267, -0.052945, 0.010917, 0.011539, -0.028831, 0.0119, -0.045185, -0.0024306, 0.049639, -0.15202, -0.07579, -0.2328, 0.31938, -0.39353, -0.24965, 0.050012, -0.1446, -0.080664, 0.16795, 0.10607, 0.19022, -0.04192, 0.07993, 0.18839, 0.14706, 0.042554, 0.0046452, -0.20715, 0.034564, 0.014992, -0.073597, 0.21041, 0.13114, 0.10691, -0.27331, -0.0068968, -0.062714, 0.026142, 0.11818, 0.025317, -0.050124, -0.37307, 0.42279, 0.0058829, -0.20953, 0.17704, -0.18627, -0.18838, 0.051935, -0.12525, 0.057659, -0.16141, 0.0016464, 0.25223, 0.063697, -0.24776, 0.062113, 0.075048, -0.22805, 0.41327, -0.043119, 0.29681, -0.10363, -0.1653, 0.09883, 0.0061658, -0.045751, 0.078697, -0.0027845, -0.060295, -0.074091, -0.044378, 0.02675, -0.03151, 0.19481, 0.063734, 0.11621, -0.24508, 0.18427, 0.080235, 0.11275, 0.032826, -0.16835, -0.018473, 0.049724, -0.14646, 0.042396, 0.23326, -0.06626, -0.065846, 0.21866, -0.034697, -0.089352, -0.027266, 0.35266, -0.2844, 0.048404, -0.039974, -0.016056, -0.30323, -0.10871, 0.015123, -0.041877, 0.20899, 0.11999, -0.24758, 0.045514, 0.025979, -0.13448, 0.24355, 0.17275, 0.037078, 0.048552, -0.30236, 0.17359, -0.38507, 0.17174, -0.029594, 0.43439, -0.0073022, 0.023172, -0.11691, -0.0023357, 0.0097128, -0.12239, 0.03639, -0.092656, 0.10766, -0.1422, 0.17207, 0.10904, 0.20877, -0.086866, 0.1954, 0.20486, -0.034051, -0.093145, 0.12887, 0.02494, 0.040212, -0.05909, -0.015704, -0.042133, 0.1744, 0.12044, 0.26672, 0.088434, 0.28413, -0.056368, 0.012012, 0.029492, -0.023323, -0.12053, 0.081029, 0.068082, -0.26878, 0.093151, -0.041108, -0.014929, -0.023387, -0.037111, 0.18019, -0.092434, -0.010663, 0.085738, -0.27097, -0.17098, -0.050485, -0.072194, 0.041207, 0.039297, -0.011859, -0.22438, 0.096214, -0.16259, 0.091154, -0.2342, -0.12945, -0.15113, -0.10422, -0.010473, 0.24852, -0.15525, 0.22512, -0.043259, -0.080591, 0.13485, 0.052239, -0.089615, -0.064157, -0.30808, -0.039743, 0.085764, -0.14982, 0.1234, 0.025232, -0.060919, -0.094713, 0.11584, -0.066206, 0.051237, 0.057067, -0.090092, -0.14716, 0.12893, -0.22848, -0.17551, -0.10927, -0.015586, -0.012134, -0.057844, -0.089754, -0.22142, -0.29641, 0.018842, 0.046527, 0.19294, -0.057174, 0.2595, -0.24086, 0.011664, -0.0061319, -0.02728, 0.095658, -0.072639, -0.10629, -0.083655, 0.024548, -0.12599, 0.016688, -0.22606, 0.019683, -0.050243, -0.12366, -0.042061, -0.084218, -0.19688, -0.00024382, 0.16198, -0.10294, -0.11087, 0.14899, 0.10276, 0.12871, -0.055819, -0.1302, 0.038212, -0.052637, 0.24394, 0.15321, -0.13002, 0.22358, -0.26962, -0.025073, 0.29029, -0.17506, -0.13462, 0.030657, -0.20114, -0.12618, 0.18275, -0.094663, -0.065188, -0.081945, -0.016641, -0.081807, 0.070986, -0.13495, -0.017945, -0.26963, 0.089536, -0.039751, -0.13814, 0.1644, -0.10434, 0.060578, 0.039715, -0.051726, 0.052748, 0.010332, -0.22598, 0.13452, -0.062383, -0.1627, 0.036666, 0.13442, -0.096245, -0.31652, 0.22164, 0.04188, -0.17624, -0.30163, -0.18833, 0.0028481, -0.20512, 0.1326, 0.19981, -0.12339, -0.11055, 0.054088, -0.029938, -0.022204, 0.20033, 0.1642, 0.099081, 0.14266, 0.049134, 0.10097, -0.061411, 0.032966, -0.14323, -0.060063, -0.0085225, -0.14851, 0.016522, 0.040568, -0.19352, -0.076117, -0.013564, -0.094702, 0.084526, -0.16497, -0.03462, 0.043964, 0.14432, -0.10995, 0.32267, 0.31461, -0.10872, -0.11027, 0.21107, -0.16847, 0.085101, -0.029769, -0.088433, 0.032026, 0.0087208, 0.060357, 0.024399, -0.34436, -0.21866, 0.16877, 0.13793, -0.047759, 0.32731, 0.26285, 0.05521, -0.23766, -0.0070062, 0.25697, -0.084042, 0.095696, 0.20114, -0.10658, -0.016628, 0.020129, -0.043772, 0.27094, -0.1322, -0.16475, 0.15305, -0.041416, 0.14635, -0.01373, -0.087777, -0.25564, -0.19506, -0.37827, -0.037724, 0.13378, 0.042347, 0.070659, 0.049521, -0.14489, -0.10433, 0.063661, -0.012604, 0.16093, -0.025055, -0.10306, 0.0095844, 0.14666, 0.0070866, -0.070213, 0.037629, 0.053476, 0.20484, -0.2042, -0.40498, 0.016767, -0.14321, -0.124, -0.09183, -0.001546, 0.012612, 0.29434, -0.012955, 0.067042, -0.18204, 0.079225, 0.23719, 0.028678, -0.1549, -0.014591, -0.15869, -0.22942, 0.054647, -0.081906, 0.04411, -0.17258, 0.10835, 0.12552, -0.026399, -0.15568, -0.11254, -0.24946, 0.031066, -0.14213, -0.11243, -0.19071, -0.034425, 0.15944, -0.068582, -0.049943, 0.1808, -0.027902, 0.088784, -0.14265, -0.19739, -0.24444, 0.06161, -0.13562, 0.24262, 0.091589, -0.010763, -0.17187, 0.014321, 0.027275, -0.037207, -0.13882, -0.10022, -0.0026002, 0.14076, -0.12376, -0.11391, -0.096209, 0.060021, 0.10584, -0.13261, 0.17369, 0.085353, 0.13176, 0.11906, -0.30443, 0.081072, 0.2371, -0.062323, 0.17301, -0.036417, -0.24306, 0.017223, 0.086635, -0.1368, -0.052463, -0.049118, 0.097557, 0.040417, 0.20057, -0.061343, 0.0015077, -0.19681, 0.11094, -0.026549, 0.080381, -0.073567, 0.14899, -0.091848, -0.30204, -0.047796, 0.15212, 0.17678, 0.063237, 0.2706, -0.019389, 0.0087472, -0.51285, -0.096417, -0.0059116, 0.18444, -0.19057, -0.066205, -0.064076, 0.29701, 0.30862, -0.047712, 0.048775, -0.21296, 0.20588, 0.13168, 0.1915, 0.073133, -0.062082, -0.28756, 0.15663, 0.093836, -0.044543, 0.1413, -0.038882, -0.12187, 0.11825, 0.051763, 0.097774, -0.016487, -0.26982, 0.10814, 0.070852, -0.11053, 0.04545, 0.13373, 0.20003, 0.027634, 0.10583, 0.25393, 0.010968, -0.17186, -0.029064, 0.091994, -0.19977, 0.15105, 0.19409, -0.01468, -0.098165, 0.16859, 0.052253, 0.051048, 0.0015287, -0.067993, -0.40682, 0.06471, -0.070631, -0.015978, -0.14388, 0.015023, -0.1246, -0.13145, 0.1371, 0.22386, -0.017842, 0.30693, 0.013208, -0.043024, 0.20605, -0.043239, 0.28478, -0.14941, -0.097295, -0.19877, -0.049821, -0.038507, -0.32078, 0.1711, 0.13956, -0.00511, -0.35262, 0.056323, -0.1484, -0.067598, -0.030127, -0.14835, 0.31269, 0.18051, 0.11872, 0.16832, -0.16569, -0.10298, -0.020503, 0.065858, -0.0055174, -0.15788, -0.13488, 0.15152, -0.19474, 0.30824, -0.035541, -0.064488, -0.095284, -0.0034546, 0.13355, 0.111, 0.28257, 0.17445, 0.19506, -0.2684, 0.11098, -0.096568, -0.041497, -0.072144, -0.05516, 0.069616, 0.010945, -0.2654, 0.22578, -0.065657, -0.22053, -0.025096, 0.038429, -0.27201, -0.046245, -0.19296, -0.2161, -0.34289, -0.14197, 0.0091932, -0.030771, 0.33141, 0.1169, 0.1418, 0.065983, 0.10786, -0.25163, 0.10791, 0.4386, 0.030827, -0.27587, 0.21645, -0.14013, 0.062952, -0.045123, -0.099244, 0.035322, 0.049438, 0.078537, 0.035152, 0.20569, -0.30466, -0.19173, -0.17494, 0.26989, -0.13737, 0.11958, 0.12775, -0.14917, 0.088455, 0.18361, -0.0422, 0.096078, -0.24781, 0.35792, 0.0089417, -0.22603, -0.24424, 0.16764, -0.16304, -0.10364, -0.15693, 0.049619, -0.051834, -0.31617, -0.066829, -0.10366, 0.12027, 0.014284, 0.055036, 0.026761, 0.095773, 0.22352, 0.22307, 0.052524, 0.22411, -0.34517, 0.10474, 0.10677, 0.036133, 0.1392, -0.29717, -0.24426, -0.1391, -0.041345, 0.044931, 0.072974, -0.17252, -0.073762, -0.043069, 0.059868, -0.083098, 0.26207, -0.044273, -0.033603, -0.34384, -0.15168, -0.11108, 0.092177, -0.20802, -0.097619, -0.14883, -0.0015507, 0.12717, 0.060163, -0.056893, 0.12552, 0.0035552, 0.11491, 0.027369, -0.02276, -0.25563, 0.058892, -0.058322, 0.054419, -0.066969, -0.23432, -0.16435, 0.047882, -0.10918, 0.2784, -0.029376, 0.0095737, -0.095051, -0.094633, -0.07578, 0.11469, 0.058056, 0.11209, -0.075005, -0.12903, -0.097456, 0.025338, -0.095371, 0.16864, -0.11644, 0.082681, 0.081888, 0.034473, -0.13858, 0.3642, -0.047943, -0.01076, 0.049693, -0.11141, -0.099153, -0.038851, -0.14436, 0.11352, 0.11563, -0.089645, -0.0070369, -0.0012796, 0.14695, -0.16471, -0.21693, -0.22392, 0.064759, 0.094756, -0.066882, 0.039286, -0.15462, -0.093583, -0.087755, -0.065855, 0.27954, -0.062255, -0.18543, -0.15428, -0.05142, 0.18395, -0.1146, -0.057396, 0.2824, 0.14902, 0.049421, -0.10208, -0.016371, -0.13443, -0.15215, -0.14069, 0.15701, -0.11095, -0.10663, 0.0733, -0.13481, 0.17502, -0.04813, -0.17571, 0.11591, 0.021011, -0.13939, 0.11151, 0.049898, -0.053382, 0.011874, -0.18826, 0.13005, -0.33748, -0.10642, -0.09691, 0.13628, 0.057895, -0.14017, -0.031587, 0.13942, -0.12717, 0.10012, -0.19044, -0.054237, 0.12799, -0.21136, -0.088062, 0.094073, -0.14774, -0.071958, 0.021847, -0.19148, -0.11135, 0.048162, -0.055057, 0.24582, 0.5143, -0.0026835, -0.30436, 0.0033037, 0.084077, 0.038591, 0.037021, -0.26896, 0.20523, -0.026745, -0.32796, -0.046292, 0.19826, 0.082416, 0.11043, -0.06734, -0.050411, -0.065175, -0.0013181, 0.30064, -0.1295, -0.049989, -0.23517, 0.1252, -0.25486, 0.2827, 0.13752, 0.20264, 0.08665, 0.23264, -0.27085, 0.15398, 0.20155, -0.10716, -0.14394, -0.21308, -0.24335, 0.0068669, 0.13821, -0.0020743, -0.013964, -0.070227, 0.041988, -0.10734, 0.038381, 0.12834, -0.11346, 0.11228, 0.14413, -0.12083, -0.25073, -0.073447, -0.013424, -0.10698, -0.017292, -0.07546, 0.093589, 0.18515, -0.15254, -0.11368, -0.03811, -0.23524, 0.10599, -0.021988, 0.034781, -0.0932, -0.11273, 0.14292, -0.020455, -0.014724, 0.15486, -0.11097, -0.23585, 0.36822, -0.28772, -0.043147, 0.20778, -0.075844, 0.13111, 0.07639, -0.062565, 0.012381, 0.16163, 0.018961, -0.059967, -0.04522, -0.14171, 0.021009, 0.11708, 0.28096, -0.041157, 0.069579, 0.12481, -0.10423, 0.3031, -0.12086, -0.021422, 0.23962, -0.040136, 0.072184, 0.10413, 0.013453, -0.087369, 0.079488, -0.055683, -0.030604, 0.10314, 0.071096, 0.2177, 0.21352, 0.12051, 0.044481, -0.14354, -0.16391, -0.21234, 0.010299, -0.099552, 0.13543, 0.045761, 0.15529, -0.079265, 0.18682, 0.12081, -0.097374, 0.097834, 0.34327, 0.07273, 0.03137, 0.092392, -0.015769, -0.12333, -0.006654, -0.046787, 0.25786, 0.05607, 0.36785, -0.18329, 0.051622, 0.072753, -0.022374, -0.0069058, 0.074148, -0.16383, -0.033943, 0.13244, -0.19816, -0.049485, 0.12581, 0.23603, 1.3823e-05, -0.05817, 0.020224, 0.088498, 0.032113, -0.25561, -0.094734, 0.10422, 0.06958, 0.12912, 0.095794, -0.12269, 0.12129, 0.17033, -0.017201, 0.00067326, -0.13775, 0.0058401, 0.057329, 0.1574, 0.081998, -0.18452, 0.070227, -0.03227, -0.033404, -0.034746, -0.48174, 0.2044, 0.24095, 0.19456, 0.085455, -0.12279, 0.050821, -0.0096277, 0.01253, 0.035796, -0.15932, -0.026423, 0.35232, 0.11454, 0.037298, -0.24323, -0.21855, -0.092209, 0.028152, -0.21828, -0.18804, 0.054311, -0.062175, -0.036839, -0.089522, 0.065628, -0.09083, 0.088609, -0.093566, -0.11625, 0.10206, 0.051764, 0.10342, 0.02692, 0.021485, -0.054324, -0.10674, -0.21645, -0.20434, 0.064524, 0.27918, -0.30446, 0.25512, 0.15058, 0.040336, -0.0026104, 0.0010751, -0.046563, 0.037472, -0.19368, 0.09857, -0.11196, -0.10157, 0.14179, -0.1441, -0.10431, 0.018522, -0.27119, -0.10703, -0.11925, -0.17294, 0.012902, 0.14033, -0.24195, -0.23116, 0.17107, 0.013807, -0.24678, -0.13731, -0.16263, -0.054983, -0.20032, -0.038835, -0.11039, -0.29736, -0.057466, 0.059068, -0.013737, 0.10838, -0.080772, -0.074881, -0.01616, 0.41736, -0.19288, 0.18463, -0.17832, 0.077848, -0.1874, -0.12819, 0.34424, 0.061219, 0.036546, 0.11288, -0.20253, -0.091941, 0.097997, 0.1975, 0.16291, -0.15723, -0.1192, 0.055143, -0.33006, 0.036131, 0.30487, 0.12309, 0.11436, -0.11658, -0.11745, 0.017643, 0.12256, -0.012485, -0.2217, -0.14923, -0.062348, 0.10725, -0.21722, 0.11737, -0.12478, 0.26278, -0.23406, 0.18033, -0.19057, 0.11291, 0.08848, -0.061484, -0.29361, -0.03863, -0.031944, 0.091336, -0.10401, -0.16665, -0.12675, 0.042668, -0.10046, 0.15044, 0.08556, 0.062703, 0.21708, 0.21357, 0.012483, -0.053786, 0.25032, 0.11703, 0.051268, 0.15802, -0.096726, 0.077602, -0.2058, -0.38165, -0.27786, 0.26586, 0.072565, 0.27417, -0.034088, 0.37213, -0.39921, -0.078163, 0.087254, -0.23919, 0.066217, -0.019058, -0.21799, -0.14729, -0.02334, -0.045621, 0.080358, -0.068977, 0.019735, -0.17763, -0.091835, -0.12794, 0.056503, 0.14927, 0.19684, 0.17898, 0.28077, 0.22653, -0.20848, 0.072787, 0.29038, 0.18462, -0.18281, 0.11708, 0.082348, 0.042543, 0.33736, 0.21895, 0.00197, -0.29726, -0.050371, 0.053936, -0.023683, 0.060713, -0.0064762, 0.14566, -0.01884, -0.18354, -0.1722, -0.028159, 0.16445, -0.029394, 0.068653, -0.010005, 0.096547, -0.18068, -0.14228, 0.24828, -0.22316, -0.19465, 0.18251, -0.086852, 0.12653, 0.21907, 0.066527, -0.2112, -0.076477, 0.094388, 0.08972, -0.11767, 0.096385, 0.040562, 0.051857, 0.002022, -0.10307, 0.2794, 0.019122, -0.058617, -0.5936, 0.16291, -0.12659, 0.15391, 0.082141, -0.18261, 0.1226, -0.13298, 0.081076, -0.1433, -0.089554, -0.076407, -0.011633, -0.096181, -0.17112, 0.071588, -0.10763, 0.25473, -0.13488, 0.15895, 0.13836, 0.23902, -0.051983, 0.12801, 0.057176, -0.066399, -0.10748, -0.09084, -0.073798, 0.0060337, 0.16243, -0.037621, 0.20517, -0.056698, -0.0007152, 0.21889, -0.020473, -0.19674, 0.27199, -0.10404, 0.13423, 0.15702, -0.04502, -0.18241, 0.082888, 0.031872, -0.020463, -0.065041, 0.18284, -0.006705, 0.32884, -0.044332, 0.058049, 0.04699, 0.079782, 0.10555, -0.09404, -0.048656, 0.015604, -0.33901, 0.029383, -0.29267, -0.084842, 0.02798, 0.043417, -0.073377, 0.14372, -0.17591, 0.35948, 0.21435, 0.1443, -0.091264, 0.016473, -0.1595, -0.020844, 0.035939, -0.21161, 0.0089446, -0.0093029, 0.051342, 0.062618, -0.097107, 0.055657, 0.065076, 0.024285, -0.06082, 0.13258, -0.20474, -0.098625, -0.024036, -0.081236, -0.12366, 0.029619, 0.11621, 0.29428, -0.014845, 0.045031, -0.040737, -0.18588, 0.13551, 0.086091, 0.14761, -0.22868, 0.07266, -0.3423, 0.049673, 0.07446, -0.15329, 0.043056, -0.26751, -0.20102, -0.14835, -0.11441, 0.17509, 0.19158, 0.026419, 0.3216, -0.022725, 0.085898, 0.047534, -0.24016, -0.10409, 0.11236, -0.13223, -0.057516, 0.00012234, 0.034046, -0.083695, 0.098745, -0.16893, -0.10996, 0.0087423, -0.12808, -0.024167, 0.040921, 0.06496, -0.12806, 0.08747, 0.059036, 0.11353, -0.16645, -0.075812, 0.14129, -0.11317, 0.018995, -0.33601, -0.1149, -0.049105, 0.0085407, -0.13506, -0.014375, 0.03956, -0.08895, -0.19308, 0.18477, -0.13669, -0.042464, -0.073286, -0.16469, -0.23579, 0.21462, -0.032399, -0.029057, -0.16422, -0.059562, 0.084109, 0.047244, 0.18744, -0.090289, 0.19636, -0.26236, -0.13853, -0.058537, 0.10887, -0.017097, 0.042781, 0.092909, 0.10362, 0.069922, 0.14359, 0.13328, -0.31135, -0.15829, -0.14442, 0.31981, 0.059674, 0.02519, 0.10802, 0.20029, -0.13548, 0.072227, -0.12885, 0.10048, 0.15386, -0.030014, 0.18717, 0.22955, -0.04078, -0.14557, -0.31283, 0.39938, 0.087659, 0.38284, -0.091525, -0.015289, -0.20763, -0.221, -0.10367, 0.18295, 0.1311, -0.13613, 0.10011, 0.025764, 0.11243, -0.23114, 0.028043, 0.0095582, -0.20978, -0.13376, -0.08471, 0.064146, 0.10464, 0.084248, 0.2453, -0.13319, -0.014937, -0.058738, 0.00060999, -0.072244, 0.061518, -0.027476, -0.14379, -0.011407, -0.056795, 0.21194, -0.035321, 0.13468, -0.20267, -0.19166, -0.13583, -0.086179, -0.0023633, 0.17512, 0.13993, -0.086778, -0.15757, 0.038806, -0.23595, 0.05609, -0.13962, 0.10452, -0.20216, 0.1459, -0.020784, 0.023045, 0.09737, 0.079836, -0.14624, -0.040215, 0.032255, -0.18704, -0.19232, 0.17362, -0.038659, -0.1056, 0.21789, -0.13149, 0.06317, -0.0054115, 0.026686, 0.25419, -0.030639, -0.093898, -0.10579, -0.30474, 0.038588, 0.14216, -0.10168, 0.13178, -0.11213, 0.13926, -0.081396, -0.029832, -0.13105, -0.076327, -0.056639, 0.18665, -0.18576, -0.10981, -0.36094, -0.1495, -0.0098039, -0.27242, 0.01905, 0.1565, 0.024634, -0.19192, -0.058257, 0.28006, 0.20861, 0.22888, -0.10969, 0.19892, -0.17573, -0.005448, -0.076898, -0.0069401, 0.099305, -0.019499, -0.02343, 0.088489, 0.00098763, -0.051319, 0.10671, 0.09518, 0.22964, 0.066733, 0.19044, 0.035, -0.056045, 0.21495, -0.13937, -0.11748, -0.038067, -0.26862, -0.13968, 0.1506, -0.19689, -0.011065, 0.01524, 0.19207, 0.04649, 0.045994, 0.059499, 0.1274, -0.050364, -0.10954, -0.036745, 0.015977, -0.050803, 0.11781, 0.02968, 0.066092, 0.03728, 0.0057029, 0.075689, -0.0031226, 0.14359, -0.22818, -0.034366, 0.064062, 0.086734, 0.068121, -0.013454, 0.04614, -0.041783, -0.16424, -0.17348, -0.35469, 0.035736, 0.12729, -0.046576, -0.10487, 0.080017, 0.11875, -0.027935, -0.16611, 0.013063, 0.17216, -0.054912, -0.097996, 0.12847, -0.077172, -0.0014305, -0.06915, -0.20706, -0.0057294, -0.22366, -0.09601, -0.074314, 0.078055, 0.10326, -0.053072, 0.15381, 0.043788, -0.09051, -0.0066855, 0.0071634, 0.052201, 0.10008, 0.086067, -0.1204, 0.1362, -0.26725, 0.15015, 0.066143, -0.076521, 0.11954, 0.070243, -0.085432, -0.064763, -0.23327, -0.020564, -0.12726, -0.051664, 0.02549, 0.046517, 0.17614, 0.14179, 0.11084, -0.11541, -0.18959, 0.060112, 0.11789, 0.08301, -0.022015, 0.20107, -0.12772, -0.23724, -0.0059807, -0.011671, -0.13093, 0.14847, 0.056425, 0.16018, -0.21928, 0.26601, -0.11782, 0.43247, 0.016657, 0.078372, 0.021765, 0.15313, -0.11093, 0.13636, -0.13849, -0.088568, 0.051012, -0.24978, -0.11357, 0.082409, -0.10339, 0.1233, 0.049526, -0.053079, -0.17838, -0.018008, -0.09862, -0.054736, -0.25051, -0.077042, -0.032825, 0.095078, 0.016295, -0.073287, 0.15517, -0.46663, -0.084203, 0.021289, 0.06264, -0.045354, -0.10613, 0.014419, -0.049612, -0.10232, 0.17336, -0.0098882, -0.32072, 0.092349, 0.072968, -0.022403, -0.15791, -0.17592, -0.17904, -0.01611, -0.071593, 0.16446, 0.0051934, 0.16007, 0.057176, -0.21856, 0.12908, 0.15467, 0.12447, 0.1126, 0.0064441, 0.24688, 0.12012, 0.26414, -0.21529, 0.033185, -0.27533, 0.21443, 0.17138, -0.16838, 0.059917, 0.067362, -0.1413, -0.075943, 0.081756, -0.078506, 0.0761, 0.11515, -0.053896, -0.082025, -0.26829, -0.1651, -0.038777, 0.1897, 0.049362, -0.13477, -0.10278, 0.035795, -0.15264, -0.18671, -0.046349, 0.3001, -0.073688, -0.50192, 0.177, -0.067657, -0.10268, 0.027173, -0.081915, 0.096193, -0.1716, -0.14408, 0.096639, 0.326, 0.11442, -0.039964, 0.22145, 0.023149, 0.055714, 0.23271, -0.0030321, 0.054646, -0.045193, -0.11924, 0.04993, 0.01781, -0.1564, 0.10025, 0.16058, -0.23172, 0.041064, -0.0074543, -0.040278, -0.0076566, 0.18929, 0.025527, 0.35167, -0.27982, -0.09954, -0.19877, 0.038465, -0.18288, -0.075623, -0.060876, -0.037297, 0.16006, -0.068296, 0.046275, 0.027457, 0.31186, -0.019771, -0.052384, -0.0088221, -1.5492e-05, -0.17986, 0.093708, -0.041219, -0.22657, -0.11752, 0.098635, -0.19085, -0.10988, 0.026946, 0.06407, -0.26718, -0.035603, -0.072764, -0.10586, -0.077293, 0.084529, 0.0090237, 0.06322, -0.020828, 0.052194, -0.049817, -0.029833, -0.20682, 0.046572, 0.13467, 0.2588, 0.078812, 0.054306, -0.29126, -0.038617, 0.21806, 0.13094, 0.082461, 0.0923, -0.047518, -0.051791, 0.21304, 0.047478, -0.11401, -0.081882, 0.14481, -0.057081, -0.16277, -0.022033, 0.011523, -0.083392, 0.081231, 0.14416, 0.22544, -0.076315, -0.17798, 0.12917, 0.14892, -0.027327, -0.24372, 0.06332, -0.076856, -0.13956, 0.12638, 0.24925, 0.023179, 0.068958, -0.011723, 0.18477, 0.038824, -0.28353, 0.13435, 0.011956, -0.0052308, 0.37125, 0.048035, -0.1563, 0.25446, -0.21847, 0.032403, -0.046911, 0.24058, 0.15093, 0.045291, 0.085599, 0.13675, -0.082434, 0.14346, 0.17369, -0.073649, 0.099732, -0.040613, 0.090487, -0.14213, -0.31315, 0.023691, 0.38807, -0.074262, 0.030356, 0.18523, -0.014917, -0.0070168, -0.051716, -0.0062762, -0.067355, -0.2718, -0.20665, -0.10704, 0.035857, 0.027857, 0.051782, -0.23528, 0.01679, 0.15002, -0.094057, -0.13224, -0.13671, 0.090926, -0.37889, 0.21597, 0.03403, 0.048088, -0.057546, 0.017644, -0.011468, 0.10462, -0.20253, -0.20407, 0.16648, 0.16524, -0.16447, -0.012147, -0.076407, 0.042166, -0.16785, -0.0064822, 0.11077, -0.10894, 0.22492, 0.23888, -0.081524, -0.03619, 0.18048, -0.13543, -0.093463, -0.0011177, 0.18508, 0.17919, 0.046866, -0.018586, -0.047754, 0.024921, -0.021699, -0.00081119, 0.088098, -0.064112, 0.092435, -0.1046, 0.25378, 0.031424, 0.10355, -0.042185, 0.054501, 0.098429, -0.081431, -0.027687, 0.013305, -0.077827, -0.054467, -0.022917, 0.13477, -0.14163, 0.081635, -0.026671, -0.079594, 0.1086, -0.053022, 0.11763, 0.079378, -0.24572, -0.073654, 0.06232, -0.093699, -0.23005, -2.3442e-05, 0.089159, 0.026741, -0.017917, -0.11542, -0.12908, 0.22558, 0.2839, -0.27623, -0.09078, -0.018517, 0.039191, 0.114, -0.16631, -0.028193, -0.066639, -0.087157, 0.24043, 0.01171, 0.18466, -0.093788, 0.22168, -0.18491, 0.095227, 0.083857, -0.061619, 0.1574, 0.2583, -0.019521, 0.069121, -0.008235, 0.13499, -0.028747, 0.17132, -0.20208, -0.21431, -0.1955, 0.30781, -0.047463, -0.13343, 0.11024, 0.079164, 0.071052, -0.3275, 0.12828, -0.03835, 0.28657, -0.25323, -0.19776, 0.042399, 0.091147, 0.3308, 0.16635, -0.10622, -0.049667, 0.076503, 0.22486, 0.089425, 0.089953, 0.25299, -0.10136, -0.14636, 0.035484, -0.12414, 0.11492, 0.034113, 0.01821, 0.027048, -0.27365, -0.054002, 0.22549, -0.22476, -0.12339, 0.0085233, -0.11353, 0.23165, 0.088973, 0.10965, -0.14026, 0.16457, -0.079296, -0.11369, -0.12847, 0.11391, 0.18162, 0.088098, 0.12726, -0.21819, -0.1947, 0.081066, 0.05522, -0.11311, 0.13938, 0.29807, -0.18143, -0.082442, 0.16832, 0.20201, -0.20855, 0.012858, 0.39694, 0.1417, -0.026334, -0.0060269, 0.077051, 0.19685, 0.076083, 0.10758, 0.27895, 0.03174, 0.15649, 0.25162, -0.22426, 0.11007, -0.06954, -0.02447, 0.22053, 0.16161, 0.076898, 0.1614, 0.045605, 0.2151, 0.12458, 0.041709, 0.046532, -0.15879, 0.082717, -0.19438, 0.11465, -0.011172, 0.15261, -0.010765, -0.077926, -0.095944, 0.048022, 0.24188, 0.070874, -0.1259, -0.047993, 0.051261, 0.091404, -0.017212, -0.056584, 0.30134, 0.020433, 0.26752, -0.10734, -0.11016, 0.13275, -0.1279, -0.19208, -0.24637, -0.18405, -0.3001, 0.058677, -0.22924, -0.018854, 0.073381, -0.16699, 0.17449, 0.28629, -0.13599, 0.29003, 0.058642, -0.24514, -0.097461, 0.15215, -0.22393, 0.33478, 0.023841, 0.19147, -0.30535, 0.059211, -0.10414, 0.056764, -0.12343, 0.032579, -0.051447, -0.22251, -0.083639, -0.15789, 0.15824, 0.062796, -0.0064916, 0.16546, 0.02062, 0.23564, 0.024463, 0.11369, -0.057794, 0.15911, 0.0055997, 0.0010403, 0.20436, -0.068587, -0.089988, 0.23167, -0.13519, -0.006569, 0.28193, -0.2828, -0.16109, 0.40524, 0.26547, -0.14784, -0.13033, 0.12266, 0.071977, -0.15487, 0.22331, -0.092985, 0.10462, -0.19458, -0.12771, 0.19628, 0.011754, -0.32101, -0.18616, 0.065751, 0.25486, 0.15584, -0.092697, -0.14663, -0.071752, -0.34425, -0.013662, 0.27243, 0.17805, -0.18223, 0.18168, -0.12304, -0.016207, -0.18183, 0.31921, -0.10487, -0.0096094, 0.11372, -0.037288, -0.091971, 0.11382, -0.1955, 0.072458, 0.1002, 0.068679, -0.075009, 0.13001, 0.14632, 0.19874, 0.23687, 0.039839, 0.0063668, 0.012323, 0.0037341, 0.057885, -0.10719, 0.10899, -0.11434, 0.13766, -0.03952, 0.095477, 0.0070381, 0.0066036, 0.16102, 0.22772, -0.16023, 0.11404, 0.53036, 0.042715, 0.37418, 0.03941, -0.18273, -0.14196, -0.09866, -0.16823, 0.14923, 0.11086, 0.1551, 0.073073, 0.0451, -0.098694, 0.17053, -0.11305, -0.36471, 0.32842, 0.052235, 0.0073579, -0.0098367, -0.080031, 0.18647, 0.15434, -0.1794, -0.095753, 0.31409, -0.082817, 0.14624, -0.0058234, 0.047364, 0.035453, -0.052077, 0.025324, -0.012523, 0.12441, 0.019313, 0.28125, 0.11174, 0.035849, 0.038233, 0.23721, -0.21429, 0.02468, 0.1219, 0.17106, 0.11991, 0.01436, -0.042822, 0.22914, -0.21058, 0.00015151, -0.31824, 0.051548, 0.3487, -0.096973, -0.1813, -0.16443, 0.060632, 0.041194, -0.10496, 0.10838, -0.10164, -0.0054466, -0.19972, 0.21301, -0.15458, 0.037243, -0.26672, -0.020331, -0.050519, -0.13311, 0.12553, -0.0065814, -0.15775, -0.072679, -0.16236, 0.056942, -0.24474, 0.063957, 0.066572, -0.076293, 0.0015215, 0.023482, -0.17058, 0.095509, 0.26537, -0.027946, -0.13144, 0.099752, -0.24662, -0.18831, -0.053889, 0.067117, -0.20445, 0.07684, 0.12517, -0.1359, -0.12026, 0.24169, 0.14242, 0.034308, -0.054895, 0.21346, 0.23479, -0.038737, -0.019177, -0.055463, 0.14608, 0.048219, -0.14031, -0.074682, 0.070862, 0.17714, 0.15246, 0.095689, 0.008034, 0.10475, -0.28696, 0.035783, 0.16077, -0.12078, 0.0097324, -0.04826, 0.15341, 0.33648, 0.0579, 0.0093654, -0.14669, -0.082571, -0.074097, -0.13045, 0.14766, -0.042561, -0.069219, 0.16384, -0.10427, 0.12828, 0.11624, 0.15439, -0.11078, 0.17661, -0.044731, 0.10095, -0.005261, -0.15174, -0.10103, 0.072802, 0.25337, -0.075176, 0.0046422, 0.25855, 0.0818, -0.0032022, 0.0088672, -0.04126, 0.078991, 0.036355, 0.13504, 0.14009, -0.19466, 0.13723, -0.054114, -0.23813, -0.15024, -0.098799, -0.040589, -0.08317, 0.022135, -0.13097, -0.19739, 0.094591, -0.1509, 0.044585, 0.0068403, -0.0055624, 0.017945, 0.035205, 0.14326, -0.1287, -0.061618, 0.053114, -0.0404, 0.23915, -0.012995, -0.31196, 0.079468, -0.21449, 0.10626, 0.0017654, -0.03497, 0.10717, -0.0013088, -0.016944, -0.04404, -0.22318, 0.038998, 0.087725, 0.26655, 0.13417, -0.14483, 0.053738, 0.16557, 0.14923, -0.13864, 0.095824, -0.049768, 0.070942, 0.030124, 0.26602, -0.027224, 0.088936, 0.05849, 0.067621, 0.13136, -0.13019, 0.054234, 0.0070189, 0.031288, -0.052607, -0.029733, 0.099545, -0.0015485, 0.090754, 0.13665, -0.07893, -0.3308, -0.11516, -0.076969, -0.037735, -0.28393, -0.012899, 0.077331, -0.10145, 0.043236, 0.10153, 0.018353, -0.092321, -0.22091, 0.16934, -0.19783, 0.18654, -0.086728, 0.20576, 0.014509, 0.17093, 0.1511, -0.051238, 0.20852, -0.018727, -0.14376, -0.15616, -0.088398, 0.010058, 0.033625, 0.2342, -0.020291, -0.13576, -0.054773, 0.16884, -0.16488, 0.094167, 0.084819, -0.020185, 0.24302, 0.0053988, 0.18425, -0.11972, -0.40776, -0.16104, 0.25308, 0.19413, 0.041755, 0.053941, -0.0065294, 0.054079, -0.04532, 0.078892, -0.1125, -0.012351, 0.045239, -0.0052518, 0.081734, 0.17592, 0.02519, 0.0022092, 0.0022332, -0.082949, -0.073786, -0.088229, -0.042761, 0.0101, -0.099881, -0.075983, 0.10655, 0.08269, 0.02885, -0.086162, -0.084568, 0.0097234, -0.20021, 0.056173, 0.22323, 0.13686, -0.303, -0.16785, -0.089165, 0.057959, 0.12164, 0.023221, 0.10125, 0.16546, -0.067398, -0.11053, -0.032767, -0.0053584, -0.0021224, -0.0012322, -0.1077, -0.11186, 0.047937, -0.10191, -0.2648, -0.098017, 0.057469, -0.041157, 0.12669, 0.12372, 0.054641, -0.13381, 0.23035, -0.34792, 0.017869, 0.034309, 0.11898, -0.11905, 0.19523, 0.021302, -0.1296, -0.0046584, -0.020776, -0.076356, -0.027537, 0.017237, -0.033899, -0.11812, -0.22875, 0.044861, 0.073946, -0.16824, -0.12856, -0.29347, -0.052439, -0.027949, 0.086196, 0.05452, 0.14939, -0.19654, 0.021421, 0.16322, -0.036591, 0.20201, 0.22655, 0.06054, -0.29951, -0.11862, -0.018763, -0.055782, -0.12294, 0.038074, -0.018665, -0.062292, -0.086957, -0.13486, -0.012096, -0.19039, -0.1554, -0.016166, -0.055007, -0.039767, 0.065543, -0.050867, -0.053921, -0.0064332, -0.12603, 0.099269, 0.027077, -0.093852, 0.070156, 0.051969, 0.066307, 0.046299, -0.098561, 0.02629, -0.14651, -0.072232, -0.062976, -0.0087447, -0.036408, -0.21419, 0.23082, -0.0734, 0.013815, 0.033827, 0.1655, -0.16711, -0.0025887, 0.12764, -0.25263, -0.041662, -0.079313, -0.055015, -0.14515, -3.0237e-05, -0.21417, -0.15755, 0.075914, -0.033194, -0.0096852, 0.14937, -0.10069, -0.081174, 0.059771, 0.1397, -0.081739, 0.077309, -0.2614, 0.018578, 0.0044661, 0.3408, 0.13567, -0.27464, -0.074738, -0.020249, 0.38211, -0.085578, 0.15396, -0.17908, 0.24356, -0.093356, -0.18543, -0.23991, -0.097838, 0.080588, 0.13754, -0.032397, -0.1556, 0.017428, -0.073887, 0.23359, 0.023606, -0.0077523, -0.022797, -0.10873, -0.029952, 0.12231, -0.11813, 0.29136, -0.13579, -0.058755, -0.2373, -0.30501, 0.14989, -0.10006, -0.076447, -0.10579, 0.11346, -0.0016688, -0.13695, 0.055815, 0.054814, 0.033537, -0.24069, -0.2484, 0.17288, 0.044603, -0.11499, -0.10367, 0.26533, 0.15402, 0.057668, -0.01835, -0.092433, -0.15762, 0.11309, -0.010812, -0.21522, 0.03485, 0.05812, 0.11652, 0.20033, 0.072786, 0.10402, -0.014313, -0.043328, 0.056032, 0.08298, -0.16427, 0.036326, 0.067561, -0.15153, -0.047084, 0.13937, 0.08497, 0.12174, 0.16419, -0.017988, -0.094702, -0.05841, -0.19617, 0.054169, -0.0074957, -0.057618, 0.06725, -0.061733, -0.06438, 0.017469, -0.14657, 0.30511, -0.025301, 0.040686, -0.057157, 0.056649, -0.093323, 0.093382, 0.037818, 0.0035492, 0.054255, -0.18339, -0.052928, 0.16673, -0.047315, -0.22873, -0.0018103, 0.12266, 0.063857, 0.16078, -0.14649, 0.17242, -0.053186, -0.0093846, 0.10195, 0.24295, 0.0094578, -0.035035, 0.030713, 0.038392, -0.11922, 0.049532, 0.22445, -0.085792, -0.073384, 0.025342, 0.24054, -0.020491, -0.053078, -0.097736, -0.04721, -0.0029667, 0.019987, 0.014637, 0.042898, 0.029123, 0.046197, -0.044824, -0.12288, -0.014095, -0.166, -0.13818, 0.044989, -0.17257, 0.04191, -0.13795, 0.094865, -0.090157, 0.1167, 0.1126, 0.1573, 0.13628, -0.067185, 0.10059, 0.0076402, 0.020942, -0.053762, -0.16983, -0.065446, 0.083127, -0.03715, 0.030317, 0.08489, 0.084289, 0.099888, 0.019863, -0.12175, -0.009244, 0.081892, 0.20938, -0.015385, -0.037973, -0.14418, -0.027513, -0.0072948, -0.029673, -0.18388, 0.17992, 0.016673, -0.11147, -0.0065684, -0.034643, 0.005117, -0.11483, 0.20739, 0.10449, 0.081919, 0.072508, -0.15979, 0.049244, 0.11358, 0.027417, -0.0054976, -0.059861, -0.016678, 0.061481, -0.09799, -0.089245, 0.10856, -0.22264, 0.14794, 0.037229, 0.062339, 0.016888, -0.23233, -0.0071902, 0.14456, 0.039898, 0.092967, -0.12236, 0.020605, 0.082389, -0.11688, 0.02375, 0.022473, 0.026215, -0.11807, -0.077691, -0.048342, -0.07207, 0.0080254, -0.34692, -0.20553, 0.0069406, 0.051183, 0.16661, 0.047037, -0.0038163, -0.0014951, -0.086703, 0.015793, -0.098944, 0.0022897, 0.10788, -0.15018, 0.055768, -0.06766, 0.030074, 0.093581, 0.010026, 0.018348, -0.29816, 0.10689, -0.13808, -0.0070472, -0.14181, -0.023763, -0.0822, -0.17756, 0.24001, -0.23092, 0.0041041, 0.17638, 0.16378, -0.061313, -0.028393, 0.024149, -0.14918, -0.18645, 0.10675, 0.13813, 0.12522, 0.078621, 0.045131, -0.10154, 0.34248, -0.2024, -0.27378, -0.059908, 0.029337, 0.074728, -0.062865, 0.22026, -0.1502, 0.14727, -0.051284, 0.00012739, 0.084304, 0.12309, -0.15019, -0.0022893, 0.16779, 0.14796, -0.055975, -0.15409, 0.044198, -0.17571, 0.10809, 0.13454, 0.26088, -0.019317, -0.1563, -0.076266, -0.048542, 0.041391, -0.098108, 0.031939, -0.04688, 0.067447, 0.14503, -0.12533, -0.18254, 0.073245, 0.15451, -0.001947, -0.10132, -0.14078, 0.036652, -0.0018883, -0.070708, 0.32047, 0.14461, 0.19464, 0.027396, -0.090081, 0.043987, -0.019209, -0.11841, 0.064124, -0.43907, -0.095018, 0.029241, -0.032019, 0.030428, 0.1679, -0.16145, 0.026998, 0.10833, -0.018997, 0.034367, 0.0069071, -0.17998, -0.097329, 0.08507, 0.12314, 0.090703, 0.11314, 0.028987, -0.032478, -0.10826, 0.11218, -0.10125, 0.048021, -0.072225, -0.043874, -0.13199, -0.073769, -0.0060766, -0.0090907, 0.071865, -0.093446, 0.19656, 0.10927, -0.014761, -0.024682, -0.2058, -0.1707, 0.17249, -0.028361, -0.015859, 0.10313, 0.027989, 0.079395, -0.032693, 0.041052, -0.042643, -0.059614, 0.15161, -0.14758, -0.049082, 0.071062, -0.1515, 0.19593, -0.00080142, -0.14826, 0.034446, 0.041222, 0.04218, 0.043861, 0.094474, -0.08863, -0.026967, -0.00046853, -0.10945, -0.047775, 0.1172, 0.10621, -0.26589, 0.033008, -0.39447, 0.1992, -0.10155, -0.066505, 0.06137, -0.14568, -0.19013, 0.079413, 0.031973, -0.091218, -0.054228, 0.10031, -0.031563, 0.22463, -0.18628, -0.14227, 0.0075128, 0.13228, -0.012315, -0.055473, -0.25413, 0.29915, -0.21198, 0.17877, 0.42536, -0.0098904, -0.074976, -0.19024, 0.032395, 0.11725, 0.047476, -0.035445, 0.098747, 0.0025721, -0.064013, -0.092698, 0.058689, -0.055891, -0.11093, 0.040207, 0.09388, -0.028057, -0.11087, 0.12199, 0.021415, 0.092337, 0.14641, -0.15153, -0.007168, 0.048212, -0.00092039, -0.087587, -0.15739, 0.11848, 0.11547, -0.10474, 0.20372, 0.088126, 0.08591, -0.083284, -0.064722, 0.16509, -0.028181, -0.049455, -0.0091175, 0.060882, 0.033228, -0.013025, 0.054748, -0.17935, -0.086797, 0.05504, -0.035585, 0.035198, 0.093078, 0.13481, -0.036083, -0.15819, -0.081614, 0.10061, -0.078967, 0.019276, 0.064857, -0.187, 0.075711, -0.062493, -0.084294, 0.13835, -0.14556, -0.0257, -0.2975, 0.27012, -0.06965, 0.11786, -0.054017, 0.046837, -0.0071645, -0.091563, -0.11004, -0.075768, 0.013545, -0.13104, 0.037325, 0.096922, -0.060164, 0.011468, 0.020621, 0.048351, 0.033873, 0.077271, -0.08501, -0.059126, 0.09028, -0.0083451, 0.029465, -0.16579, -0.20799, -0.011029, -0.055783, 0.15946, 0.12513, 0.18123, 0.01885, -0.07814, -0.12092, 0.011558, 0.043809, -0.009669, -0.21715, 0.13946, -0.13358, 0.12883, -0.2067, -0.23025, -0.19716, 0.094633, -0.14589, 0.067758, -0.14742, 0.023977, 0.0099229, -0.0030645, -0.059073, -0.0047459, 0.39984, 0.077081, 0.015142, -0.0047135, 0.074211, 0.031894, 0.4011, 0.063818, -0.048764, -0.30515, -0.14741, -0.27575, -0.084622, 0.068844, -0.25266, -0.18132, 0.0026005, 0.10862, -0.0060405, 0.062379, 0.22875, -0.11381, 0.054991, 0.081269, -0.11208, -0.058608, 0.084888, -0.0022227, -0.015626, 0.098879, 0.066975, -0.15173, 0.046844, -0.031864, -0.21612, -0.091484, 0.02784, 0.061405, -0.22014, 0.056588, -0.046149, 0.1862, 0.028884, 0.19853, 0.047855, 0.033537, -0.078374, 0.052446, 0.14055, -0.0087923, 0.26696, -0.10131, -0.068438, -0.0042504, 0.14144, -0.013292, -0.13546, 0.038501, -0.12764, -0.019753, 0.020833, -0.13057, -0.19277, -0.24923, -0.045198, 0.020103, -0.017671, -0.23904, -0.0041766, 0.043016, -0.072554, 0.0030812, -0.032308, 0.27042, 0.056769, 0.034975, -0.09387, 0.17275, -0.11408, -0.024658, 0.064791, 0.19961, -0.1026, 0.059682, -0.13024, -0.028384, 0.18044, -0.069998, 0.06219, -0.12597, 0.069554, 0.058403, -0.16763, 0.10174, 0.11096, -0.14668, 0.052455, 0.010635, -0.044964, 0.099565, -0.0047263, -0.022287, 0.13773, -0.29886, -0.13127, -0.072306, -0.058017, 0.038137, -0.067471, 0.1354, -0.056152, 0.070942, 0.088722, 0.12556, 0.043477, -0.010264, -0.1465, -0.14777, 0.027873, 0.034494, 0.030625, -0.023961, 0.068735, 0.051165, 0.07107, 0.021121, 0.1463, 0.2096, -0.0084096, -0.024061, -0.028463, -0.081086, 0.15247, 0.053124, 0.10347, 0.074303, -0.019488, 0.079043, 0.13606, -0.10306, -0.2106, -0.10654, -0.095616, 0.21999, 0.1643, 0.19938, 0.02924, 0.03442, 0.21226, -0.029023, -0.060888, -0.17078, 0.047767, 0.18556, 0.029411, -0.013385, 0.35615, -0.20769, -0.08937, -0.037584, -0.12548, -0.013929, -0.33597, 0.20658, -0.19212, -0.0050921, -0.065674, 0.033304, -0.06334, 0.043741, 0.048093, 0.056636, -0.12479, -0.041491, 0.26597, 0.093022, -0.13014, -0.085353, -0.18968, -0.094436, -0.15886, 0.2375, 0.084868, -0.051098, -0.034118, -0.062388, -0.12007, 0.098355, -0.16783, 0.039245, -0.014191, -0.019884, -0.027625, -0.078188, 0.208, 0.037192, 0.035332, 0.0072974, 0.12879, -0.057164, 0.059854, -0.0036282, -0.1062, 0.18401, -0.22164, 0.090476, -0.001107, -0.014999, 0.10832, -0.13585, 0.11616, 0.080155, 0.02777, 0.098444, 0.16201, 0.19457, -0.11128, 0.0091614, -0.034219, -0.011284, 0.086833, 0.10342, 0.066209, -0.10412, 0.026011, 0.06896, 0.057236, 0.012728, -0.074661, 0.010367, -0.039824, 0.013863, 0.11892, -0.038231, 0.019494, -0.20956, 0.020262, -0.043914, 0.1521, -0.12036, 0.012218, 0.19334, -0.10044, 0.095184, -0.077508, -0.024723, 0.18685, -0.04732, 0.16502, -0.092986, 0.11932, -0.07865, -0.16775, 0.030976, 0.034521, 0.059973, -0.07219, 0.17772, 0.11618, -0.10203, -0.058019, -0.13459, 0.16182, 0.074382, 0.016602, 0.090847, -0.020511, -0.075667, -0.028978, -0.038394, 0.018082, -0.051847, -0.16612, -0.030534, -0.071026, -0.052278, -0.0006456, 0.026511, -0.21864, -0.00751, 0.011396, 0.0067073, 0.10476, 0.045743, -0.014747, -0.048884, 0.052445, 0.042717, -0.042374, 0.075981, -0.078197, -0.27813, -0.088178, -0.0092512, -0.14369, -0.039352, -0.20265, -0.029795, -0.073754, 0.040222, -0.057658, 0.27699, -0.12216, -0.17896, 0.2029, -0.098153, 0.093392, -0.0064377, -0.11601, 0.16224, -0.15876, 0.08326, -0.040103, 0.07709, -0.096115, -0.064541, 0.036747, -0.21134, -0.066822, -0.020184, -0.00071413, 0.11975, 0.0050108, -0.098779, -0.013429, 0.1107, 0.11897, -0.009146, -0.011592, -0.06088, 0.15489, 0.17209, 0.00052477, -0.043056, 0.17301, -0.064077, 0.045189, -0.038585, -0.021436, 0.082994, -0.13105, 0.025664, 0.26352, 0.013189, 0.10681, 0.072063, -0.23773, 0.016312, 0.12465, 0.095064, -0.07511, 0.032564, -0.025165, -0.20555, 0.054414, -0.041749, -0.029604, 0.16534, -0.14555, 0.048126, -0.01427, 0.049464, 0.079382, 0.022394, -0.18038, -0.13821, -0.25115, 0.0089894, 0.018698, 0.15902, -0.24153, -0.074872, -0.058505, -0.29246, 0.070854, -0.080598, -0.29045, -0.048304, -0.060379, -0.12252, -0.077814, -0.078539, 0.042214, 0.36312, 0.045993, 0.03158, -0.01918, 0.10897, 0.23956, -0.034244, -0.031439, -0.2032, 0.10783, -0.22565, 0.11424, -0.013063, -0.11103, -0.06161, -0.067067, -0.048135, 0.25705, 0.0069763, 0.068614, -0.076385, -0.022448, 0.14693, -0.0096289, -0.063012, -0.087096, -0.27934, -0.05205, -0.035417, -0.11345, -0.10966, 0.0021049, 0.056992, -0.019798, -0.07724, 0.048891, 0.040014, 0.059485, 0.024958, 0.026369, 0.21524, 0.33411, 0.050313, 0.1169, -0.2485, 0.2023, -0.1776, 0.21335, 0.15113, -0.039406, 0.0094777, 0.017255, -0.0012727, 0.42157, 0.18346, 0.25641, 0.049613, 0.083044, -0.026071, -0.079807, -0.019005, 0.23368, -0.10529, -0.13273, 0.058917, -0.03299, 0.21822, -0.081932, -0.090616, 0.18146, -0.069117, -0.063741, -0.059344, 0.15264, -0.15496, 0.12224, -0.037654, 0.15581, -0.14368, -0.18518, -0.0064183, -0.019813, 0.085438, 0.10715, 0.1797, -0.10295, -0.24289, 0.1277, -0.088283, 0.051429, 0.039021, -0.26525, -0.13642, 0.17625, -0.34078, -0.082995, -0.15211, -0.20073, 0.033601, -0.13604, 0.010342, -0.034998, 0.034899, 0.21148, -0.24593, 0.023609, -0.044156, 0.10704, 0.23592, 0.1257, 0.11973, -0.098117, -0.0015575, 0.19032, 0.096037, 0.013633, -0.050753, 0.23405, -0.18309, 0.022903, 0.16387, 0.071153, -0.0048003, 0.1186, -0.16765, 0.062488, 0.0032346, -0.025102, -0.19068, -0.14328, -0.04682, 0.1291, 0.010173, -0.20482, -0.047305, 0.257, 0.18778, -0.019763, 0.15455, -0.081654, 0.36599, -0.23124, -0.1691, -0.019662, 0.35895, 0.031874, 0.077532, 0.18081, 0.048917, 0.0099019, -0.048878, 0.19983, -0.041361, 0.046373, -0.25711, 0.12429, -0.077079, 0.0049814, -0.13129, 0.0058865, 0.10316, -0.12641, 0.00047252, 0.02213, 0.079614, -0.059684, -0.11591, -0.029453, 0.018039, 0.040037, -0.090967, -0.050285, -0.068253, -0.11655, 0.013245, 0.0054865, 0.068223, -0.21085, -0.12977, 0.29384, 0.12862, 0.19548, -0.04261, 0.0174, -0.074119, 0.079995, -0.076627, -0.11728, -0.018365, 0.16429, -0.073262, 0.062365, 