#include "secondaryobjectneuralnetwork.h"

static size_t SECONDARYOBJECTNEURALNETWORK_LAYERS[3] = {80, 80, 4};
static float SECONDARYOBJECTNEURALNETWORK_WEIGHTS_1[6480] = {-1.1651, -0.33861, -0.10981, 0.35238, 0.28638, -0.979, -0.21698, 0.55314, 0.62467, -0.23119, 0.59288, 0.1547, -0.10331, 0.19632, 0.079059, 0.16311, -0.85216, 0.57985, -0.6081, 0.58698, -0.27087, 0.34108, 0.7092, -0.84417, 0.041424, -0.41704, -0.13514, -0.40021, -1.2944, 0.014722, 0.29422, -0.92581, 0.027511, -0.53461, -0.22944, 0.86027, -0.3984, -1.0069, -0.71552, -0.59665, 0.64891, -0.20086, -0.57716, 0.26818, 0.0062002, 0.02258, -0.15138, -0.30289, -0.91684, -0.29535, 0.25471, -0.82192, 0.14252, -0.47186, -0.20139, 0.50609, 0.19038, -1.4844, -0.30553, 0.26555, 0.60748, 0.14317, -0.43504, 0.1427, -0.045448, 0.29783, -0.44167, 0.11798, -0.012979, 0.10782, -0.523, 1.0497, 0.062533, 0.10005, -0.085337, -0.41167, 0.15611, 0.21101, -0.15207, 0.17358, 0.1401, -0.18262, 0.53643, 0.03431, 0.29776, 0.4057, -0.22791, 0.15369, 0.25805, -0.21222, 0.17932, -0.00059715, 0.62627, 0.64914, 0.40902, -0.25442, 0.25683, -0.13387, -0.36981, 0.27093, 0.57762, 0.39698, 0.18522, 0.17722, 0.3689, -0.0099049, 0.044079, -0.20017, 0.10305, 0.81243, 0.22098, 0.25078, 0.083606, 0.8253, 0.98372, 0.027164, 0.27881, -0.010782, -0.24566, -0.34131, -0.30383, 0.44395, 0.37384, -0.2119, -0.24704, 0.28833, -0.25807, -0.040477, 0.27271, 0.71223, -0.6697, 0.17173, 0.20882, 0.64646, 0.75865, -0.25151, 0.14293, 0.40461, 0.48941, -0.22138, 0.52988, -0.11672, -0.2577, 0.81481, 0.48615, -0.41722, 0.83629, -0.25019, -0.41659, 0.93407, 0.74464, -0.038561, 1.0885, 0.50259, 0.79569, 0.27356, 0.58695, 0.62741, 0.11309, 0.44432, 0.0010339, 0.36289, 0.34801, -0.5864, 0.0040685, 0.36884, -0.55104, -0.44675, -0.1243, -0.027667, -0.4745, -0.084487, -0.025609, 1.0355, 0.211, -0.081004, -0.91804, 0.012181, -0.18855, 0.76933, -0.23927, -0.070991, -0.45828, -0.34615, -0.045376, -0.20842, -1.0467, -1.0563, -0.33479, 0.057871, 0.29234, -0.34221, -0.30009, 0.78306, 0.16176, -0.46619, -0.6063, 0.60928, 0.39588, 0.26778, 0.69771, 0.12707, -0.21825, 0.13339, 0.21225, 0.23321, 0.092929, 0.33258, 0.20689, -0.41055, 0.1619, -0.13386, -0.37007, 0.83495, -0.085098, 0.63448, -0.27064, 0.92381, -0.14576, -0.066194, -0.091997, 0.2285, -0.34753, 0.75096, 0.15921, 0.32765, 0.54099, -0.41546, -0.65768, -0.13808, 0.47503, -0.21021, 0.49701, 0.28279, 0.26099, 0.26067, -0.14242, -0.27145, 0.24728, -0.13525, 0.31826, 0.27925, -0.48562, -0.68964, -0.01245, 0.53408, -0.49549, -0.31123, 0.10435, 0.70383, 0.020492, 0.97996, 0.7239, 0.35155, 0.31501, -0.25896, -0.23864, -0.62575, 0.040529, 0.19069, 0.27889, 0.41224, 0.41584, 0.02147, 0.02823, 0.090169, -0.019111, -0.15575, 0.65168, 0.50372, -0.634, -0.45713, -0.39871, 0.8407, -0.30057, -0.43691, -0.025004, 0.58298, -0.68218, 0.1864, -0.28271, 0.17344, -0.35196, 0.010638, -0.7405, 0.091997, 0.63724, 0.3824, 1.0864, -0.45673, -0.69203, -0.14905, 0.11899, 0.38902, 0.70417, 0.1005, -0.042609, 0.61881, 0.32188, -0.10429, -0.18407, -0.2024, -0.31895, -0.083306, -0.026776, 0.7644, 0.68396, -0.10257, 0.24119, -0.82285, 0.4598, -0.55584, 0.43978, 0.74455, -0.68681, 0.050859, -0.55498, 0.070714, 0.18351, 0.27979, -1.0563, 0.33205, 0.48399, 0.037393, -0.16836, -0.41982, -0.037769, 0.54933, -0.49048, 0.2271, 0.44832, 0.0361, -0.51471, -0.025166, 0.025766, -0.017325, 0.70332, -0.5819, -0.60192, -0.086825, -0.33408, 0.036921, 0.074607, -0.0023812, -0.58717, 0.54764, -0.27248, 0.091452, -0.40915, -0.42635, -0.12968, -0.19682, 0.49472, 0.23796, -0.09854, -0.84265, 0.19942, -1.0449, -0.52209, 0.12146, 0.29626, -0.13052, 0.16285, 1.0362, 0.51709, 0.18776, 0.074606, 0.31971, 0.080841, -0.42175, 0.017861, 0.3122, 0.15379, 0.36813, -0.69239, -0.44001, -0.33822, -0.47307, -0.21609, -0.046968, 0.00051709, -0.55195, -0.18106, 0.91045, -0.53899, 0.86179, -0.10175, 0.24101, 0.95726, 0.040787, -0.70407, -0.35903, 0.54035, 0.14398, -0.21069, 0.24482, 0.17359, -0.71737, -0.073045, -0.49371, 0.10443, 0.084663, -0.20829, 0.48135, 0.18425, 0.00028212, -0.22794, 0.39612, 0.01576, 0.21391, 0.56861, 0.39194, -0.68869, 0.051231, 0.36481, -0.082163, 0.60342, -0.62805, -0.095014, -0.12325, 0.37564, -1.1019, -0.26475, -0.71815, 0.20935, 0.64573, 0.4231, -0.25096, -0.67318, 0.24167, -0.033623, 0.38719, -0.21823, -0.82391, 0.032197, 1.036, -0.54406, -0.87109, -0.33935, 0.15635, 0.9038, -0.18277, -0.37798, 1.0239, -0.28923, 0.091723, 0.21731, -0.58657, 0.37556, -0.052592, -0.26736, 0.076352, 0.072779, 0.1661, 0.75171, 0.76165, 0.33368, -0.33587, 0.091734, 0.29247, -0.81768, -0.23801, 0.41878, -0.4113, 0.08758, -0.47417, 0.6301, -0.48895, 0.80984, 0.21308, -0.64641, 0.64733, -0.10932, 0.3477, 0.23803, -0.0054321, -0.32633, 0.10808, -0.18808, 0.063534, 0.048106, 0.29486, -0.48918, -1.2242, -0.043234, 0.56993, 0.34193, -0.99451, 1.1637, -0.75177, 0.39128, -0.079381, 0.3749, 0.66522, -0.094294, 0.012432, -0.521, -0.40319, -0.046991, 0.25707, 0.3676, 0.60771, -0.091473, -0.20447, -0.041527, -0.39658, 0.034956, 0.51226, 0.28239, 0.51152, -0.21213, 0.13602, -0.35068, -0.24862, 0.013447, -0.18284, 0.42062, -0.01636, 0.64918, 0.021637, -0.82092, 0.0041831, 0.15764, -0.64117, -0.5236, -0.6268, 0.031204, 0.38198, 0.33881, -0.14332, 0.042033, 0.24986, -0.058591, 0.078338, 0.14528, -0.48252, -0.46242, -0.16602, -0.42886, -0.31412, 0.42312, 0.26284, 0.038504, -0.39607, 0.027897, 0.097361, -0.16645, -0.41109, -0.28622, -0.36525, 0.56039, -0.26445, -0.56682, 0.14262, 0.73842, 0.050861, 0.27959, 0.27847, 0.13182, 0.33083, 0.15099, 0.38107, -0.39562, -0.1336, 0.34229, 0.24852, -0.6619, -0.58499, 0.043933, 0.71192, 0.58565, 0.61332, 0.22829, 0.48779, 0.10595, -0.032951, 0.254, 0.015337, 0.022604, -0.53798, 0.53663, -0.67765, 0.48702, -0.40316, -0.15493, 0.45603, 0.19246, -0.084597, -0.73804, 0.22657, 0.056562, 0.26803, -0.33236, 0.17741, -0.081804, 0.29063, 0.23215, -0.052131, -0.16484, 0.13132, 0.95519, 0.52312, -0.42221, 0.59004, -0.064395, 0.21471, -0.30715, -0.46563, 0.40715, 0.20674, -0.88596, -0.49736, 0.91366, -0.34671, 0.51839, 0.42997, 0.45581, -0.72555, -0.10923, 0.34854, -0.5038, -0.60181, 0.42715, -0.44877, 0.63379, -0.50346, 0.12463, 0.34624, 0.23832, 0.30143, -0.14232, 0.13524, 0.31896, -0.41058, 0.68691, -0.067895, -0.64437, -0.19657, -0.18517, 0.050841, -0.64002, 0.062232, -0.22131, -0.28648, -0.11568, -0.34193, -0.65936, -0.55311, -0.053346, 0.42951, -0.0075484, -0.68703, 0.20292, -0.19706, -0.0092171, 0.95913, -0.98509, 0.13236, -0.003332, -0.38367, -0.25458, -0.17184, 0.24551, 0.023152, 0.19495, 0.35799, 0.086613, -0.20026, -0.4832, -0.14413, 0.28511, 0.41913, 0.91797, 0.12738, -0.30907, -0.12042, -0.41149, -0.60713, -0.019961, 0.09971, 0.7537, -0.12301, 0.01623, -0.43636, -0.40972, -0.03671, 0.35314, 0.34553, 0.55033, -0.48648, 0.41667, 0.13931, 0.29317, 0.37981, -0.2478, 1.2592, 0.24278, 0.12092, -0.41817, 0.62379, -0.29458, -0.025531, 0.30943, 0.639, 0.27592, -0.77509, 0.39783, -0.56949, -0.10736, 0.20396, -0.24392, -0.060675, -0.10992, -0.20427, 0.6534, -0.19838, 0.62828, -1.1471, -0.34498, 0.25687, -0.79217, 0.040461, -0.28857, -0.48705, -0.82468, -0.043385, 0.2433, -0.31098, -0.5569, -0.2385, 0.072238, -0.20747, -0.58795, -0.45328, 0.19174, -0.18768, -0.089677, -0.44849, -0.018076, -0.99236, -0.71525, -0.22813, -0.74047, -0.31395, -0.65495, -0.083219, -0.051944, 0.51121, -0.26207, 0.28358, -0.10481, 0.11399, -0.40019, -0.41827, 0.32021, 0.70157, 0.23653, -0.033174, -0.46498, -0.51393, -0.21384, -0.27824, 0.14109, -0.55165, 0.42472, -0.00079348, -0.25961, -0.33115, -0.68183, -0.12033, -0.1803, 0.26895, -0.31263, -0.015192, -0.008359, -0.74637, -0.59696, 0.87214, -0.0019716, -0.73386, 0.28282, 0.20384, -0.13391, 0.077289, -0.061417, -0.44964, 0.31266, 0.00038724, 0.40635, 0.24297, 0.22999, 0.10565, -0.074141, -0.35522, 0.006999, 0.81765, -0.64727, 0.25365, -0.20669, -0.29522, -0.020072, -0.89799, -0.75062, -0.51391, -1.0918, 0.81322, 0.3715, -0.083995, 0.24107, -0.48998, 0.1687, -0.68528, 0.030019, 0.13425, 0.4129, -0.29157, 0.086143, -0.0074705, -0.39881, 0.14609, -0.16006, -0.21204, -0.64502, 0.78892, -0.15461, -0.2288, 0.34344, -0.45195, -0.19657, 0.5056, 0.18526, -0.1139, -1.0256, 0.57649, 0.017116, -0.16036, 0.56266, 0.33364, -0.2321, -0.30655, -0.087658, 0.18167, -0.28451, -0.74308, 0.19945, -0.61861, -0.38937, 0.74245, -0.42395, -0.14616, 0.18565, -0.68551, -0.8074, 0.33315, -0.42086, -0.049445, -0.44088, 0.20632, 0.28665, -0.61678, 0.41511, 0.087771, 0.48256, -0.29063, -0.30305, 0.5341, 0.51524, -0.48445, 0.1138, 0.34076, 0.081778, -0.80752, -0.26418, -0.22256, -0.49286, 0.72556, -0.42972, 0.048139, -0.57265, 0.082852, -0.4693, 0.13349, 0.16197, 0.039573, -0.15152, -0.3845, -0.18218, 0.81663, 0.67415, 0.67967, -0.38635, 0.12181, -1.0634, -0.10916, -0.20902, 0.65484, -0.25637, -0.13385, 0.10889, -0.025935, -0.1212, 0.44575, -0.23103, -0.026677, 0.16851, -0.53616, 0.60183, 0.1934, -0.12256, -0.028492, 0.061636, 0.54371, 1.4892, -0.22185, -0.5633, 0.32046, 0.83622, 0.26436, 0.15958, -0.036274, 0.47109, 0.16177, 0.34346, 0.23667, 0.35476, -0.25942, 0.085768, 0.39044, 0.42917, 0.11286, -0.057465, 0.096976, -0.16743, 0.27671, -0.14359, -0.56622, 0.11889, 0.3224, -0.25342, 0.19291, 0.096552, 0.25542, 0.04723, 0.41198, 0.24529, 0.26714, -0.054773, 0.075134, -0.0138, -0.2183, -0.52908, -0.12586, -0.045791, -0.21304, 0.088677, 0.28424, 0.18921, 0.15209, 0.31909, 0.31947, -0.031659, -0.37354, -0.32152, 0.24404, -0.34629, 0.085848, 0.48274, -0.020963, -0.13966, 0.076525, -0.012489, -0.86719, -0.13952, 0.021735, 0.31117, -0.03147, 0.17822, -0.52616, 0.064398, -0.43137, -0.13277, 0.23102, -0.11186, -0.3876, -0.90825, -0.18712, 0.054234, -0.54293, 0.18967, 0.035855, -0.22947, -0.49382, -0.53611, -0.48266, -0.22571, -0.1838, -0.11482, 0.0052913, 0.074673, -0.53562, -0.4836, -0.091153, 0.46601, -0.34205, 0.0060315, -0.46437, 0.34787, -0.12459, -0.46964, 0.17836, -0.30632, 0.40715, 0.28571, -0.45727, -0.25643, -0.69367, -0.30666, -0.37119, -0.10913, -0.48028, 0.26116, -0.061049, 0.11944, 0.21109, -0.0056495, -0.16734, 0.054028, 0.67237, -0.12225, 0.1065, -0.82408, 0.43526, 0.24108, 0.06449, 0.46442, 0.16089, -0.48835, 0.29518, -0.59609, -0.21982, -0.00060034, -0.58979, -0.36766, -0.13055, -0.29132, 0.3571, -0.18677, 0.090576, -0.041817, -0.19676, 0.34249, 0.077942, 0.30484, 0.47268, 0.020976, 0.1324, 0.13554, 0.21249, -0.063852, -0.053882, -0.049657, -0.15419, -0.10206, -0.076748, 0.15621, -0.52561, 0.040733, 0.35198, -0.18649, -0.12963, 0.024287, -0.07567, 0.089257, 0.80224, -0.18881, -0.16098, 0.61116, -0.69363, 0.11836, 0.23715, -0.2226, 0.035077, 0.037242, 0.2821, -0.24698, -0.39599, -0.47025, 0.22429, -0.103, 0.20078, 0.35338, -0.1431, 0.36599, -0.16981, 0.30318, -0.34742, 0.41775, 0.53433, -0.081544, -0.35231, -0.28647, -0.10939, 0.17697, 0.12338, -0.062425, 0.013721, -0.01213, -0.091389, -0.051299, -0.082819, 0.13033, -0.3405, -0.6328, 0.26034, 0.57084, 0.23521, -0.51434, -0.67423, -0.029808, 0.18843, -0.28962, -0.6175, 0.26624, -0.10993, 0.64042, -0.064471, -0.61118, -0.44046, 0.47709, -0.20522, -0.35466, -0.58592, 0.49958, 0.25422, 0.39486, -0.26549, 0.88235, -0.22719, -0.33307, 0.49479, 0.2305, 0.23051, 0.33664, 0.41326, -0.17701, 0.42782, 0.25328, -0.18011, 0.22164, 0.056187, -0.31335, -0.30121, -0.13951, -0.17785, 0.11646, -0.085596, -0.14409, 0.087942, 0.0055469, 0.08499, 0.070218, 0.63678, -0.65898, 0.2718, -0.26947, 0.75448, 0.13225, 0.18306, 0.55307, 0.43046, 0.60772, -0.33418, -0.83532, 0.34562, 0.22172, 1.0772, -0.032882, 0.33666, -0.061852, 0.4273, 0.27386, -0.36609, -0.10948, 0.4567, -0.16108, -0.90364, 0.47137, -0.023175, -0.51298, 0.22752, 0.62448, 0.34191, 0.032328, 0.65958, 0.328, 0.58497, 0.92139, 0.080597, 0.21398, 0.042979, 0.22673, -0.85569, -0.018848, -0.46071, 0.056838, 0.02362, -0.18806, 0.498, -0.11231, -0.71641, -0.086313, -0.25761, -0.71499, 0.50996, -0.042032, -0.18834, -0.037437, -0.020506, 0.14848, 0.31122, -0.30054, -0.027454, 0.16034, 0.012126, -0.20127, 0.33446, -1.1648, -0.59669, -0.21082, 0.0058116, -0.2651, -0.26263, -0.24487, 0.38128, -0.23729, 0.38665, -0.51933, -0.27138, 0.071501, -0.08243, -0.41841, -0.17499, 0.10265, 0.12749, -0.097933, 0.14189, -0.045087, -0.015247, 0.039706, -0.15413, -0.23533, -0.15075, 0.22926, 1.4956, -0.22395, 0.24338, -0.24979, 0.1784, 0.082715, -0.41042, -0.28762, -0.35536, -0.35905, -0.092893, 0.26247, 0.13618, 0.52268, 1.1724, -0.2991, -0.11439, -0.19053, -0.38276, 0.40931, 0.030133, 0.12488, 0.16994, -0.027162, -0.3534, -0.19101, -0.06165, 0.59969, -0.96756, 0.11004, 0.20194, -1.1701, -0.81657, -0.045093, -0.26201, -0.18277, -0.062876, -0.3018, -0.75276, 0.32814, -0.12628, 0.035407, -0.60505, -0.37804, -0.099228, -0.24481, -0.1037, 0.23845, 0.0083288, 0.74191, 0.30574, 0.42227, 0.10242, -0.43943, -0.48188, 0.051376, -0.081598, -0.13704, -0.13434, -0.039125, -0.23906, -0.0839, 0.61978, -0.26256, -0.57127, -0.3161, -0.37834, 0.0055348, -0.020616, -0.15678, -0.84331, 0.22508, -0.3283, -0.15116, 0.20418, -0.47505, 0.054928, -0.63544, -0.090676, 0.30754, -0.22604, 0.11299, -0.66228, 0.28868, -0.57741, -0.39401, -0.60051, -0.36585, -0.19076, -0.50234, -0.44096, 0.56385, -0.46012, 0.24619, 0.33871, -0.34815, -0.099667, -0.085124, 0.087345, 0.085145, -0.14783, 0.38246, -0.39515, 0.21715, -0.16873, -1.048, 0.083732, 0.38044, 0.41617, 0.11759, 0.46202, -0.53039, -0.13746, 0.19926, 0.031881, -0.012767, 0.92287, -0.39513, -0.0025067, 0.31388, -0.41199, -0.47725, -0.19199, 0.32739, -0.075422, -0.14226, 0.30257, -0.11246, -0.10473, 0.61654, -0.33198, 0.020749, -0.44458, 0.040255, -0.56584, -0.19912, 0.21695, 0.30993, 0.2126, 0.27608, 0.54434, -0.20911, -0.20484, -0.15577, -0.13758, -0.12525, -0.43482, 0.37534, 0.25877, 0.7335, 0.023114, -0.21223, 0.16228, 0.10277, -0.44975, -0.37952, 0.080903, -0.10342, 0.25477, 0.13843, -0.28858, 0.16382, -1.0163, 0.40977, -0.56171, 0.20174, -0.13838, 0.013843, -0.56489, -0.047113, 0.15154, -0.57634, -0.16387, 0.10841, 0.56343, 0.18712, -0.10567, -0.39825, -0.0036324, 0.047566, -0.059948, 0.056503, -0.22624, 0.069657, -0.17975, -0.13992, 0.090929, 0.0076575, -0.88745, -0.57001, 0.40473, 0.050699, 0.24906, -0.42518, 0.34439, 0.33037, 0.45615, -0.16962, 0.016486, 0.29044, -0.10003, -0.05772, -0.36449, -0.25593, -0.33726, 0.67421, -0.06126, 0.068842, -0.36643, 0.29831, -0.34854, -0.39773, -0.1833, -0.59135, 0.22883, 0.34154, -0.31284, -0.29149, 0.36879, -0.61004, 0.040528, -0.24109, -0.29791, -0.17675, 0.49934, -0.01271, 0.026528, -0.035531, 0.31627, 0.20148, 0.27089, -0.23541, 0.15024, 0.25012, -0.36289, 0.71575, -0.36644, 0.18506, 0.0043623, -0.63251, 0.19694, -0.34092, 0.25477, -0.30673, -0.25778, -0.58033, -0.16417, -0.32343, 0.70014, -0.13958, 0.064618, 0.21597, 0.27177, -0.008694, -0.7903, -0.1526, -0.22954, 0.052668, -0.41673, 0.16453, -0.11629, 0.069049, -0.34336, -0.11827, 0.13916, 0.17841, -0.51517, 0.094882, 0.21475, 0.089268, 0.22391, 0.35441, 0.066439, -0.16945, 0.15935, 0.75531, 0.25808, -0.8821, 0.35817, -0.15761, -0.38594, 0.25021, 0.90597, 0.13285, 0.31169, 0.17812, 0.218, -0.53054, -0.050529, 0.12196, -0.15204, 0.70711, -1.0879, 0.0666, 0.1725, -0.015675, -0.068113, -0.31372, 0.11068, 0.56781, 0.090909, -0.10246, 0.21852, 0.27774, 0.57409, 0.70006, 0.097436, 0.26419, -0.15359, -0.32478, 0.34293, -0.35156, -0.25259, 0.26136, 0.059916, 0.36663, 0.30237, -0.019275, 0.45543, 0.098398, 0.57373, -0.0058806, 0.17912, 0.17909, 0.63836, -0.21789, 0.26108, -0.21861, 0.70328, -0.020803, -0.23997, -0.11599, 0.021862, 0.074577, -0.24776, -0.11881, -0.32122, 0.0097807, -0.20143, -0.20195, -0.072535, -0.34822, 0.034972, 0.42954, -0.68618, 0.53337, -0.24002, -0.20374, 0.034378, 0.15895, -0.57689, -0.22279, -0.12224, 0.23143, -0.79062, -0.292, 0.18381, 0.027516, 0.41001, 0.68358, -0.58216, 0.44089, -0.64707, 0.26684, 0.28008, 0.26895, -0.3201, -0.2249, 0.33396, 0.20404, 0.37211, 0.12194, -0.1763, 0.27582, -0.61653, 0.67963, -0.032521, 0.29768, 0.49106, -0.069852, 0.37234, -0.15382, -0.92716, -0.42406, -0.054981, 0.62394, 0.11111, -0.23075, -0.0028924, 0.14379, -0.11891, -0.069283, 0.4153, -0.082238, -0.3818, -0.10117, 0.21014, -0.09684, 0.17761, 0.44221, 0.23311, 0.32424, -0.1704, -0.11733, 0.53562, -0.2572, -0.35485, -0.019096, 0.26576, 0.62598, 0.19084, -0.052697, -0.24125, 0.34862, 0.18279, 0.18876, -0.11751, 0.85985, 0.48388, -0.20788, -0.20703, 0.22298, 0.13956, 0.051824, 0.16557, 0.34247, -0.46286, -0.12369, -0.18274, 0.16239, 0.40104, 0.059745, 0.18183, 0.8421, -0.32863, -0.21814, -0.18298, 0.12501, -0.92741, -0.15108, 0.73327, -0.014437, 0.13461, 0.55521, 0.081306, 0.33665, 0.11901, -0.22419, 0.23652, -0.44334, -0.093399, -0.15257, 0.58703, 1.5054, 0.33348, -0.42335, -0.21825, 0.25996, 0.75903, -0.41663, -0.33756, 0.040858, 0.2508, 0.16142, 0.098618, -0.68111, -0.034199, 0.11082, 0.0044831, -0.37511, -0.19026, 0.16032, 0.21428, 0.16448, 0.44779, -0.30425, 0.45652, 0.50148, -0.1296, -0.085093, -0.76111, -0.30999, -0.26377, 0.18003, 0.27965, -0.31082, 0.37179, 0.21866, -0.10958, 0.12731, -0.003146, 0.71627, 0.63701, -0.3358, 0.024164, 0.27871, 0.19694, 0.20608, -0.53272, -0.17783, 0.30279, 0.14118, -0.18675, 0.12378, 0.23428, -0.19028, 0.067323, 0.11039, -0.8188, 0.18723, -0.9735, -0.44595, -0.30568, -0.13457, -0.19876, 1.1553, -0.21278, -0.45597, -0.26688, 0.13491, -0.029886, -0.017214, -0.26768, -0.497, 0.43707, 0.35072, 0.38363, -0.019284, 0.32387, 1.1079, 0.02506, -0.18141, -0.056449, -0.35857, -0.22684, 0.46287, 0.025257, -0.35788, 0.83708, -0.36345, 0.36261, -0.061802, 0.16127, 0.0041123, 0.051033, 0.31689, 0.25651, -0.58537, -0.22891, -0.36694, -0.82514, 0.024271, 0.14044, -0.16937, -0.28175, 0.12605, -0.0372, -0.028528, -0.14775, 0.76135, -0.041129, -0.087675, 0.24155, 0.46007, -0.10207, -0.10151, -0.1331, 0.33634, -0.34922, 0.80944, -0.075445, 0.24008, -0.060065, 0.26687, 0.36826, 0.076246, 0.040904, 0.17988, -0.025602, -0.073364, -0.15372, -0.56176, -0.1442, 0.38494, 0.19208, -0.50039, 0.20342, -0.08552, 0.23695, -0.086841, -0.12895, 0.12359, -0.047348, 0.19308, 0.24374, -0.4889, -0.57404, 0.42262, 0.26931, -0.73584, -0.36736, -0.39563, -0.33651, 0.031467, 0.28719, 0.314, -0.27364, -0.78484, -0.18371, -0.50659, -0.73819, 0.070415, 0.40314, -0.27916, -0.03237, -0.15054, -0.33552, 0.7598, 0.40164, 0.077523, -0.19245, 0.092055, -0.13717, -0.43373, -0.39608, -0.45215, -0.21725, -0.26188, 0.69419, -0.22804, -0.12757, 0.36822, -0.55659, 0.049601, -0.095626, 0.0032213, -0.18835, 0.22682, -0.19951, -0.014156, 0.40077, -0.3655, -0.099475, -0.48511, 0.022369, 0.18725, -0.041172, -0.14303, -0.46954, 0.16816, -0.01997, -0.23327, -0.20192, -0.25423, -0.71554, 0.060697, 0.039344, -0.32864, -0.085971, 0.096549, 0.010309, 0.15993, 0.42015, -0.57759, -0.26406, -0.48744, -0.24793, -0.01859, 0.19521, 0.037312, 0.028105, -0.4359, 0.031909, -0.070963, -0.0043103, -0.20342, 0.14881, 0.67524, 0.05955, 0.27661, 0.3775, -0.44511, 0.011352, -0.56594, -0.38398, 0.019284, -0.23409, -0.19394, -0.11651, -0.67107, -0.9349, -0.63363, 0.21509, 0.042297, 0.15046, -0.45348, -0.43807, 0.33272, 0.52365, -0.26782, 0.12392, -0.39821, 0.38036, -0.28341, 0.092966, -0.53103, 0.022529, 0.42308, 0.51685, 1.026, -0.37395, 0.025458, 0.14413, 0.59746, 0.4616, 0.16636, -0.15117, 0.23236, -0.1102, -0.14239, 0.33085, 0.16706, -0.52367, 0.00059796, 0.47427, -0.12174, -1.0795, -0.43332, -0.24657, -0.44071, -0.29267, -0.39143, 0.44339, 0.62154, 0.73153, 0.42333, 0.14058, 0.60154, -0.14924, 0.14616, -0.053881, -0.032665, -0.046169, -0.36598, -0.35825, 0.11443, -0.32055, 0.019033, -0.21353, 0.088108, 0.1653, -0.14455, -0.29993, 0.6822, -0.37225, -0.003295, 0.046016, 0.17343, 0.29012, 0.43869, -0.45766, 0.30986, -0.24247, 0.21986, -0.036395, 0.42756, -0.19246, -0.022491, -0.11985, 0.089775, 0.05013, 0.39812, -0.25697, -0.66445, 0.24329, -0.063675, 0.070702, -1.1132, 0.28306, -0.32926, 0.23203, -0.025791, -0.086784, -0.0057785, -0.067818, 0.16773, -0.24193, 0.028367, 0.072832, -0.20383, -0.82341, -0.49184, -0.77441, 0.093865, -0.37996, 0.21201, 0.14175, -0.019174, 0.43117, -0.28258, -0.20719, 0.1516, 0.088265, -0.021135, -0.076917, -0.29086, -0.39099, -0.63585, -0.22223, 0.018627, 0.0025456, -0.33906, -0.26605, 0.19543, -0.29778, -0.012323, 0.17363, -0.22972, -0.085916, 0.18943, 0.33464, -0.084066, 0.23118, -0.68562, -0.25104, -0.11797, -0.13133, 0.095963, -0.46556, -0.014772, 0.28981, 0.024492, -0.38761, -0.38503, -0.24231, -0.1341, -0.0062635, -0.54334, 0.20569, -0.048089, 0.090341, -0.40279, -0.35738, -0.25278, -0.46492, -0.12638, -0.37608, -0.21307, -0.05631, -0.14748, 0.18582, 0.31466, 0.3447, -0.066242, -0.17237, 0.64241, 0.18683, 0.043325, -0.20683, 0.28884, -0.34472, 0.15785, -0.29602, 0.31023, 0.18348, 0.04286, 0.53323, 0.041462, 0.010731, 0.09064, 0.20688, -0.068853, -0.10501, 0.16345, 0.34551, 0.2312, 0.0078296, -0.28866, -0.41616, 0.026915, 0.067158, -0.069894, 0.3301, 0.10437, -0.39275, 0.58937, -0.20206, 0.14466, -0.17324, 0.21497, -0.29195, 0.11761, 0.28533, -0.23449, 0.034229, 0.1489, -0.20495, -0.083311, -0.34698, -0.23081, -0.31888, -0.063825, 0.30983, -0.073856, 0.12101, 0.97615, -0.15045, 0.2254, 0.064735, -0.16196, 0.074577, -0.20041, -0.56662, -0.0050455, 0.027702, 0.59565, -0.059248, -0.033275, 0.50361, -0.11932, 0.62982, -0.60161, -0.42472, -0.74505, 0.49389, 0.51227, 0.069212, 0.33845, 0.39061, 0.23125, 0.18229, -0.1328, -0.4181, 0.49335, -0.23481, -0.23605, -0.20297, -0.45969, -0.13751, 0.3238, 0.23053, -0.02752, -0.084551, -0.36049, 0.35618, 0.26516, 0.29742, -0.22503, -0.49972, 0.048358, -0.15817, -0.12131, -0.25325, 0.46419, 0.3052, 0.32557, 0.27783, -0.53611, 0.32821, 0.18017, -0.21486, -0.049273, -0.32227, -0.46698, -0.1873, 0.27603, 0.37819, -0.35522, 0.45489, -0.050819, 0.0036088, 0.13884, -0.32753, 0.25337, 0.011712, -0.29273, -0.026533, -0.15171, 0.39531, 0.18591, -0.12281, 0.43436, 0.45827, -0.17551, -0.041192, 0.46985, -0.25386, -0.046487, -0.087916, 0.065194, 0.40925, 0.11669, -0.35969, 0.012873, 0.55616, 0.3406, 0.28148, -0.088675, 0.12716, -0.29397, 0.10823, -0.57609, 0.51657, 0.23654, 0.12664, 0.18309, 0.45152, -0.20311, -0.13608, -0.072994, 0.22595, 0.21677, 0.22202, 0.27424, 0.22731, 0.11863, 0.15003, 0.60862, 0.40221, 0.08448, -0.012208, 0.24642, -0.051532, 0.063847, 0.40957, 0.037658, -0.33296, -0.07895, 0.074391, -0.01041, -0.2657, 0.24259, 0.28332, 0.19461, 0.23431, -0.37113, -0.039191, -0.049121, -0.15973, 0.24507, 0.27785, 0.16063, 0.85375, 0.099288, -0.31995, 0.020924, -0.060103, -0.23506, 0.014519, -0.10497, -0.17546, 0.012736, 0.26714, 0.17289, -0.066275, 0.45982, 0.1517, 0.092526, -0.50778, 0.27718, -0.16084, 0.22309, 0.1035, 0.10908, -0.2077, -0.55622, 0.26584, -0.20967, -0.11921, -0.061274, -0.23054, -0.095977, 0.19303, 0.1809, -0.046843, 0.27214, -0.037527, 0.22116, -0.11476, 0.028648, -0.31191, -0.020393, -0.00060455, 0.14035, -0.00051208, -0.01224, -1.0215, -0.27137, -0.16216, -0.32022, 0.19634, -0.3301, -0.40499, -0.072877, 0.57977, -0.22315, -0.39715, -0.50944, 0.098892, 0.41163, -0.28517, -0.24655, -0.49321, 0.030806, 0.60278, 0.18424, -0.2843, -0.052257, 0.053466, 0.005611, -0.048535, 0.56422, 0.050298, -0.46633, 0.23242, -0.25723, 0.059892, 0.20524, -0.34494, -0.20728, -0.014815, -0.42746, 0.013239, -0.41546, -0.11762, 0.20319, 0.62116, 0.21541, 0.13076, -0.11951, 0.16095, 0.2294, -0.049723, -0.026426, -0.21536, 0.58249, -0.041447, -0.077436, 0.36165, -0.0084232, 0.18443, -0.12672, -0.13524, -0.069765, -0.32145, 0.0014574, 0.297, -0.085607, 0.4699, 0.088695, -0.2854, 0.097433, 0.48662, -0.4967, -0.39848, 0.37555, -0.22771, 0.074445, 0.78885, -0.040432, 0.35846, -0.080733, 0.4003, -0.17933, 0.033545, 0.35594, -0.012209, 0.36149, -0.072115, -0.012076, -0.13457, 0.20754, -0.38692, -0.60663, -0.65767, 0.10381, 0.032315, -0.3487, -0.44016, 0.040302, -0.53452, 0.069501, -0.1039, 0.094569, 0.16904, 0.57859, 0.014932, -0.098987, -0.10791, -0.35854, 0.15922, 0.13425, 0.03543, 0.22753, -0.077546, -0.096086, -0.069235, -0.39608, -0.34237, -0.037698, 0.08392, -0.023453, 0.30326, 0.25806, -0.19309, 0.23351, 0.0811, 0.34525, 0.1846, 0.1573, -0.01285, 0.0076312, 0.31303, -0.076993, 0.21652, -0.34467, -0.17646, 0.31992, 0.2328, -0.21709, 0.34448, -0.10405, 0.2591, 0.41023, -0.058334, 0.32437, 0.17493, 0.087448, 0.19699, 0.012699, 0.01314, -0.56822, -0.47299, -0.11775, 0.45, -0.48072, -0.23965, -0.16861, -0.057796, -0.023058, -0.66387, 0.17518, 0.0089068, 0.1285, -0.55903, 0.2627, -0.70672, 0.26732, -0.08862, -0.26494, 0.30817, -0.52156, 0.99181, 0.060085, -0.084422, 0.12078, -0.080818, -0.2739, 0.45559, 0.1589, -0.16167, -0.042786, 0.34418, -0.12821, -0.16769, -0.52731, 0.1953, -0.57866, -0.14398, 0.59279, 0.19688, -0.29199, -0.057429, 0.013791, 0.085691, -0.20638, -0.18786, -0.049142, -0.52313, 0.15751, 0.26023, 0.06884, -0.05382, -0.13898, -0.1807, -0.068449, 0.3292, -0.10774, -0.25143, -0.6788, 0.14033, -0.36769, -0.70481, 0.44737, 1.0435, 0.30896, 0.11131, -0.20273, 0.026838, 0.051086, 0.16336, 0.10228, 0.41787, -0.26737, -0.3728, -0.38941, -0.26747, 0.50715, 0.176, 0.15104, 0.46787, 0.34362, 0.51495, -0.19308, -0.19713, -0.15877, -0.27915, 0.19865, 0.13979, 0.083078, 0.0099667, -0.30624, 0.06366, 0.044749, -0.17763, -0.13678, 0.31317, -0.12403, 0.23173, -0.25846, 0.080499, 0.080215, 0.61439, 0.23377, -0.31209, -0.092835, 0.039742, -0.18212, 0.45072, -0.12085, -0.17094, 0.058103, 0.17132, 0.27295, 0.011211, -0.17514, -0.055766, -0.44764, -0.37489, -0.093402, 0.56312, -0.021651, -0.19296, 0.35162, 0.11508, 0.2435, 0.011722, 0.11189, 0.21194, -0.25616, -0.60311, -0.15916, -0.014976, -0.10323, 0.018364, 0.21765, 0.60956, -0.044158, -0.065341, 0.23012, 0.18676, -0.35118, 0.31125, 0.13936, -0.052474, -0.15484, -0.07538, 0.055412, -0.26881, 0.18209, 0.14307, 0.058418, 0.3447, 0.10013, 0.033663, 0.26573, -0.17974, -0.30713, -0.60228, 0.12786, -0.32205, -0.019432, -0.056129, 0.33784, 0.021964, -0.7078, -0.026919, 0.37703, -0.091693, 0.16423, 0.30128, 0.29732, -0.38604, 0.4005, -0.3676, -0.21696, -0.059817, 0.074791, -0.36253, 0.22943, 0.18678, -0.24977, 0.07538, -0.25311, 0.12806, -0.42469, -0.21018, -0.36042, 0.048451, 0.31381, -0.064457, 0.20687, 0.31747, -0.39487, 0.15238, -0.38889, -0.14641, -0.0944, 0.010371, -0.12182, 0.095846, -0.16642, -0.31169, 0.29793, -0.034454, -0.31523, -0.1049, 0.31003, 0.25228, -0.059413, -0.10199, 0.082866, 0.57754, 0.20536, -0.3146, 0.045557, -0.33006, -0.26665, -0.51929, -0.21308, 0.15957, 0.11343, -0.23065, 0.10797, -0.0039436, 0.14967, 0.28643, -0.22056, 0.10656, 0.0036424, -0.12624, 0.35315, -0.00017952, 0.3948, -0.26549, -0.64903, -0.20281, -0.21359, 0.41685, 0.1484, 0.46429, 0.030429, 0.31321, 0.20816, 0.19811, 0.070509, 0.073603, 0.41977, -0.093065, -0.79489, -0.37833, 0.35648, -0.30992, 0.14735, -0.23217, 0.042631, 0.22404, 0.16186, 0.23619, -0.15279, 0.15856, -0.18438, -0.041035, -0.43264, 0.11381, 0.20032, -0.027173, 0.19622, 0.25187, 0.067395, 0.027712, -0.048937, -0.20068, 0.24212, -0.27953, -0.11949, -0.42421, -0.19481, 0.21016, 0.0172, 0.54085, 0.28016, -0.28884, -0.28213, -0.15386, -0.033764, 0.17174, -0.26542, -0.0090685, -0.028479, 0.37072, -0.094626, -0.083653, -0.60693, 0.30608, -0.032554, 0.07531, -0.11493, 0.2213, -0.088329, -0.010898, 0.091236, 0.20152, -0.25582, -0.24114, 0.34091, -0.12369, -0.3173, -0.29108, 0.205, -0.023836, -0.037127, 0.33403, 0.17191, 0.0911, -0.71755, 0.077295, -0.18612, 0.21059, -0.20468, 0.19779, 0.27679, -0.30858, -0.34532, 0.73414, 0.020729, -0.027038, -0.10362, 0.21991, 0.25661, 0.078928, -0.62076, -0.070094, 0.20946, 0.5038, 0.70994, 0.39144, 0.26077, 0.053429, 0.49213, -0.50266, 0.39278, -0.37559, 0.63269, 0.11458, 0.089591, 0.17747, -0.080972, 0.19882, 0.24249, -0.24787, 0.07669, -0.071599, -0.14861, 0.23661, 0.0023504, -0.090532, 0.20798, 0.20741, 0.6204, -0.26948, -0.14294, 0.14911, 0.16325, 0.17667, 0.51369, -0.14671, 0.012638, 0.3699, -0.2052, 0.17885, -0.005609, -0.34379, -0.50853, -0.22323, -0.11255, -0.17549, 0.50205, 0.26514, -0.11788, 0.12092, -0.31806, 0.19482, 0.24202, 0.0072445, -0.68881, -0.018706, -0.0084521, -0.35233, 0.10322, -0.31283, 0.022662, 0.0065153, -0.29268, -0.21799, -0.1311, -0.081725, -0.058665, 0.063428, 0.12212, -0.016605, 0.53399, 0.22059, -0.56946, 0.44897, 0.099851, 0.30935, 0.30497, 0.038901, -0.19267, -0.17141, 0.042959, 0.39548, -0.53353, 0.30801, -0.13319, 0.52282, 0.027595, 0.49276, 0.083098, 0.063152, -0.81339, 0.1367, 0.45341, 0.043419, 0.47084, -0.15367, -0.027459, 0.06879, 0.13159, -0.27973, -0.17438, -0.067719, 0.3521, 0.54496, 0.045256, -0.014984, -0.1144, -0.05608, 0.077064, -0.34902, 0.098152, 0.53233, -0.019013, -0.1282, -0.027008, -0.071567, -0.2514, -0.109, 0.086287, 0.02342, 0.060633, 0.51394, 0.22713, -0.18182, -0.40413, -0.43053, 0.15924, 0.12266, -0.07144, 0.24345, -0.17183, -0.015846, -0.0038045, -0.077443, -0.4293, -0.12542, -0.032691, 0.085911, 0.062324, 0.045279, -0.013874, -0.29536, -0.20828, -0.005648, -0.42696, 0.1446, -0.18675, -0.19259, -0.022912, -0.087463, -0.39868, -0.34837, 0.48473, 0.11423, 0.13556, 0.11703, 0.62511, -0.31646, -0.14202, 0.36648, -0.085795, -0.31401, -0.25488, 0.13706, -0.044225, 0.34006, 0.12014, 0.064649, -0.18443, -0.12038, 0.45097, -0.40181, 0.04172, -0.062666, -0.22959, 0.015154, -0.35295, 0.063666, 0.18269, -0.40706, -0.0030093, 0.021632, -0.43256, 0.2943, -0.45515, -0.18987, -0.36061, 0.092331, -0.21328, 0.23985, -0.22316, -0.090456, -0.109, -0.1991, -0.18101, -0.047398, 0.0997, 0.15932, 0.1067, 0.20842, 0.21553, -0.53559, -0.21478, 0.15012, 0.037146, 0.3588, -0.57293, 0.063366, 0.17582, -0.16489, -0.014988, -0.26437, 0.3235, 0.10834, 0.35988, 0.016314, -0.21586, -0.017489, -0.029211, -0.1001, -0.16272, -0.49295, -0.42271, -0.11444, 0.52815, 0.16113, 0.012951, 0.12827, 0.18376, -0.18853, -0.18053, 0.29423, -0.38113, 0.075212, -0.33797, -0.31945, -0.71031, -0.34205, -0.082157, -0.044592, -0.017975, 0.072465, 0.42172, -0.34955, -0.027859, 0.12037, -0.11489, -0.2248, -0.58124, -0.14907, -0.26922, 0.36297, 0.35036, 0.46183, -0.40412, 0.10356, -0.06464, 0.24503, 0.1424, 0.0058674, -0.064437, -0.072278, 0.040433, 0.14331, 0.31112, 0.19272, -0.2848, -0.36834, 0.16008, -0.017178, -0.032247, 0.32595, -0.46654, 0.28141, -0.029491, -0.064055, -0.077722, 0.34379, -0.18509, 0.31613, -0.063279, -0.62484, -0.61492, 0.10729, 0.69328, -0.18065, -0.30181, -0.038881, -0.071291, 0.13184, 0.12445, 0.15789, 0.22375, 0.22533, -0.27877, -0.14846, 0.25743, -0.096006, 0.0080863, -0.23714, 0.21785, 0.012303, -0.048509, -0.028339, 0.17118, 0.0059033, 0.10113, -0.31952, 0.26748, -0.39092, -0.11602, -0.19733, -0.16642, -0.028982, -0.021134, -0.15127, 0.15233, -0.50856, 0.20337, 0.11548, 0.0040843, -0.35958, 0.40752, -0.037341, -0.0015785, -0.03155, -0.14478, -0.027539, 0.17932, -0.035986, 0.094642, -0.0094095, 0.13914, -0.24101, -0.1204, -0.27148, 0.2213, -0.28791, -0.23579, -0.097474, 0.136, 0.095214, -0.03323, -0.20406, 0.32798, 0.02966, 0.070302, -0.23775, 0.1409, -0.27094, -0.38172, -0.49612, -0.12685, 0.0494, -0.19789, 0.20163, -0.14474, 0.36405, -0.10086, 0.042585, -0.075914, 0.080176, -0.02256, 0.52146, 0.078038, -0.15166, -0.30324, -0.26007, 0.20215, -0.209, -0.12698, 0.63298, -0.026511, 0.094296, 0.036951, 0.21009, -0.21306, 0.028771, -0.018538, -0.021305, 0.19921, 0.17945, -0.080607, -0.1565, -0.35444, -0.14099, 0.042305, 0.66052, -0.29482, 0.011991, 0.14322, -0.1745, -0.14778, 0.013788, -0.6736, -0.0015808, 0.34205, -0.1178, 0.081345, -0.17489, 0.19395, -0.016897, 0.027064, 0.036377, 0.32703, -0.14635, -0.080552, 0.03986, 0.29766, -0.069382, 0.099, -0.11699, 0.09117, -0.06921, 0.31852, 0.16169, 0.075883, 0.26033, -0.39987, 0.11995, 0.039715, 0.35081, 0.095969, 0.038254, -0.15465, -0.09727, -0.18585, -0.44247, 0.13276, 0.40701, 0.42869, -0.23645, 0.2778, -0.031074, -0.11059, -0.32178, 0.18026, 0.051967, 0.053335, -0.30692, 0.057348, -0.26804, -0.12899, -0.11695, -0.47961, -0.021517, -0.49644, 0.19176, 0.25008, -0.3751, 0.34013, -0.44538, 0.13828, -0.15282, -0.12404, -0.11606, 0.019986, -0.12131, -0.072013, -0.2735, -0.019179, -0.1262, 0.0018273, 0.32587, 0.006684, -0.10818, -0.09155, 0.25217, 0.21878, 0.12868, 0.32291, -0.44271, 0.27917, -0.31833, -0.23935, 0.19434, 0.30481, -0.10945, 0.26983, 0.049141, -0.0029743, -0.4441, -0.30941, -0.2408, 0.29144, 0.069002, -0.29698, -0.32077, -0.24379, -0.19009, 0.0038208, -0.22171, 0.4158, 0.44223, 0.36226, -0.22427, 0.2665, -0.13297, -0.15227, -0.035232, 0.015072, -0.18692, 0.077433, -0.44006, 0.33965, 0.041347, 0.14185, 0.36958, -0.40947, -0.174, -0.068914, 0.3129, 0.053357, 0.015432, -0.29495, 0.059212, -0.14587, -0.29788, -0.044671, -0.13239, 0.082974, 0.11285, -0.44781, 0.17997, 0.29778, -0.30639, -0.50737, 0.35477, -0.20504, -0.068386, 0.49022, -0.15881, 0.058511, 0.12072, 0.26503, -0.028496, -0.046758, 0.01345, 0.1639, -0.1273, 0.22456, 0.028519, 0.050583, 0.069248, 0.37557, -0.038161, 0.25799, 0.20707, -0.13472, 0.12123, 0.11937, -0.024539, 0.26079, 0.035784, 0.016035, -0.29153, -0.091081, -0.065128, 0.22668, -0.0086849, -0.095805, 0.1043, -0.12116, 0.37266, -0.12731, -0.073295, 0.13572, -0.106, -0.033342, -0.27309, 0.087699, -0.17018, -0.30056, -0.30509, 0.088759, 0.20266, 0.66369, 0.26958, 0.20524, -0.22963, 0.11791, -0.11531, 0.44182, 0.41781, 0.27902, 0.16866, -0.12261, -0.42894, -0.14706, 0.65615, 0.18508, 0.15815, -0.40511, 0.0057592, -0.26732, -0.35718, 0.11648, 0.21702, 0.42328, 0.20677, 0.12162, 0.12895, -0.019419, 0.021191, -0.19927, -0.058294, -0.13167, 0.18497, 0.071913, -0.073365, 0.0013786, 0.26051, -0.18495, 0.23641, 0.35086, -0.10089, 0.051986, 0.098622, 0.038778, 0.04981, -0.20474, 0.044529, -0.18364, -0.14099, -0.11587, -0.16715, -0.4549, 0.093449, 0.019245, -0.2011, -0.22705, 0.0061636, 0.1643, -0.29252, -0.43657, -0.1816, 0.035367, 0.053769, -0.26624, -0.29157, -0.1081, 0.048651, -0.25302, -0.047518, 0.24734, 0.088954, -0.11407, -0.040999, -0.1922, -0.067983, 0.13208, 0.21314, 0.21008, -0.16372, -0.25786, -0.061097, -1.0584, 0.21782, -0.58274, -0.36785, -0.070639, -0.2469, -0.25367, 0.30246, -0.010648, 0.062013, -0.072676, 0.10366, -0.11147, 0.027735, -0.19081, -0.18435, 0.14084, -0.18874, -0.094995, -0.063674, 0.016517, 0.044759, 0.23522, -0.16328, -0.20199, -0.069413, 0.052735, -0.34511, 0.098007, -0.12505, -0.11267, -0.027881, -0.10863, -0.19279, 0.020523, 0.25242, -0.34986, -0.42273, 0.37303, -0.10373, 0.08046, -0.31189, -0.091924, 0.11909, 0.1616, 0.44306, 0.087532, -0.27929, -0.53006, 0.13897, -0.03789, 0.077507, 0.048364, 0.16523, -0.26678, 0.059632, -0.13245, 0.065082, 0.087009, -0.057549, -0.38811, -0.21067, 0.29353, -0.00941, -0.11236, 0.2454, 0.0014494, -0.25398, 0.027964, -0.042747, -0.16182, 0.29684, -0.4907, 0.53557, -0.065949, -0.23775, -0.10273, 0.040513, -0.043364, 0.14237, 0.063438, 0.16316, 0.058957, 0.29978, 0.07819, -0.090782, 0.041453, -0.28977, 0.18948, 0.12685, -0.036732, -0.27694, 0.27622, 0.05448, -0.02445, -0.25422, 0.13765, -0.16912, 0.14187, -0.013714, -0.47155, -0.1589, 0.39318, 0.22408, 0.11046, -0.19218, -0.59719, 0.50654, -0.35614, -0.30766, 0.23265, 0.30597, 0.056787, 0.24406, 0.2407, -0.25005, 0.019497, 0.31633, 0.052123, 0.15298, -0.040316, 0.18289, -0.068257, 0.044973, -0.17828, 0.57445, -0.056351, 0.14062, -0.076449, 0.2195, -0.38149, 0.028726, -0.023753, -0.1813, -0.26698, -0.14159, -0.33318, 0.67284, 0.11097, -0.33386, -0.026172, 0.51262, -0.14521, -0.016554, 0.0042642, -0.29452, -0.28786, 0.36412, 0.12227, 0.21073, -0.2519, -0.46319, -0.22536, -0.38484, -0.16857, 0.35622, 0.43704, -0.094655, -0.15278, -0.050028, -0.16956, -0.18386, -0.22226, -0.39867, 0.10333, 0.095217, -0.31263, -0.081269, 0.037932, 0.23397, -0.11058, 0.0086859, 0.1589, -0.0094225, 0.040534, 0.085674, -0.34383, 0.19134, 0.17513, 0.13423, -0.069648, -0.25333, -0.50204, -0.10902, -0.26564, -0.48429, -0.59453, -0.21394, 0.10221, -0.21287, 0.045431, 0.12119, 0.28533, 0.10475, -0.050361, -0.13719, 0.085069, 0.21134, 0.18866, -0.014725, -0.23747, -0.097797, 0.07794, -0.025811, -0.4666, 0.46772, 0.010292, -0.39282, -0.015968, -0.08248, -0.046434, 0.36854, -0.11385, 0.27275, 0.54065, -0.023457, 0.050079, 0.042436, -0.23491, 0.60138, 0.29394, 0.25035, 0.13483, -0.29393, 0.093129, -0.0081207, -0.57517, 0.19805, 0.28602, -0.20811, -0.090853, -0.66575, 0.028954, -0.18211, -0.25973, -0.33035, -0.1956, 0.35853, -0.077716, 0.10094, 0.34668, 0.066035, 0.20351, -0.18889, -0.042948, -0.42171, 0.057094, -0.45996, 0.23827, 0.19868, 0.12119, -0.50468, -0.19586, -0.026709, 0.09947, -0.078222, 0.013979, -0.27361, 0.56236, -0.30001, 0.061833, -0.11983, -0.013036, -0.57158, -0.19224, -0.00017701, 0.16614, -0.30755, -0.19169, -0.12311, -0.20668, 0.29704, -0.10583, -0.093831, 0.20967, -0.13589, 0.1271, -0.31452, 0.082079, -0.18979, 0.054297, 0.42145, -0.21358, 0.056602, -0.0051446, -0.55641, -0.057346, 0.13876, -0.37641, -0.182, -0.048191, 0.021885, 0.078409, 0.7603, 0.11943, 0.13531, 0.066831, -0.14663, -0.088954, 0.22572, 0.10632, 0.21338, -0.052044, 0.3527, -0.20656, 0.12535, -0.22385, 0.13947, -0.12018, 0.45975, 0.16022, 0.23538, 0.078427, -0.31525, 0.54014, -0.38089, -0.20405, -0.024131, -0.40658, 0.11752, 0.41178, 0.036773, -0.77946, 0.016672, 0.011819, -0.19702, -0.34761, -0.27538, 0.020575, -0.33458, 0.41238, 0.19147, 0.36106, 0.35664, 0.27543, 0.12099, 0.03223, -0.088252, 0.071771, -0.097767, 0.10811, 0.12487, 0.036822, 0.36055, 0.43772, -0.33698, -0.10718, 0.55858, 0.62625, 0.13694, -0.03779, -0.27344, -0.21232, -0.059391, -0.10268, 0.074814, 0.1376, -0.29942, 0.069354, -0.033466, 0.25994, -0.11534, -0.058656, -0.098874, -0.22357, -0.024581, 0.09089, 0.26796, 0.082222, 0.061275, -0.1365, -0.16121, 0.19254, -0.073786, 0.12409, 0.061255, -0.060402, 0.4218, 0.026082, -0.41285, 0.38066, 0.29988, -0.033614, 0.015897, -0.077514, 0.27949, -0.79618, -0.23238, -0.012729, 0.18349, -0.23064, -0.010364, -0.1153, 0.58335, -0.16524, 0.44901, -0.0517, 0.15761, 0.086388, -0.1356, -0.00095226, -0.14946, -0.49639, 0.069855, -0.00176, -0.14623, 0.1605, -0.099469, -0.044648, -0.36945, 0.042215, 0.17239, -0.18905, -0.05732, -0.11661, -0.098273, -0.097406, -0.31909, -0.11426, 0.18373, -0.13934, -0.31452, -0.095946, 0.25717, -0.1526, 0.02061, -0.21718, -0.012771, 0.17217, -0.30149, -0.15233, -0.27137, -0.28115, 0.068799, 0.12928, 0.49169, -0.043456, 0.73139, -0.23157, -0.047085, 0.23723, 0.23423, -0.12449, -0.34678, -0.13201, -0.017904, 0.0043165, -0.12779, 0.22251, -0.14608, 0.11044, -0.45309, 0.052549, 0.13367, 0.22223, 0.32425, -0.27149, -0.21531, -0.22729, -0.16769, -0.29524, 0.064544, 0.074452, -0.064656, -0.099501, 0.26795, 0.44424, -0.11418, 0.31089, -0.35067, 0.126, 0.34717, 0.086325, -0.15615, 0.26168, 0.60171, 0.53147, -0.52704, 0.037299, -0.042733, -0.15735, 0.14016, -0.070504, 0.057756, -0.17335, 0.14971, -0.32325, 0.28191, 0.34031, 0.11956, -0.16282, -0.18227, 0.47697, -0.17235, -0.2172, 0.14412, -0.011265, -0.23833, 0.48871, 0.037373, -0.33882, -0.0098849, -0.17582, -0.036223, -0.10903, -0.19815, 0.0063383, 0.12964, -0.21371, 0.021879, 0.21238, -0.17909, 0.25486, 0.047647, 0.0069613, 0.093447, 0.13627, 0.30703, -0.20942, 0.10304, 0.19868, 0.11696, -0.1425, 0.089154, 0.19978, -0.35301, -0.0048392, 0.099865, 0.41222, 0.17711, 0.012036, -0.051271, -0.011741, -0.1155, 0.070747, -0.17901, 0.024261, -0.33793, 0.447, 0.047069, -0.1549, -0.036974, 0.24269, 0.20253, -0.29063, -0.33663, 0.03665, 0.175, 0.15678, -0.065248, -0.016146, 0.29885, 0.20569, -0.19075, -0.0031905, -0.32596, 0.4227, 0.22598, 0.26902, -0.092431, -0.24242, 0.03245, 0.40654, 0.0024379, 0.047041, -0.24581, -0.20501, -0.054079, 0.14544, 0.014058, 0.098123, 0.071337, 0.40604, -0.14929, -0.11944, 0.12423, 0.016042, 0.089027, 0.29116, 0.073751, -0.073722, -0.059653, 0.015156, -0.3038, 0.11378, 0.21188, -0.13175, -0.46539, 0.36843, 0.2189, -0.22615, 0.08235, 0.11393, -0.14409, 0.21081, 0.35752, 0.012747, -0.21465, -0.27929, -0.01677, 0.2824, -0.21902, 0.016476, -0.067769, -0.24643, 0.12322, 0.015925, -0.064419, -0.31886, -0.2371, 0.0542, 0.023547, 0.21678, -0.088203, -0.22275, 0.27667, -0.16394, 0.01386, 0.24329, 0.21049, 0.10016, 0.4843, -0.18914, -0.02604, 0.23434, -0.13575, 0.24981, 0.1492, 0.21526, -0.048156, 0.10222, -0.47253, -0.13757, 0.42353, -0.060101, 0.010278, 0.28426, -0.13067, 0.033392, -0.26975, 0.060008, 0.31721, 0.48275, 0.10451, -0.14489, -0.013891, 0.37861, 0.37019, -0.16947, 0.16172, -0.15817, -0.28654, 0.282, -0.080892, -0.16845, -0.1025, 0.039233, 0.82749, -0.020164, 0.19659, 0.14562, 0.14605, 0.26485, 0.15972, -0.0013487, -0.65299, -0.047677, -0.16347, -0.028785, -0.17968, 0.36962, 0.032481, 0.23037, -0.036427, -0.13947, -0.042932, 0.15853, 0.15998, -0.16622, -0.062395, 0.11512, -0.2885, 0.11643, -0.025866, 0.18617, 0.28423, 0.11123, 0.23317, -0.21186, 0.090295, 0.023868, -0.23092, 0.012522, 0.067905, -0.16619, 0.074122, 0.3044, -0.1614, -0.28397, 0.040132, 0.29279, -0.14186, -0.13271, -0.2572, -0.12146, -0.16358, 0.29642, -0.38274, -0.066768, 0.12434, -0.0471, 0.32602, -0.07489, 0.27754, -0.069557, 0.010733, 0.10301, -0.54567, 0.30046, 0.11774, 0.14866, 0.080899, 0.11337, -0.077814, 0.10205, 0.11994, 0.1028, -0.0076918, -0.21188, 0.38726, 0.074836, 0.065082, -0.52462, -0.010433, 0.21604, 0.11717, 0.090052, -0.22184, -0.63025, 0.57179, -0.061321, -0.28838, -0.23863, 0.02817, 0.16229, -0.32475, 0.28842, -0.1881, 0.123, -0.26593, -0.018531, -0.07611, -0.011444, 0.082333, -0.02871, 0.46838, -0.15548, -0.26861, -0.020791, -0.047758, 0.099019, 0.10199, 0.14714, -0.33631, -0.16692, -0.0072993, 0.32986, 0.47292, 0.46624, -0.38566, 0.21587, -0.077053, -0.016444, -0.3763, 0.050233, 0.029849, 0.26079, 0.56783, -0.32909, -0.14894, -0.40801, -0.052561, 0.19389, -0.11398, -0.022002, -0.018937, 0.25214, -0.35207, 0.0013411, 0.035881, -0.096038, 0.20513, -0.091566, 0.018187, 0.11277, -0.065598, -0.052901, 0.073031, 0.26377, 0.0068177, -0.038518, -0.026438, -0.04566, -0.087399, 0.079904, -0.068539, -0.16714, 0.079551, -0.041475, 0.056135, -0.074391, 0.054952, -0.11887, 0.038245, -0.092698, -0.45703, -0.25759, 0.15111, 0.20348, -0.16547, -0.24306, 0.27641, 0.14814, 0.054668, 0.10344, 0.42348, -0.28432, -0.25992, -0.41394, -0.051031, -0.096284, -0.16922, -0.017207, 0.13454, 0.098114, 0.10829, 0.055332, -0.58292, -0.38034, -0.067972, 0.40324, -0.51729, 0.29284, 0.27361, 0.17066, 0.11551, -0.3379, -0.15329, -0.093497, 0.12546, -0.027987, 0.085794, -0.2159, 0.39963, 0.41185, -0.14951, 0.12785, 0.23834, -0.33126, -0.11501, 0.26056, 0.18441, -0.091798, -0.18109, -0.0017401, 0.31836, 0.37566, 0.066956, 0.20914, -0.36537, -0.1579, -0.14149, -0.48466, 0.089369, 0.036678, 0.29456, 0.67224, 0.23199, -0.13254, 0.18202, 0.066442, 0.67271, 0.30066, -0.3193, 0.33569, 0.21094, -0.24595, 0.4709, -0.26515, -0.017446, 0.45093, -0.10565, 0.17855, 0.44964, 0.079747, -0.0073982, 0.23597, 0.78047, 0.36327, 0.082394, 0.10102, 0.24271, -0.43498, 0.033034, -0.11787, 0.14629, -0.0045339, 0.0035019, -0.11528, -0.033828, 0.13787, -0.1107, 0.28314, -0.22168, -0.088768, 0.19669, -0.15081, 0.25576, 0.09228, 0.042778, -0.014809, -0.5671, -0.091986, -0.074924, -0.032949, 0.016726, 0.03151, -0.26148, -0.076235, -0.25948, -0.29438, 0.072966, -0.0070428, 0.063803, -0.20777, 0.14536, 0.037613, 0.11667, -0.34217, 0.09537, 0.24101, -0.37237, 0.0040504, 0.095477, 0.294, -0.13181, 0.19491, -0.3244, -0.091264, 0.26704, -0.1335, -0.4522, 0.083429, 0.099343, -0.29037, 0.24798, -0.40764, -0.23476, -0.33175, -0.053049, 0.020501, 0.066183, -0.31819, 0.28706, -0.031379, 0.13984, -0.011043, -0.037945, -0.38481, -0.087682, 0.088031, 0.5089, -0.19994, 0.54258, -0.31318, -0.10447, 0.16061, 0.31962, 0.5321, -0.088515, -0.030886, -0.10724, -0.009285, 0.11939, -0.22526, -0.033622, -0.065425, 0.20943, 0.16903, -0.26794, 0.32539, -0.25314, 0.17833, 0.1765, 0.085718, -0.077664, -0.051838, -0.11443, 0.18443, 0.085522, 0.24461, -0.15729, -0.037367, 0.42293, -0.17496, 0.12796, 0.08744, 0.19132, -0.10781, -0.13269, 0.19053, -0.24787, -0.36632, 0.075288, 0.0065639, 0.37995, 0.095192, -0.1572, 0.5212, 0.28071, -0.050998, 0.27941, -0.14897, -0.050297, 0.010834, 0.25794, 0.31392, 0.044663, -0.42978, -0.20231, 0.33229, -0.25254, 0.21305, -0.050605, 0.17454, -0.079769, 0.01148, 0.087364, 0.16164, -0.088005, 0.11844, 0.055601, 0.0079004, 0.090147, -0.15809, 0.0067824, 0.18603, -0.066957, 0.13007, 0.22659, 0.056296, -0.35079, 0.16023, -0.57017, -0.17279, -0.214, 0.12694, 0.18838, -0.11042, -0.34147, -0.018234, 0.14841, 0.18936, -0.14268, 0.0091499, -0.047914, 0.042604, 0.037818, 0.24865, 0.18414, -0.012583, 0.13797, 0.40481, -0.097794, -0.069728, -0.22982, 0.11247, 0.1892, -0.058317, -0.28846, -0.13038, 0.075127, -0.1101, -0.17732, -0.022752, -0.38075, -0.2058, -0.10586, -0.082882, 0.22418, 0.18665, 0.18958, -0.025926, -0.37463, -0.21205, 0.26455, 0.10582, 0.22446, 0.10033, 0.18437, 0.26998, 0.19999, -0.21905, -0.078872, 0.052255, -0.45097, -0.027643, -0.15182, -0.015533, 0.1669, 0.010656, -0.25853, -0.091204, -0.60948, -0.23668, -0.16119, -0.5403, 0.23092, -0.0033033, -0.048609, 0.060203, -0.19857, 0.067979, -0.011965, -0.18567, 0.095537, -0.17475, 0.069488, -0.23174, -0.057022, -0.41517, 0.36386, 0.21545, -0.73308, -0.016436, -0.48846, -0.25604, 0.12542, -0.039682, 0.0041727, 0.49862, -0.10062, -0.22695, 0.2736, -0.28639, -0.063945, -0.12139, 0.085509, 0.53619, 0.11477, 0.06596, -0.39312, -0.43831, 0.43456, -0.022313, 0.10615, 0.13862, -0.6158, -0.12773, 0.11217, 0.10184, -0.072003, 0.016837, -0.36058, 0.040654, -0.094272, 0.017518, -0.18794, -0.38301, 0.077564, -0.014898, 0.34753, -0.14744, -0.10594, 0.15241, 0.0088612, 0.17758, 0.11583, 0.032299, 0.30493, 0.040283, 0.40132, 0.15205, -0.011765, 0.022686, -0.43639, -0.19124, 0.16465, -0.24938, 0.06109, 0.094615, -0.014581, 0.10395, -0.38579, 0.25291, -0.16197, -0.52285, 0.018989, 0.053152, 0.02143, 0.10958, -0.50773, 0.12779, -0.20219, -0.085435, 0.107, -0.21179, -0.37631, 0.53747, 0.060488, 0.18172, 0.053599, -0.59734, 0.18184, 0.34047, -0.20713, -0.17166, 0.2396, -0.091547, -0.24208, -0.45043, -0.22145, -0.37407, -0.0072068, 0.040061, -0.16907, 0.010813, -0.46739, 0.024917, -0.14237, 0.17121, 0.39351, 0.035743, -0.32543, 0.1306, -0.13428, 0.078109, 0.22978, 0.18639, -0.11758, 0.023323, 0.30709, -0.12076, -0.24575, 0.032294, -0.31714, 0.080139, 0.31097, 0.29753, 0.037715, -0.23898, 0.066796, 0.19833, -0.069096, 0.12982, 0.10071, 0.0072537, 0.026178, -0.023567, 0.20077, 0.23647, 0.10648, 0.047373, -0.057961, -0.15385, 0.075872, -0.19645, -0.065917, 0.047671, -0.048163, 0.29637, -0.072917, -0.14203, -0.2921, -0.059944, 0.025069, 0.13669, -0.18808, -0.16633, 0.085423, -0.10046, 0.098998, -0.21798, 0.12165, 0.08559, -0.27359, 0.22146, -0.39284, -0.067272, -0.16973, 0.16599, 0.45969, 0.26789, -0.17932, 0.19301, 0.23089, -0.1983, 0.068474, 0.1093, -0.14016, 0.0054084, -0.30462, 0.25451, -0.30625, 0.12101, 0.11226, 0.29517, -0.076239, -0.042296, -0.10842, -0.15471, -0.11341, 0.071047, 0.22146, 0.27053, 0.067836, 0.033153, -0.015407, -0.17642, -0.044505, -0.07312, 0.097981, -0.00044992, -0.009583, -0.30804, -0.067118, 0.41763, 0.11891, -0.039243, -0.32919, -0.026542, -0.30606, 0.17097, 0.20226, -0.12656, 0.28691, -0.021325, -0.075113, -0.067967, 0.28911, 0.37945, -0.032939, -0.17454, -0.035875, -0.0057085, 0.026012, 0.22405, 0.068052, 0.031663, 0.043525, 0.24743, 0.24576, -0.14937, 0.073009, 0.29763, -0.54681, 0.34503, 0.47651, -0.28739, -0.033217, -0.22984, 0.035477, 0.24683, -0.016156, -0.034021, 0.21656, 0.070984, 0.12462, -0.28617, 0.059419, -0.18373, 0.22359, 0.030552, -0.084298, 0.46453, -0.28064, 0.043813, 0.36315, 0.036947, -0.11306, 0.0039509, 0.090162, 0.01621, -0.51381, 0.061497, -0.16472, -0.12419, -0.13403, -0.13568, 0.19776, -0.020331, 0.21313, -0.14911, 0.00027653, 0.28206, 0.22206, -0.36295, -0.068501, -0.093932, 0.033482, -0.18408, -0.22324, 0.01274, 0.25727, 0.2212, 0.1261, 0.098106, -0.058346, 0.28129, 0.025816, 0.18692, 0.24652, -0.04766, -0.37927, 0.16547, 0.30797, 0.39558, -0.6474, -0.27356, 0.014957, 0.058059, 0.15723, 0.2856, 0.018408, -0.02979, -0.08803, -0.026092, -0.31003, -0.25023, -0.25941, 0.11911, -0.29804, -0.17588, 0.7068, -0.17737, -0.11561, 0.0027573, 0.087111, 0.10252, 0.026009, 0.37562, -0.16963, -0.44652, 0.075349, -0.10791, 0.080641, 0.10704, 0.3085, 0.025181, -0.38427, -0.18201, 0.052143, -0.18942, 0.51162, 0.19805, 0.26114, -0.19141, 0.1784, -0.38223, 0.092148, -0.35749, -0.043835, 0.43057, -0.11569, 0.043984, -0.017284, 0.13915, -0.15135, 0.13078, 0.19661, 0.10673, -0.11834, 0.024961, 0.063463, -0.27703, 0.23842, 0.024928, 0.028557, -0.25409, 0.11043, -0.19374, 0.039858, -0.041689, -0.2042, -0.089373, 0.02735, -0.029112, 0.18412, -0.099447, -0.10508, -0.10997, -0.10678, -0.20076, 0.17647, 0.21581, -0.32575, 0.051211, 0.56372, 0.062745, 0.20487, -0.45337, 0.37878, -0.063688, 0.18379, -0.14424, -0.11968, 0.054553, 0.1704, 0.021431, 0.070364, -0.052658, -0.031868, 0.66771, -0.41979, -0.072455, -0.13006, -0.10135, -0.065156, 0.54802, 0.16523, 0.15835, -0.18218, 0.068617, -0.00126, -0.025488, 0.27368, 0.21246, 0.017112, -0.022289, -0.047272, -0.53613, -0.28122, -0.27339, -0.24927, -0.038499, 0.063372, 0.11051, -0.24302, -0.13276, -0.010943, 0.3321, 0.20662, 0.46153, 0.21881, 0.021675, -0.1677, 0.21666, -0.16122, -0.027707, 0.47915, -0.065021, 0.10013, 0.1928, -0.19757, -0.12639, -0.17459, 0.1295, 0.053489, 0.23523, -0.16758, 0.045885, 0.38424, -0.10772, -0.10713, 0.048209, -0.046194, 0.094793, 0.1015, -0.18971, 0.050415, -0.1472, -0.20358, 0.02306, 0.099646, 0.0091966, -0.24564, -0.0086488, -0.025447, 0.29769, -0.19184, 0.50242, -0.0094708, -0.28009, -0.13919, 0.028039, 0.049446, 0.014359, 0.045094, -0.08173, 0.080415, -0.078633, 0.18142, 0.18705, -0.1454, 0.038001, -0.50549, -0.27101, -0.42827, -0.08111, 0.061207, -0.065342, 0.33248, 0.29305, -0.18447, -0.011635, 0.062698, -0.28939, 0.19591, -0.048781, 0.2424, -0.26814, -0.35966, -0.31203, -0.063377, 0.043068, -0.11383, 0.0047256, 0.16765, 0.017464, -0.052548, -0.38108, 0.014008, 0.016371, 0.21779, 0.16457, 0.069152, -0.2273, 0.035503, -0.33622, 0.17691, -0.1345, -0.11663, 0.083552, -0.13981, -0.36271, 0.17146, 0.12146, -0.15673, 0.093066, -0.03308, -0.16085, 0.32417, 0.16741, 0.077578, 0.052758, 0.067781, -0.1684, -0.10924, 0.052959, 0.10085, -0.11941, -0.13635, -0.20039, 0.021175, -0.12469, 0.020882, 0.0012723, -0.18328, -0.28454, -0.23404, 0.17909, 0.33207, -0.16123, 0.11917, 0.040169, -0.35404, -0.090939, 0.3103, 0.32349, 0.030713, -0.27572, 0.27459, -0.16351, 0.52171, -0.03024, 0.48944, -0.29332, -0.0088637, -0.0040161, -0.023745, -0.30765, -0.00069188, 0.29591, -0.23437, 0.098518, 0.41353, 0.022051, -0.26214, 0.11827, -0.24422, 0.045627, 0.014536, -0.30565, -0.38961, 0.1993, 0.0086855, -0.1989, -0.15282, -0.18858, -0.02348, 0.098291, -0.22856, -0.1995, 0.14105, 0.030952, 0.45672, 0.032199, 0.26552, 0.060655, -0.11515, -0.13198, 0.14907, 0.094776, -0.11061, 0.12429, -0.28003, 0.11099, -0.38584, 0.28812, 0.063473, 0.00056728, 0.53189, 0.10717, -0.17229, -0.31064, 0.11725, -0.22245, 0.27975, 0.086642, 0.027634, 0.039171, -0.21671, 0.022416, -0.19251, -0.044095, 0.035599, -0.034239, 0.22429, 0.36264, 0.12522, -0.19933, 0.23105, 0.10761, -0.41716, 0.055427, -0.35271, 0.044625, -0.013462, -0.029312, -0.20911, 0.27153, -0.21659, 0.0030359, 0.38974, -0.2943, -0.40611, -0.44513, 0.3868, -0.082487, 0.12435, 0.10759, 0.064672, 0.052646, -0.039361, 0.023786, 0.086124, -0.15499, 0.086085, -0.084636, -0.13465, -0.13033, -0.21069, 0.19526, 0.077292, 0.18214, -0.16076, -0.27011, -0.55531, 0.17474, -0.036322, -0.24455, -0.3365, -0.29236, 0.16142, 0.27698, -0.54814, 0.18579, -0.29172, -0.0139, -0.21057, -0.07281, -0.15927, -0.072401, -0.0024231, -0.2748, 0.066587, -0.045493, -0.086095, 0.041678, -0.038522, -0.13383, 0.025245, 0.18489, 0.1334, -0.28716, 0.25097, 0.15853, 0.15829, -0.35009, -0.11487, -0.0074032, -0.26256, 0.16898, -0.17408, -0.17601, 0.096128, -0.25707, 0.30724, 0.0786, -0.3639, -0.31382, -0.13817, 0.27312, -0.091512, 0.118, 0.1124, -0.24814, 0.51525, 0.036858, 0.31478, 0.26467, -0.012029, 0.30463, -0.13107, 0.27508, -0.088875, -0.095251, 0.21473, 0.2004, -0.0085823, -0.030687, 0.50696, 0.35067, -0.089403, 0.24251, 0.24349, 0.17815, 0.11966, 0.038001, -0.22728, -0.023868, 0.23104, -0.5235, -0.40489, 0.088346, 0.014533, -0.0017776, 0.046405, -0.31072, -0.2775, -0.15492, 0.065956, 0.10333, -0.10718, 0.18426, 0.32989, -0.27623, -0.023685, -0.057244, -0.29982, 0.0051073, -0.097932, 0.18515, -0.10031, 0.062189, -0.12478, -0.06585, -0.026792, -0.089744, -0.0172, -0.048836, 0.012995, 0.16268, -0.24301, -0.15711, 0.10504, -0.19076, -0.17223, 0.22151, -0.022086, 0.056197, -0.72265, -0.076532, 0.12498, 0.0033377, 0.17746, -0.076378, 0.68361, 0.29422, -0.11735, 0.042923, -0.0075404, 0.12515, 0.16599, 0.16353, -0.041057, 0.053996, 0.0034122, -0.1648, 0.14033, -0.016559, 0.0085897, 0.10003, 0.081041, -0.01359, -0.3121, -0.64495, -0.44115, 0.39655, 0.060484, -0.033727, -0.030497, 0.52257, 0.086516, 0.066559, 0.037997, 0.21606, -0.45639, -0.35387, -0.061464, -0.22486, -0.12886, -0.39108, -0.69894, 0.26565, 0.09914, -0.12844, -0.12746, -0.4199, -0.010366, 0.30927, 0.20583, -0.5614, 0.23119, -0.21599, -0.10033, 0.023521, 0.07576, -0.37983, 0.098867, 0.33748, 0.47814, -0.055712, 0.31729, 0.042355, -0.30372, -0.12922, 0.061371, -0.20456, 0.10955, 0.083235, 0.040982, 0.16773, -0.11452, 0.15863, 0.19107, 0.22825, 0.25603, -0.098417, -0.10836, -0.041023, 0.087071, 0.026054, -0.0054483, 0.13236, 0.05565, -0.30557, -0.12171, -0.0506, 0.064488, -0.024187, 0.1969, 0.19451, -0.052067, 0.089181, 0.0081774, -0.43083, -0.12139, -0.14151, 0.54307, 0.12292, -0.05076, -0.14219, 0.17824, 0.17445, 0.22599, 0.26896, -0.32495, 0.13621, 0.11505, -0.13194, -0.52292, 0.13431, -0.1121, -0.083505, 0.053686, 0.024914, 0.62356, -0.37788, -0.48443, -0.136, -0.15706, 0.23569, -0.78221, 0.19337, -0.058573, -0.03484, -0.028881, 0.29784, -0.40425, 0.16929, -0.15265, 0.23227, 0.017155, 0.052659, 0.38809, -0.38041, -0.12031, 0.16595, 0.15423, -0.15883, -0.0099214, -0.38535, -0.096115, -0.068479, -0.024879, 0.025981, 0.4352, -0.24239, -0.069927, 0.081585, -0.14177, -0.016636, 0.26134, 0.074972, -0.19515, 0.38682, -0.23177, -0.3134, -0.10891, -0.081204, 0.093133, -0.067839, 0.17687, 0.027653, 0.16805, 0.0064758, 0.083516, -0.015677, 0.60931, -0.033128, 0.41272, -0.025757, -0.11532, 0.043282, 0.12743, 0.096539, 0.057806, 0.49703, 0.24681, 0.11405, -0.10531, -0.13264, -0.11689, 0.02155, 0.32594, -0.31875, -0.046595, -0.09501, 0.080028, 0.15856, -0.11104, -0.2789, 0.14841, 0.068205, 0.1268, 0.10258, -0.30684, 0.15246, -0.00066501, 0.035306, -0.25544, 0.2658, 0.45145, 0.39761, -0.097261, 0.20111, -0.19951, 0.070433, 0.00078681, -0.10848, 0.18733, -0.088467, 0.018627, -0.099581, -0.36758, 0.010084, 0.30497, -0.012016, 0.11461, 0.30636, 0.088895, -0.35174, 0.049787, -0.24489, 0.43943, -0.058455, -0.42035, 0.028815, 0.085218, 0.32304, -0.038716, -0.0087724, -0.05395, -0.5295, -0.073496, -0.0043422, 0.0013412, 0.77936, 0.13343, -0.12065, -0.053545, 0.043985, 0.086124, 0.089455, 0.2206, -0.073602, -0.13623, 0.35093, 0.25755, 0.066294, 0.20036, 0.062864, 0.053398, -0.33825, -0.090497, -0.3718, 0.14192, -0.30746, -0.32713, 0.26848, -0.097124, 0.075864, 0.38788, -0.1074, -0.36806, -0.5869, -0.34922, 0.19161, -0.022304, 0.047494, 0.092002, -0.073059, -0.065411, -0.1057, 0.41179, -0.33567, -0.15118, -0.50186, -0.025817, 0.14574, 0.23173, -0.57069, -0.011201, 0.030561, 0.25084, -0.091112, 0.058558, -0.079312, -0.053957, -0.094735, -0.089612, 0.29619, 0.18263, 0.14785, 0.15431, 0.035396, -0.0011926, 0.15843, 0.11177, -0.074145, 0.28997, -0.29125, 0.07888, -0.012881, 0.3991, 0.12618, -0.11768, 0.068053, 0.33942, -0.15403, -0.054462, 0.12694, -0.31214, -0.18107, -0.076563, -0.059498, 0.067059, 0.68261, -0.1619, -0.175, 0.12463, 0.074787, -0.013356, 0.24029, -0.15876, 0.22843, 0.054262, 0.23518, -0.0063774, -0.10913, 0.38315, -0.072403, -0.00063601, -0.19084, 0.28226, 0.35386, 0.2961, -0.0098473, -0.20639, 0.10589, 0.45484, 0.24213, 0.14384, -0.35736, -0.080044, -0.15692, 0.2472, -0.24695, -0.095474, 0.45185, 0.14344, 0.27716, 0.027164, -0.058796, -0.10028, 0.1545, 0.31123, -0.18724, 0.10568, 0.15818, 0.069196, 0.090794, -0.28803, 0.022727, 0.29574, -0.19032, -0.07058, 0.14623, -0.011423, 0.013969, -0.16862, 0.12908, -0.12238, -0.072329, 0.16275, 0.2075, -0.12576, 0.05033, 0.16561, 0.42986, -0.034686, 0.34433, 0.13768, 0.10847, 0.30203, -0.06077, 0.08898, 0.17527, 0.031264, 0.12384, -0.50257, -0.00026554, -0.31858, 0.10705, -0.1623, 0.06195, -0.090989, -0.097016, -0.079235, 0.10964, -0.069064, 0.18268, -0.065283, -0.055892, -0.047389, -0.25816, 0.20919, 0.15336, 0.11737, -0.28592, 0.023221, -0.27772, 0.21893, 0.2578, 0.10118, 0.23709, -0.57256, 0.56365, 0.34872, 0.15728, 0.090894, -0.0027322, -0.16183, 0.099804, 0.004259, 0.30718, 0.01229, 0.28875, 0.08434, -0.39926, 0.18626, 0.38834, -0.10159, 0.1804, 0.0072694, 0.11863, 0.16743, 0.42635, 0.15764, 0.073776, -0.18638, -0.023503, 0.01057, -0.0012713, 0.0076591, 0.074043, 0.19686, 0.082251, -0.10444, -0.06173, 0.61929, 0.16102, -0.19843, -0.022483, 0.17744, -0.077229, -0.36177, -0.24124, 0.11649, 0.11057, -0.12393, -0.22941, 0.15931, -0.081149, 0.054827, -0.061426, 0.13916, -0.4135, 0.21792, -0.087903, -0.005261, 0.13305, 0.14215, 0.2715, -0.11698, 0.12644, 0.01055, -0.081407, -0.02473, -0.12749, -0.073204, 0.051493, -0.32409, -0.16416, -0.18551, 0.046644, -0.25762, 0.27626, -0.25328, 0.27051, -0.22825, -0.13855, 0.077856, -0.059543, -0.045641, 0.31912, -0.098252, 0.21282, 0.6056, -0.26186, 0.030912, 0.32693, -0.25882, -0.001721, 0.21765, -0.034349, 0.15833, 0.14448, -0.18652, -0.19545, 0.0020046, 0.092673, -0.13858, -0.04735, 0.0081223, 0.090855, -0.066466, -0.15928, 0.12432, -0.096742, 0.027869, 0.53735, -0.26424, 0.16778, 0.0039736, 0.29386, 0.19834, 0.12966, -0.007847, 0.39656, -0.15827, 0.26018, -0.097857, -0.44882, 0.048289, 0.067731, -0.19199, 0.029065, 0.11177, 0.23585, -0.048017, -0.42663, -0.080872, -0.2151, -0.28744, -0.17669, -0.091464, -0.51134, 0.14255, -0.041244, 0.032211, -0.0026634, -0.045306, -0.15466, -0.09221, 0.12889, 0.0044851, -0.23918, 0.11689, 0.162, -0.029929, -0.021531, -0.0091052, 0.083527, 0.051605, -0.17789, -0.36144, -0.051807, -0.099624, -0.23455, 0.095327, -0.1096, 0.35581, -0.37652, -0.30006, -0.13733, 0.22437, 0.051197, 0.16565, 0.13328, 0.1242, -0.011331, -0.035856, 0.038499, -0.24178, 0.12525, -0.43003, -0.14181, 0.059837, -0.32773, -0.042161, 0.17565, -0.004341, 0.03151, -0.29895, 0.40042, -0.30309, 0.16955, 0.15049, 0.14443, -0.071809, 0.013787, 0.3814, -0.28624, 0.45179, -0.17401, -0.34122, 0.37453, -0.097745, 0.31547, 0.13081, 0.21989, -0.034434, 0.094438, -0.13142, 0.177, -0.27837, 0.30845, -0.046991, 0.34205, 0.14069, 0.10895, -0.0041891, -0.073075, -0.042824, 0.0086118, -0.14855, 0.079761, 0.10241, 0.014463, 0.021544, 0.044808, 0.050673, -0.059458, -0.098734, 0.19857, -0.06701, 0.0027671, 0.087178, 0.3351, -0.42944, -0.081727, 0.06968, -0.31013, 0.29527, 0.086033, 0.095736, -0.11107, 0.45986, 0.15864, 0.19394, 0.22631, -0.48421, 0.075507, -0.019781, 0.54898, 0.03934, 0.26429, -0.079955, 0.44567, 0.34696, -0.14144, -0.40257, 0.37439, -0.47199, -0.49522, -0.0084927, 0.35146, -0.0025163, 0.26381, -0.13583, -0.26131, -0.17227, 0.035337, 0.11588, 0.20529, 0.29355, 0.2762, 0.1915, -0.41503, -0.027368, 0.39228, 0.11936, 0.2555, 0.1094, -0.031945, 0.16336, -0.1701, -0.017321, -0.033909, 0.28319, 0.40335, -0.026344, 0.073359, 0.1337, 0.028679, 0.081861, -0.080267, 0.61263, 0.32457, -0.13613, 0.072554, 0.39098, -0.082754, -0.2624, 0.1344, 0.16029, -0.13352, 0.027957, 0.27542, -0.28627, 0.083797, -0.21272, -0.11377, -0.18854, 0.43762, -0.078512, 0.10636, -0.052826, 0.18131, 0.023011, 0.027942, 0.50807, 0.054078, -0.1742, -0.14878, -0.57856, -0.073199, -0.047181, -0.14454, -0.090316, 0.1591, 0.25262, 0.42361, -0.23514, -0.71953, -0.20529, -0.32256, 0.15921, -0.12181, -0.047747, -0.099845, 0.066725, -0.064608, -0.52393, 0.44471, -0.24314, -0.01549, -0.28985, -0.34646, -0.20469, 0.015649, -0.038159, 0.21275, 0.40116, 0.13434, -0.037906, 0.23131, 0.059851, -0.018506, -0.17573, 0.09397, -0.12916, 0.41333, -0.089813, -0.095314, 0.022441, 0.12508, -0.038069, 0.18956, -0.25697, -0.023251, -0.089442, 0.013594, 0.19183, 0.27646, 0.52174, 0.058139, 0.20843, -0.18047, -0.16151, 0.10959, -0.049337, -0.063857, 0.014957, 0.075409, 0.03284, 0.40288, 0.048087, -0.12417, -0.32188, -0.062996, 0.21811, -0.12706, 0.18242, -0.090013, -0.010074, -0.098339, 0.031936, 0.16467, 0.020704, 0.031175, 0.11966, 0.12269, 0.04779, -0.010289, 0.31648, -0.0367, 0.12931, -0.13732, 0.065059, -0.19832, -0.051788, 0.18163, 0.39392, 0.14328, 0.1829, 0.25969, 0.084172, 0.035939, -0.17026, 0.050421, -0.3288, -0.33027, -0.32242, 0.31742, -0.15282, -0.43959, 0.078222, 0.0257, 0.016126, -0.2341, -0.19027, -0.0046106, -0.025428, -0.081728, 0.47214, -0.17588, 0.14197, -0.071938, -0.40374, 0.18673, -0.010347, -0.14304, 0.16685, 0.1259, -0.16413, 0.14771, 0.18806, 0.18993, 0.53501, -0.29972, -0.29508, -0.018431, -0.055439, -0.10082, 0.22277, -0.1497, -0.22833, -0.30541, -0.20467, 0.31053, -0.1376, -0.24322, -0.067152, -0.27044, 0.32742, -0.24766, -0.14551, -0.15267, -0.035612, -0.17083, -0.32218, -0.025735, -0.178, -0.023195, 0.077765, 0.049363, -0.015519, 0.097386, -0.060622, 0.043723, -0.049255, 0.089641, -0.2312, -0.0085155, -0.04335, -0.056776, -0.26535, 0.13211, 0.025366, -0.0097067, 0.28733, 0.19186, -0.30521, -0.2004, -0.16005, -0.57027, 0.18135, 0.070407, -0.41661, -0.022506, -0.38267, -0.59152, -0.045545, 0.32243, 0.061082, -0.080578, 0.06245, 0.052199, 0.10999, 0.21605, -0.0037934, 0.30378, 0.06987, -0.013254, -0.35916, -0.29804, -0.32369, 0.35419, -0.13372, 0.15435, -0.27981, 0.15184, -0.08983, 0.11099, -0.12839, -0.36132, 0.25806, -0.11202, 0.083554, -0.31939, -0.16789, 0.057346, 0.24833, -0.071545, 0.10856, 0.087124, -0.42492, 0.031911, 0.18895, -0.03398, 0.13524, -0.18095, -0.030884, -0.014331, -0.065385, 0.032323, -0.05656, 0.36693, 0.072852, 0.044296, 0.053691, 0.01767, 0.14106, 0.21624, 0.33022, -0.10434, -0.095031, 0.090107, -0.30635, -0.12996, 0.021319, 0.33821, -0.029595, -0.15725, 0.14194, -0.30941, -0.3061, -0.029486, 0.063071, -0.04669, -0.24279, 0.35423, 0.0093538, -0.14767, 0.15569, 0.15995, 0.36232, 0.040011, -0.059712, -0.14137, 0.40595, 0.028892, 0.69034, 0.062551, 0.22342, 0.26961, 0.099573, -0.50223, -0.35692, -0.068921, -0.26205, -0.22526, -0.043702, -0.040369, 0.0073441, 0.036137, -0.037913, -0.11663, -0.076018, -0.6964, -0.082816, 0.19194, 0.057607, 0.23562, 0.11272, 0.17762, -0.25941, 0.079294, 0.14397, -0.094397, 0.054224, -0.33969, -0.00563, -0.09705, -0.086736, -0.012583, 0.023419, 0.28452, 0.073422, 0.093079, -0.12484, 0.16889, -0.33502, -0.15283, 0.47043, 0.12411, -0.05108, -0.31105, -0.25728, -0.33364, -0.059389, 0.083499, -0.13624, -0.1524, 0.16346, 0.11604, 0.018667, -0.20756, -0.18846, 0.083187, -0.012732, -0.41709, 0.41058, 0.0051722, -0.47557, 0.13293, -0.13952, 0.42445, -0.17386, -0.14963, 0.1614, -0.17571, -0.24904, 0.070495, -0.43949, 0.0055034, 0.054389, 0.097474, -0.16227, -0.096525, -0.044267, -0.18757, -0.38718, -0.25259, 0.15955, 0.2216, 0.094835, 0.041139, -0.26424, 0.01576, 0.029607, -0.12671, -0.053569, -0.068029, 0.082821, -0.18566, -0.031183, 0.034233, -0.31764, -0.060617, 0.073351, -0.13518, -0.11468, -0.099069, -0.13023, -0.20199, 0.19958, 0.090388, 0.0029564, 0.8615, 0.22085, 0.27311, 0.44719, 0.09393, -0.26254, -0.13919, -0.024118, -0.016199, -0.055634, -0.17185, 0.094537, -0.078357, -0.20607, 0.1377, 0.37118, 0.21799, -0.041595, 0.02942, 0.44899, 0.061348, 0.27353, -0.058498, -0.04664, -0.0032163, 0.0827, -0.048365, 0.25737};
static float SECONDARYOBJECTNEURALNETWORK_WEIGHTS_2[324] = {-1.103, -0.16538, -0.35413, 0.058148, 1.6918, -0.39791, -1.2451, -0.52141, 1.0542, 1.235, -2.2843, -0.88977, 0.72034, -0.83738, 1.1088, -1.3491, 2.3943, -1.0614, -1.701, -0.056735, 0.58703, -2.5922, 0.69777, 2.0567, 1.9003, -1.7411, -0.33038, -0.60272, 2.1344, -0.88889, -1.7042, -0.93614, 2.7819, -1.2895, -1.9773, -0.73314, 1.8863, -0.59665, -2.5442, 0.70723, -1.4637, 2.4328, 0.065193, -0.99354, 0.96566, -1.1, -1.635, 1.4383, -1.8003, 2.622, 0.24063, -0.049736, 2.1523, -0.92382, -1.6044, -1.1078, -2.5564, 2.2592, 0.34922, 0.1147, -0.5803, -0.16238, -1.6715, 1.9328, -2.0414, 1.1823, 1.4379, -0.71002, -3.263, 1.064, 2.4668, 0.40999, -1.6041, -0.73596, 1.9207, 0.2591, 1.9414, -0.82846, -0.36654, -1.6295, -1.6088, 2.3552, -0.82142, 0.2332, 1.3749, -1.2637, -0.060476, -0.96032, -0.29485, 2.1667, -1.9433, -0.2266, 1.684, -0.98804, -2.0807, 0.39082, -3.0334, 0.72935, 0.96596, 1.8772, 1.2488, -2.1043, -0.37538, 1.1084, 2.3504, -0.22891, -2.2417, -0.51762, 2.352, -1.896, -1.3656, -0.35586, 2.0154, -1.055, -1.6239, -1.2155, -2.2119, 1.1398, 1.8053, -1.3529, 0.084418, -0.922, 1.2618, -1.2602, -2.3897, 1.7434, 0.45593, 1.4467, -2.4124, 3.0059, -0.14445, -0.32437, 2.6847, -2.23, -0.65793, -0.31275, 2.0996, -1.1008, -0.54861, -1.4077, -0.45113, 0.2174, 1.6092, -1.8152, -2.19, -0.57785, 1.4265, 1.1701, 0.48017, -1.4403, 1.6706, -1.1302, 2.3986, -1.626, -1.7233, 0.14423, -0.10559, 0.84643, 0.7926, -2.3018, -0.12826, -0.35692, 1.5331, -1.5497, 2.0328, -1.2101, -1.72, -0.21299, -2.122, -0.7906, 1.0611, 1.6821, -2.63, -0.47116, -0.3681, 3.3453, 2.8742, 0.10416, -2.143, -1.588, 0.62621, -2.2523, -0.15552, 0.4065, 0.57894, -2.1247, 0.13283, 1.7583, 0.32525, -1.7561, 1.3823, -0.71246, 1.6924, -1.8162, -1.0142, -0.034743, -2.9307, 1.625, 1.0354, 0.42083, -0.65671, 0.70938, 1.8646, -1.7681, -2.1066, 0.88728, -0.41434, 1.5224, -1.8743, -0.23232, 1.5077, 0.92121, 1.8233, -1.026, -1.7319, -0.066361, 2.1463, -2.1576, 0.55971, -1.068, 1.1328, -1.0983, -0.058466, -1.3866, 0.64956, 2.156, -3.0237, -1.2605, 1.0672, -1.7742, -0.39414, 1.1394, 3.0181, -1.3514, -1.5553, -1.1975, -2.5259, 0.36731, 0.47614, 1.6581, -1.6881, 2.3097, 0.57296, -1.1012, 2.1546, 0.023117, -1.5801, -1.2054, -1.3566, 0.67712, 1.1242, -0.96319, 1.2994, -1.0381, 0.61683, -1.5787, 1.3155, -1.3942, 0.63189, -1.6855, -1.9053, 1.3012, -0.80306, 1.155, -2.3018, -0.95902, 2.3186, 1.1307, 1.7544, -0.65547, -0.61739, -1.0735, -2.267, 2.6114, 0.055794, -1.1052, -0.46232, -2.1574, 1.5945, 1.2482, 0.19368, 0.89149, 0.88531, -2.1939, 1.7139, -1.7166, -0.23407, -1.2458, -2.044, 0.57143, 1.897, 0.0174, 1.1055, -0.55872, 0.36117, -1.9007, -2.0342, 1.1184, 0.3501, 0.7397, -0.47336, 2.7737, -1.3266, -1.8527, 0.67687, -1.006, -1.817, 1.3334, 1.8775, -1.4791, 0.85054, -1.6903, 1.7206, -1.0508, -0.22886, -1.4931, -0.030491, 1.3505, -2.4391, 1.1754, 0.84528, -1.1321, -0.2391, 0.3451};

SecondaryObjectNeuralNetwork::SecondaryObjectNeuralNetwork() {
    layers = new size_t[3];
    layers = SECONDARYOBJECTNEURALNETWORK_LAYERS;
    nbLayers = 3;

    weights = new float * [2];
    weights[0] = new float [6480];
    weights[0] = SECONDARYOBJECTNEURALNETWORK_WEIGHTS_1;
    weights[1] = new float [324];
    weights[1] = SECONDARYOBJECTNEURALNETWORK_WEIGHTS_2;

    precision = 0.94218;
    recall = 0.86386;
}
